#include <stdio.h>
#include <stdlib.h>
#include <math.h>
#include <unistd.h>
#include <fcntl.h>
#include <sys/mman.h>
#include "hwlib.h"
#include "socal/socal.h"
#include "socal/hps.h"
#include "socal/alt_gpio.h"
#include "hps_0.h"

#define HW_REGS_BASE ( ALT_STM_OFST )
#define HW_REGS_SPAN ( 0x04000000 )
#define HW_REGS_MASK ( HW_REGS_SPAN - 1 )

#define INPUT_SIZE 784  // Size of input vector (28x28 image)
#define OUTPUT_SIZE 10  // Number of classes (digits 0-9)

#define MAX_BUFFER_SIZE 1024


// Sigmoid activation function
double sigmoid(double x) {
    return 1.0 / (1.0 + exp(-x));
}

void forwardPass( double input[INPUT_SIZE],  double weights[INPUT_SIZE][OUTPUT_SIZE], double biases[OUTPUT_SIZE], double output[OUTPUT_SIZE]) {
    	for (int i = 0; i < OUTPUT_SIZE; ++i) {
        	double sum = biases[i];
        	for (int j = 0; j < INPUT_SIZE; ++j) {
            		sum += weights[j][i] * input[j];
        		}
        	output[i] = sigmoid(sum);
    		}
	}

int main() {
  
    double weights[INPUT_SIZE][OUTPUT_SIZE] = {
        {-0.00814917, -0.04344272,  0.00931523, -0.00748909, -0.06008098,
         -0.00566804,  0.02695161,  0.05807505, -0.02567028,  0.05024231},
        {-0.05295078, -0.08285491,  0.02797636,  0.07201373,  0.05367253,
         -0.01630854,  0.04591102, -0.07860956,  0.08138537, -0.00678442},
        {-0.0615731 ,  0.04209746, -0.02915283,  0.01357422, -0.04138045,
          0.0250791 , -0.00639283, -0.04434397,  0.07221768,  0.0657816 },
        { 0.05891062, -0.05129457,  0.04814256,  0.04717342,  0.03448756,
         -0.07399299,  0.05223776,  0.04035441, -0.00968333, -0.00843118},
        {-0.0434005 ,  0.04843385,  0.00882269, -0.07509099, -0.05910684,
          0.01070763, -0.02854713,  0.05554918,  0.06195173,  0.00143044},
        {-0.04022455, -0.01242804,  0.07767651, -0.05925157, -0.00609463,
          0.0038423 ,  0.04545446, -0.04257895, -0.07968915,  0.00678757},
        {-0.04010662,  0.04112538, -0.01588278,  0.05900491,  0.01972688,
          0.01914792,  0.05013246, -0.01556785,  0.04522411,  0.08189905},
        { 0.05132327,  0.05064542, -0.0694649 ,  0.03849592, -0.0306837 ,
          0.07715131,  0.06817911,  0.00573765,  0.08436536,  0.06683815},
        {-0.0746857 ,  0.02713937,  0.0175323 ,  0.00654021, -0.0793774 ,
         -0.06816216, -0.00091735, -0.03732606, -0.08248869,  0.02488698},
        {-0.05035128, -0.07745463,  0.04195257, -0.06769998,  0.06816409,
         -0.07758543, -0.06277499, -0.01329084,  0.06154699, -0.05646024},
        {-0.00227649, -0.04204164,  0.0457911 ,  0.0614865 , -0.0246099 ,
          0.00635047,  0.05037413,  0.06418446, -0.08119594,  0.06903607},
        {-0.03619387,  0.06076636,  0.04300372,  0.0771488 ,  0.01285602,
         -0.00709713, -0.02634359,  0.05933865, -0.08445716, -0.00308702},
        {-0.06473061, -0.02736818, -0.16274893, -0.21124233, -0.27454558,
         -0.14234057,  0.2386835 , -0.03691162, -0.06151282, -0.18803827},
        {-0.0498738 , -0.07125212, -0.13369048, -0.26810852, -0.21812342,
         -0.13057365,  0.2626959 ,  0.03578517, -0.08548594, -0.23451024},
        {-0.03408956, -0.08133814,  0.18125392, -0.19645377, -0.10741457,
         -0.00887372, -0.23089226,  0.05259914,  0.04493171, -0.01022376},
        {-0.0201095 , -0.05163665,  0.16226122, -0.02367531,  0.04253245,
         -0.05456826, -0.13403827, -0.04915646, -0.00316377, -0.01857674},
        { 0.08687028,  0.07665419,  0.03805508, -0.01544029, -0.02230661,
          0.08539689, -0.07529899, -0.04658834,  0.08472436,  0.05511682},
        {-0.04861923, -0.01517672,  0.06137683, -0.06644443,  0.03231915,
         -0.06948224,  0.06605334, -0.03813574,  0.05415992,  0.02602816},
        {-0.02596307,  0.07356101, -0.07109675,  0.01801211, -0.01672645,
          0.07315182, -0.03416588, -0.07472876,  0.05366472, -0.07387599},
        {-0.05985818,  0.00235552, -0.01654135, -0.08432732,  0.07350124,
         -0.06664828, -0.00003229, -0.00565488, -0.02894487,  0.01958939},
        { 0.05044789,  0.0314991 ,  0.04833571,  0.07848003,  0.05675284,
          0.0196378 , -0.07275218,  0.03259758,  0.05863366,  0.02938189},
        {-0.07967174, -0.00227222, -0.03634918,  0.05761649,  0.06413551,
          0.03022969,  0.06331632, -0.02634914,  0.08396884,  0.02038226},
        {-0.05100012,  0.01714811,  0.00947699,  0.04345516,  0.00341339,
         -0.02711792, -0.07209775, -0.06685595,  0.00924377,  0.02587044},
        {-0.01721437,  0.05002148, -0.02220105,  0.00717107,  0.08332673,
         -0.04838765, -0.04963841, -0.06704748, -0.01098929,  0.08639789},
        {-0.00748577,  0.00364027, -0.02935903, -0.08420319,  0.02210246,
          0.03953528,  0.07961418, -0.00098179,  0.04541034, -0.07121553},
        { 0.08674265, -0.03258875, -0.0497856 ,  0.00717723, -0.0022186 ,
         -0.05851134,  0.00774181,  0.06774535,  0.02744884, -0.02069864},
        {-0.0848913 , -0.04095127, -0.04838416, -0.006884  , -0.02343412,
         -0.02931654,  0.05577449,  0.00163583,  0.0350732 , -0.04701164},
        { 0.05582362, -0.03515372, -0.0815912 , -0.056261  ,  0.00190324,
          0.05999858, -0.02465419,  0.00543865,  0.01227459,  0.0225372 },
        {-0.00380056, -0.00986385,  0.07435138,  0.05463465,  0.05389448,
          0.07561416,  0.07235997, -0.02059083, -0.07193455,  0.06761133},
        { 0.0382961 ,  0.00347855, -0.05793821, -0.00089762, -0.07164711,
          0.06852543,  0.04964479,  0.00480819, -0.03010741,  0.03627565},
        { 0.07481355,  0.02001737, -0.03262284, -0.06028022,  0.017754  ,
         -0.05586388, -0.08564521,  0.06554759, -0.08492006, -0.07465428},
        { 0.06061488, -0.06994811, -0.00542747,  0.07420408,  0.05858181,
          0.03126171,  0.04709253, -0.05357955, -0.04791695,  0.07590521},
        {-0.03684837,  0.01394497, -0.07400464,  0.04336575, -0.12526575,
         -0.09012188,  0.2537324 ,  0.04861152,  0.01512469, -0.00204854},
        { 0.03323029, -0.07278741, -0.17350262, -0.04839148, -0.25772068,
         -0.10038996,  0.32380027, -0.02580724,  0.00814312,  0.00414017},
        {-0.00210193,  0.06493887, -0.43687055, -0.18657647, -0.480868  ,
         -0.04035717,  0.45748818, -0.11302625, -0.00705068, -0.23721336},
        {-0.05471782, -0.19378252, -0.32256058, -0.03196647, -0.4897116 ,
         -0.01915634,  0.5478913 , -0.23911561, -0.07669834, -0.17861232},
        {-0.06529718, -0.18971264, -0.05671771, -0.25541502, -0.4828817 ,
         -0.08545344,  0.44976756, -0.2705752 , -0.12869148, -0.17691857},
        {-0.06553461, -0.2867005 , -0.21271987, -0.21632381, -0.56484485,
         -0.14276904,  0.5487671 , -0.23881875, -0.23764499, -0.11106884},
        {-0.3619197 , -0.31433016, -0.2758461 , -0.26772195, -0.52981454,
         -0.2694595 ,  0.6356791 , -0.30715692, -0.40464407, -0.35066852},
        { 0.22333525, -0.2026755 , -0.48446256, -0.38938028, -0.8704176 ,
         -0.40541384,  0.35208267, -0.30857468, -0.5473301 , -0.5374181 },
        { 0.17826109, -0.27601448, -0.7061126 , -0.48278898, -0.97440314,
         -0.2776178 ,  0.53621083, -0.4480157 , -0.49309874, -0.45764846},
        { 0.23307475, -0.43907088, -0.49857897, -0.58383435, -0.7371579 ,
         -0.43187934,  0.40912044, -0.36632612, -0.6090052 , -0.49715665},
        {-0.62149125,  0.39932424, -0.02187384, -0.4197426 , -0.06841276,
         -0.686655  , -0.06148014, -0.3832342 , -0.44057095, -0.47895056},
        { 0.20047921,  0.32286933,  0.13580401, -0.39597335, -0.7820473 ,
         -0.8135442 ,  0.22217366, -0.46804744, -0.8719209 , -0.38376147},
        { 0.24716781, -0.48107082,  0.56679916, -0.71507025, -0.82899314,
         -0.79168725, -0.08579556, -0.32091746, -0.75541586, -0.29380542},
        { 0.15325464, -0.52061695,  0.10110071, -0.49586424, -0.72183686,
         -0.88093126,  0.29899913, -0.2498761 , -0.41175833, -0.35288236},
        {-0.42119178, -0.30978996, -0.6618502 , -0.49478626, -0.97536767,
         -0.39430457,  0.876902  , -0.11506425, -0.69638246, -0.541001  },
        {-0.3539782 ,  0.01820706, -0.5570974 , -0.34796894, -0.50762707,
         -0.5586099 ,  0.41736996, -0.29404894, -0.59262043, -0.41255274},
        {-0.27699113,  0.01588591, -0.5698556 , -0.32530737, -0.5714712 ,
         -0.5723678 ,  0.48674616, -0.19406793, -0.5981506 , -0.49214277},
        {-0.2639324 , -0.03900556, -0.37508425, -0.11833912, -0.3273373 ,
         -0.46923617,  0.41311797, -0.06484833, -0.3442829 , -0.34117633},
        {-0.09308289, -0.03269435, -0.2646069 , -0.11616869, -0.4780543 ,
         -0.18823402,  0.43788612, -0.22145382, -0.29671976, -0.38271204},
        { 0.04292268, -0.0106666 , -0.19297889,  0.01925629, -0.35721627,
         -0.03080884,  0.3455366 , -0.19423606, -0.14692828, -0.2377933 },
        {-0.00436359, -0.0637105 ,  0.06765763, -0.00262992, -0.04765666,
          0.07099783, -0.02602122, -0.00115424,  0.05439691, -0.07486054},
        {-0.0309249 , -0.03480654, -0.06739577,  0.07390816, -0.03274286,
          0.06767955, -0.0149676 ,  0.04856835, -0.03187682, -0.02472308},
        { 0.03872734, -0.03010885, -0.03638581, -0.05551791,  0.03422301,
          0.00054976, -0.02210049, -0.00290699,  0.06195088,  0.03744886},
        { 0.07244802, -0.08507861, -0.04102644, -0.06412615, -0.01830354,
          0.07725001,  0.07582172,  0.00678881,  0.02705166,  0.05121569},
        { 0.04031827,  0.03034614,  0.07109953, -0.00592008,  0.0634559 ,
         -0.05923851, -0.04383773,  0.06939863,  0.01475398,  0.0834483 },
        {-0.05654836,  0.02421935,  0.05515797, -0.073427  , -0.03452267,
         -0.05699203, -0.01176947, -0.0303347 , -0.03557397, -0.03063186},
        {-0.03392303, -0.03119439,  0.02301303, -0.07382514, -0.18036862,
          0.00548935,  0.04908524,  0.02573508, -0.06635483, -0.00433166},
        { 0.19939852,  0.04685311, -0.2639547 , -0.07670065, -0.23462479,
         -0.3520844 ,  0.09179427, -0.2602129 , -0.22600134, -0.2018495 },
        { 0.2080296 , -0.02168958, -0.4597833 , -0.14486139, -0.42737356,
         -0.429786  ,  0.47506216, -0.18530361, -0.22249253, -0.23895678},
        {-0.27786627, -0.1664629 , -0.09968676, -0.3078766 , -0.33336595,
         -0.23561484,  0.6016603 , -0.05490125, -0.14931765, -0.00316056},
        {-0.3602904 , -0.11180566, -0.06786337, -0.24445103, -0.56090206,
         -0.05184835,  0.6773535 , -0.15916227, -0.1936599 , -0.10741869},
        {-0.22027023, -0.40066406, -0.28015465, -0.48795852, -0.81435555,
         -0.43005627,  0.88601804, -0.49713305, -0.5672963 , -0.21539627},
        {-0.5868969 , -0.43394688,  0.10260394, -0.60433733, -0.86839145,
         -0.5281748 ,  0.7303613 , -0.3711199 , -0.72356224, -0.28336847},
        {-0.83842814, -0.4564185 ,  0.30020353, -1.0305573 , -1.1845696 ,
         -0.6502923 ,  0.31297278, -0.56534153, -1.1322349 , -0.5258714 },
        {-1.2015454 , -0.6307755 ,  0.11137737, -0.27627   , -1.1442249 ,
         -0.36464596,  0.78780675, -0.7055844 , -1.2653954 , -0.7221584 },
        {-0.2834928 , -0.61493725,  0.23971316, -0.09732775, -1.9092624 ,
         -0.45784104,  0.65772986, -0.71203303, -1.2322195 , -0.937146  },
        {-0.40283498, -0.0624149 ,  0.18665838,  0.00159419, -1.124668  ,
         -0.77460515,  0.49794185, -0.6625511 , -1.8422316 , -0.892258  },
        {-0.65064794,  0.33332846, -0.00720013, -0.16689001, -0.73084545,
         -1.3727883 ,  0.2752511 , -0.7012653 , -2.142007  , -1.0500387 },
        {-1.0486728 ,  0.3024365 , -0.02149929, -0.12210361, -0.4949807 ,
         -1.3929505 ,  0.41371766, -0.50443643, -2.1966414 , -1.3227409 },
        {-1.2525523 ,  0.3939019 ,  0.04491173, -0.37679517, -0.6540829 ,
         -0.4881931 ,  0.16078614, -0.5879    , -2.1401675 , -1.2127421 },
        {-0.6728827 ,  0.4836571 ,  0.17373326, -0.20973141, -0.7854844 ,
         -0.08382083,  0.2415333 , -0.6298726 , -2.3535666 , -0.77213496},
        {-1.1664819 ,  0.00330012, -0.01012227, -0.2890475 , -0.57188076,
          0.18022881,  0.31757057, -0.4518434 , -0.6074444 , -1.2167603 },
        {-1.3710984 , -0.18949275, -0.11936734, -0.4113447 , -1.4180502 ,
         -0.01957102,  0.23466302, -0.46526214, -0.18508369, -0.9912325 },
        {-0.85161614,  0.07234066, -0.29942608, -0.42819506, -1.2148621 ,
          0.00420706,  0.39265242, -0.25487638, -1.2154589 , -0.93076754},
        {-1.0243627 , -0.15448761, -0.28030044, -0.60135156, -0.96511143,
         -0.2305609 ,  0.46785313, -0.2726072 , -1.448992  , -0.59146196},
        {-1.0586799 , -0.56883514, -0.18309359, -0.61757046, -0.68946093,
         -0.4586844 ,  0.5074569 , -0.3506525 , -1.1062374 , -0.4152805 },
        {-0.70463544, -0.3602185 , -0.7170932 , -0.6271972 , -0.3825237 ,
         -0.3588908 ,  0.72472185, -0.32369566, -0.679706  , -0.5698082 },
        {-0.52578586, -0.4673451 ,  0.0154884 , -0.5557432 , -0.7685027 ,
         -0.35973638,  0.6790478 , -0.262505  , -0.8004888 , -0.47433385},
        {-0.2606999 , -0.18496084,  0.19657116, -0.25149176, -0.5651159 ,
         -0.51363033, -0.11639265, -0.03823701, -0.4886474 , -0.10165548},
        {-0.15022036, -0.00388493,  0.33095676,  0.04544877, -0.30591518,
         -0.34023628, -0.27999124, -0.03056562, -0.3641658 ,  0.01610108},
        {-0.05554966, -0.083748  ,  0.01689242, -0.00063495,  0.02607919,
         -0.05135981,  0.0119883 , -0.06292938, -0.08140837,  0.01127547},
        { 0.08004517,  0.01403447,  0.07713995, -0.05928798,  0.01711202,
          0.08272933,  0.02108876, -0.00141715, -0.07194672,  0.0755003 },
        { 0.01745833,  0.01246987, -0.02106871,  0.02329888,  0.04602277,
          0.00081789, -0.01908329,  0.02646371, -0.03289627,  0.05066737},
        {-0.07500409,  0.06175167, -0.04441015, -0.05366353, -0.06796632,
         -0.04780308, -0.06128406,  0.04557674,  0.01738496,  0.06186675},
        { 0.00137018,  0.18780722, -0.19036871, -0.25687882, -0.21686126,
         -0.16063501, -0.19315042, -0.03117928, -0.20540047,  0.02463024},
        { 0.20427623,  0.17220959, -0.57848597, -0.3298737 , -0.46409822,
          0.0034642 ,  0.25879157, -0.28650817, -0.35854736, -0.3506428 },
        {-0.21010254, -0.32971367, -0.4437167 , -0.37908435, -0.6139878 ,
          0.1294988 ,  0.1060141 , -0.38996148, -0.38856232, -0.34769204},
        {-0.27149963, -0.46330002, -0.21168758,  0.42275178, -0.44664246,
         -0.27082407,  0.26240683, -0.3495643 , -0.67552996, -0.3343066 },
        {-0.34891167, -0.49776477, -0.03226982,  0.24402696, -0.6484787 ,
         -0.409179  ,  0.5549641 , -0.52092963, -0.8098108 , -0.36914727},
        {-0.49481428, -0.5277743 ,  0.15252204,  0.27856213, -0.5234831 ,
         -0.83972716,  0.36314872, -0.9257843 , -0.7167314 , -0.5454115 },
        {-0.12228125, -0.60412806,  0.0255249 ,  0.32649973, -0.8452933 ,
         -0.37966207,  0.34174955, -0.78858113, -0.36225113, -0.6546908 },
        {-0.22891304, -0.4792334 ,  0.5223921 ,  0.08201944, -1.0483594 ,
         -0.26911592,  0.29722813, -1.0056007 , -0.48638946, -0.9214324 },
        {-0.15356441, -0.5811396 ,  0.3170719 ,  0.26719755, -0.9098607 ,
         -0.10470445,  0.2852862 , -0.8449314 , -0.19413808, -1.295638  },
        {-0.01012047, -0.8692517 ,  0.37916863,  0.324803  , -0.9241113 ,
         -0.39136446,  0.2616735 , -0.87284654, -0.30189717, -1.3996137 },
        {-0.15862896, -0.31176877,  0.29208422,  0.50652754, -1.3100611 ,
          0.03652215,  0.07200602, -1.005431  , -0.38073725, -1.7915524 },
        { 0.09597152, -0.21080343,  0.44030556,  0.21464816, -1.4979523 ,
         -0.14793506,  0.16528851, -1.1464919 , -0.18857951, -1.7097296 },
        { 0.0709713 , -0.23334965,  0.22685167,  0.39179438, -0.9076701 ,
         -0.10846036,  0.18604249, -0.8084759 , -0.28356594, -2.0442264 },
        {-0.00779272, -0.08254313,  0.11829773,  0.26724553, -0.83519864,
          0.03625248,  0.15060689, -0.99148804, -0.17267992, -2.292402  },
        { 0.022834  ,  0.0128226 ,  0.18346265,  0.23887798, -0.693179  ,
         -0.06290934, -0.02893136, -0.6614841 , -0.28045025, -2.126365  },
        { 0.01002024, -0.26593858,  0.04328677,  0.17658834, -0.47964108,
         -0.03449748, -0.03683942, -0.99201113, -0.17282279, -1.4030802 },
        {-0.37445188, -0.414272  , -0.18628176,  0.32012823, -0.64901614,
          0.17555058,  0.13782974, -0.7729694 ,  0.04160187, -0.27756095},
        {-0.38391826, -0.32592762, -0.25192672,  0.18988453, -0.20306066,
          0.15347524,  0.26987925, -0.5950594 , -0.34307536, -0.8834403 },
        {-0.27194217, -0.36452323, -0.33974645,  0.4102565 , -0.05367446,
          0.2765592 , -0.03274567, -0.52160996, -0.29289553, -1.0498917 },
        {-0.5783597 , -0.42371175, -0.18211418, -0.24105677, -0.11867336,
          0.25523984,  0.17064717, -0.6448649 , -0.06744391, -0.99348706},
        {-0.49400038, -0.57603586, -0.32674047, -0.83390033, -0.02815042,
          0.19247368,  0.28562886, -0.45617038,  0.11437637, -0.869288  },
        {-0.27839327, -0.7746666 , -1.1584146 , -0.67422974, -0.13768588,
         -0.11777693,  0.44309527, -0.26062456,  0.18347351, -0.37243327},
        {-0.20393811, -0.8000671 , -0.00516849, -0.48699498, -0.3817579 ,
         -0.00616556,  0.2544728 , -0.11685148, -0.17302753, -0.41045043},
        {-0.05162197, -0.4041228 ,  0.1569041 , -0.37419567, -0.43378904,
          0.1340417 , -0.3328112 , -0.01180569, -0.10304989, -0.10574266},
        {-0.19486026, -0.30379254, -0.23038632,  0.00888783, -0.22358558,
          0.24728924,  0.14210498,  0.04559457, -0.29724053, -0.02098173},
        {-0.0118238 , -0.0164154 ,  0.02378935,  0.07474086, -0.0093641 ,
          0.07019382, -0.0385602 ,  0.05200034,  0.02413155,  0.04462787},
        {-0.045116  , -0.0576024 ,  0.08318754,  0.04398065,  0.00829485,
         -0.07040001,  0.01327346, -0.06625744,  0.05512985, -0.06746847},
        {-0.01679602,  0.04719253, -0.28393975,  0.21755248, -0.02464519,
         -0.20690121,  0.0128714 ,  0.01691682, -0.10477305,  0.00772453},
        {-0.1361104 ,  0.32068408, -0.4747443 ,  0.14513947, -0.12629491,
         -0.40241405, -0.2897094 , -0.03431579, -0.01189551, -0.0999257 },
        {-0.06114883, -0.03400109, -0.32995245,  0.3629356 , -0.41200063,
         -0.18616672, -0.22845052,  0.21395588, -0.5095392 , -0.36798486},
        {-0.3695915 ,  0.11923873, -0.39858064,  0.26112518,  0.10778426,
         -0.67659116,  0.28422868, -0.1803491 , -0.699818  , -0.3465431 },
        {-0.48219454,  0.04878778,  0.0469402 ,  0.5432501 ,  0.10045129,
         -0.6658047 ,  0.14761734, -0.583567  , -0.85927653, -0.42984045},
        {-0.5635642 ,  0.06945164,  0.48924792,  0.34268555, -0.39555576,
         -0.4186859 ,  0.05365546, -0.87138027, -0.57500565, -0.83735156},
        {-0.15703057, -0.14622262,  0.07887125,  0.28149527, -0.09621704,
         -0.20041896, -0.01109586, -1.1096671 , -0.22480632, -0.99288964},
        { 0.03527167, -0.08380291,  0.07369866,  0.3350312 , -0.38822123,
         -0.52930146, -0.02011887, -1.3067507 ,  0.0683399 , -1.3307904 },
        {-0.00388682, -0.18680827,  0.24826841,  0.12102696, -0.44473186,
         -0.34112558, -0.13300145, -1.061578  ,  0.08525012, -1.64551   },
        {-0.07615305, -0.07613214,  0.17578124,  0.28450277, -0.62506205,
         -0.09027108, -0.01261182, -1.3855398 ,  0.08773547, -0.73254955},
        { 0.10718574, -0.3648882 ,  0.16982272,  0.26198974, -0.48236084,
         -0.01722218, -0.18881688, -0.93803436,  0.00067761, -0.5326789 },
        {-0.17900097, -0.24650928,  0.22111881,  0.2831585 , -0.4089258 ,
         -0.05114958, -0.29713348, -0.70153785,  0.1512217 , -0.44107452},
        {-0.01942759,  0.13182595,  0.11074296,  0.23559454, -0.17190827,
         -0.28690436, -0.11882181, -0.5854453 ,  0.10015459, -0.4306554 },
        {-0.04894686,  0.03663711,  0.26426688,  0.21262501, -0.36740765,
         -0.05249608, -0.11230817, -0.76953006,  0.25230595, -0.38686568},
        { 0.02457   , -0.00027645,  0.05707596,  0.19646104, -0.5181364 ,
          0.10619459, -0.18878447, -0.8911075 ,  0.22665416, -0.49283788},
        {-0.14739786, -0.05934329,  0.03932435,  0.18793882, -0.2748501 ,
          0.01954527, -0.11579044, -1.2223614 ,  0.18678504, -0.730849  },
        { 0.01745357, -0.16254476,  0.01499812,  0.09282153, -0.17147766,
          0.09762042,  0.02305564, -2.0190742 ,  0.04618791, -0.62019587},
        { 0.05527344, -0.11192   ,  0.01915069,  0.17624664, -0.20072168,
          0.24173419, -0.02591933, -1.7550658 ,  0.1287247 , -0.5306151 },
        {-0.05640473,  0.12352163, -0.16142316,  0.11739559,  0.13643476,
          0.07384973, -0.01896768, -1.7464796 , -0.00639741, -0.9475718 },
        {-0.12546508,  0.01032395, -0.12836531, -0.1729861 ,  0.33087203,
         -0.23416333,  0.10628746, -1.1931444 ,  0.09747521, -0.6986014 },
        {-0.21347678,  0.00880873, -0.39972776, -0.18557848,  0.3754507 ,
          0.17529954,  0.09798751, -0.20508052,  0.05994126, -2.2249584 },
        {-0.02523437, -0.26326782, -0.5917082 , -0.2395255 ,  0.5194282 ,
          0.03203918,  0.27549115, -0.58787864, -0.08556654, -1.6560901 },
        {-0.15607893, -0.3078626 , -0.746976  , -1.0548971 ,  0.367855  ,
          0.22621873,  0.24906139, -0.4712099 , -0.15808997, -1.0991086 },
        {-0.46299618, -0.7202534 , -0.71415997, -1.3943986 ,  0.40208566,
          0.5637604 , -0.33593413, -0.4813863 ,  0.28675774, -0.889879  },
        {-0.37361178, -0.80936736,  0.06376752, -0.72788745, -0.00906826,
          0.4787452 , -0.22936414, -0.39302298,  0.2842348 , -0.5443576 },
        {-0.33121523, -0.65196097, -0.24795009, -0.23597454, -0.3622546 ,
          0.14174172, -0.12205654, -0.22573662,  0.2618341 , -0.333354  },
        {-0.31251925, -0.25070027, -0.21349101, -0.11233452, -0.2847622 ,
         -0.41869608,  0.2750272 , -0.19186272,  0.05859299, -0.3149902 },
        { 0.08374792, -0.03592924,  0.04839989,  0.07752102,  0.04822404,
         -0.05906257, -0.00910758, -0.08497478, -0.03046067,  0.0855049 },
        { 0.05626697, -0.07477984,  0.01118855,  0.02744542,  0.012584  ,
          0.01910725, -0.00644516, -0.035612  ,  0.05246838, -0.02962415},
        {-0.4551833 ,  0.32010883,  0.05641386,  0.1292293 , -0.34623745,
         -0.42007458,  0.29436255, -0.28805465, -0.4346246 , -0.15642966},
        {-0.2628338 ,  0.21413794, -0.1614738 ,  0.33851448, -0.10536913,
         -0.43129033, -0.49230266, -0.16955534, -0.5754839 , -0.4195453 },
        {-0.5243589 ,  0.4907176 ,  0.01119435,  0.53242743,  0.22032951,
         -0.80731344,  0.03151122, -0.39135334, -0.8675766 , -0.44648415},
        {-0.6128855 ,  0.27085996,  0.01430939,  0.4639684 ,  0.04285815,
         -0.48360816, -0.32651982,  0.2084805 , -0.7864361 , -0.9516972 },
        {-0.14566766,  0.2155932 , -0.01048852,  0.31456414, -0.07412019,
         -0.47848418, -0.20478018,  0.07010544, -0.27351046, -1.5719461 },
        {-0.11764073, -0.11279184,  0.03454608,  0.151023  , -0.13324687,
         -0.1807438 , -0.22144583,  0.14892016, -0.07687162, -0.705515  },
        { 0.07377662, -0.41545472,  0.07763199,  0.01068909, -0.11672366,
         -0.166003  ,  0.00453213,  0.30507034, -0.08460444, -0.45071107},
        {-0.11258589, -0.4068499 ,  0.02868029,  0.17795858, -0.01279774,
         -0.07496446, -0.04539002,  0.18449065,  0.02539785, -0.39084437},
        { 0.16807802, -0.31730568,  0.10347044,  0.13121653, -0.12427182,
          0.04413542, -0.01700886, -0.21702749, -0.14379   , -0.20524403},
        {-0.04048938, -0.5141236 ,  0.18013228,  0.10906648, -0.08298027,
          0.0487986 , -0.45564443, -0.15237316,  0.09764918,  0.21715823},
        {-0.1666415 , -0.33238572,  0.11730278,  0.08441188, -0.12370315,
         -0.14581148, -0.2832487 , -0.12436094,  0.22863056,  0.03773798},
        { 0.13601907, -0.081272  ,  0.15183538,  0.11103781, -0.25641486,
         -0.00520459, -0.2936843 , -0.09510189,  0.15240885,  0.11111968},
        { 0.18540058, -0.07669947,  0.17138317,  0.02439889,  0.01203614,
         -0.15479404, -0.09394493, -0.24673936,  0.19406419, -0.16744538},
        { 0.09317316, -0.02443624,  0.0789876 ,  0.15785003, -0.02991165,
         -0.15068458, -0.19495958, -0.33726537,  0.1400996 , -0.1685791 },
        {-0.04071769, -0.19181716,  0.23974395,  0.13623708,  0.02620257,
         -0.06948924, -0.16875094, -0.30207083,  0.10590116, -0.45648453},
        { 0.17301522, -0.30278733,  0.1029338 ,  0.00504749,  0.0249511 ,
          0.16249476, -0.02841982, -0.4979456 ,  0.245416  , -0.3386688 },
        { 0.18929082, -0.17132185,  0.10631977, -0.0001651 ,  0.06830853,
          0.1252315 ,  0.10699107, -0.42648888, -0.02698754, -0.38673642},
        { 0.02036756, -0.11397772, -0.07253275,  0.12045609,  0.0784867 ,
         -0.00507164,  0.2157023 , -0.75112665,  0.05792778, -0.28987387},
        {-0.09012697, -0.00740844, -0.0203646 , -0.13680951,  0.02077541,
          0.16730724,  0.06880525, -1.1916435 ,  0.15210293, -0.33442643},
        {-0.06535224,  0.20131154, -0.00137412, -0.15637651, -0.07159913,
          0.12812036,  0.06947595, -0.84552646,  0.07077183, -0.34091023},
        {-0.02871168,  0.21751349, -0.06376332, -0.12756933,  0.08397432,
          0.11937518,  0.06611595, -0.67816085, -0.1386065 , -0.83132017},
        {-0.30533266,  0.10956193, -0.2885511 , -0.41959217,  0.45090201,
          0.15189481,  0.29501686, -1.4009116 , -0.30800536, -2.0724063 },
        {-0.44087207, -0.08281823, -0.8031167 , -0.64543086,  0.0445154 ,
          0.3150881 ,  0.18242513, -1.194168  , -0.11312289, -2.055285  },
        {-0.89687455, -1.0830061 , -0.21438292, -1.5348022 , -0.3276203 ,
          0.6299635 , -0.14469238, -1.02321   ,  0.32166666, -1.1042746 },
        {-0.9123535 , -0.41017506, -0.39175102, -0.56871355, -0.56528306,
          0.36706752,  0.15506242, -0.6228782 ,  0.03341217, -0.6983969 },
        {-0.25403172, -0.29099527, -0.35688537, -0.16390702, -0.41690835,
         -0.0802248 ,  0.24410601, -0.13946086, -0.23739538, -0.1550042 },
        { 0.04342958, -0.06322123, -0.0843576 , -0.01400318, -0.0657485 ,
          0.03436716,  0.04365972, -0.02353205,  0.06249359, -0.06140893},
        {-0.16348755, -0.12691337, -0.2951767 ,  0.31083575, -0.05257501,
         -0.30860138, -0.07662833, -0.12170909, -0.25773397, -0.28687242},
        {-0.34478906, -0.38142526, -0.10830811, -0.05144402, -0.51897275,
          0.06644543, -0.20725635,  0.42702147, -0.6423362 , -0.37726426},
        {-0.76286805,  0.08722852, -0.10042043,  0.3846744 , -0.30360213,
         -0.8402643 , -0.6767133 ,  0.4066602 , -0.7631084 , -0.45308593},
        {-0.65638876,  0.35321406,  0.23383602,  0.12808666,  0.1282141 ,
         -0.43068382, -0.00059975,  0.16596898, -0.5259648 , -0.7105703 },
        {-0.07670499, -0.03839308,  0.09852599,  0.13012278,  0.1585219 ,
         -0.04896861, -0.23128767,  0.23022588, -0.19434384, -1.1031508 },
        { 0.0261104 , -0.02338513,  0.04538735,  0.17888956, -0.13199714,
         -0.1731458 , -0.3016411 ,  0.26661995, -0.2366427 , -0.5780957 },
        { 0.05424   , -0.27782494,  0.147347  ,  0.11701254, -0.10615082,
         -0.00845302, -0.07202595,  0.28378883, -0.08711623, -0.3629503 },
        {-0.1502132 , -0.47416887, -0.00014334,  0.1068738 , -0.10268011,
         -0.06318218, -0.10955883,  0.29225385, -0.04188345, -0.15704651},
        {-0.32073516, -0.44603813,  0.11814022,  0.17019269,  0.02426668,
         -0.04103086, -0.12208343,  0.1494238 , -0.09386512,  0.03560186},
        {-0.07595545, -0.25540137,  0.07406007,  0.23406717, -0.24047005,
         -0.06067258, -0.3302305 ,  0.2727374 , -0.07285077,  0.00359428},
        {-0.03873219, -0.10816886,  0.01646178,  0.10121014, -0.37911624,
         -0.05385479, -0.17754434,  0.2626249 ,  0.03878216,  0.07573072},
        {-0.08706299, -0.28958902, -0.04063171,  0.02042505, -0.33305538,
          0.0270049 , -0.14134152,  0.12457144,  0.08984829,  0.15790954},
        { 0.11232151, -0.33941284, -0.00616423,  0.21237963, -0.44736314,
         -0.12631753, -0.2645322 , -0.06588892,  0.06727551,  0.28981045},
        { 0.07389574, -0.2005186 ,  0.03474086,  0.11732665, -0.50770605,
          0.09475369, -0.19391963, -0.03355407,  0.04862191,  0.28785655},
        { 0.00949861, -0.32544652,  0.09185512,  0.1366919 , -0.43054244,
         -0.04625609, -0.02405313, -0.03372658,  0.18926632,  0.23916417},
        { 0.10151985, -0.3824173 ,  0.10019103,  0.12278699, -0.4886064 ,
         -0.08746421, -0.20518923, -0.0119413 ,  0.08947984,  0.27732944},
        { 0.18268688, -0.38790894,  0.0010482 ,  0.09454731, -0.3226742 ,
          0.00275951, -0.19939266,  0.08948071,  0.13182597,  0.27274284},
        { 0.17610155, -0.12510785,  0.00477035,  0.17536162, -0.40257862,
          0.05673793, -0.23962876, -0.01142405, -0.10718434,  0.3153448 },
        { 0.07370885, -0.14815292, -0.03364475, -0.08131962, -0.14432478,
          0.1878844 , -0.18927261,  0.03201997,  0.22401772,  0.11494445},
        { 0.05684655, -0.02460687, -0.12196232,  0.03213903, -0.20948179,
          0.19268703, -0.13124624, -0.15968753,  0.03551368,  0.01148088},
        { 0.29778382,  0.01837744, -0.09436782, -0.05208879, -0.24953178,
         -0.04266986,  0.00481909,  0.04860422, -0.05487623, -0.02402638},
        { 0.25469908, -0.06177737, -0.14165376, -0.09547987,  0.10428414,
          0.19196755, -0.04893022, -0.03054213, -0.03419583, -0.3375543 },
        {-0.05159163,  0.04529154, -0.60794735, -0.18243852,  0.3558443 ,
          0.17461936,  0.18691857, -0.6952051 ,  0.04493235, -0.5037494 },
        {-0.7672405 , -0.10607806, -0.7070389 , -0.3036674 , -0.00047018,
          0.56672555,  0.0994464 , -0.7094189 , -0.07294503, -0.6961269 },
        {-1.5813606 , -1.5345407 , -0.44202742, -1.968876  , -0.22353294,
          0.530779  ,  0.00077837, -0.99301064,  0.41876277, -0.4931464 },
        {-1.110942  , -0.5876265 , -0.6858068 , -0.6664945 ,  0.06246382,
          0.34285626, -0.23452435, -0.9394108 ,  0.04877717, -0.65958124},
        {-0.34257445, -0.15826541, -0.34910026, -0.1293555 , -0.67605156,
          0.22017622,  0.21475516, -0.33628196, -0.17742598, -0.40777722},
        {-0.01358311,  0.07281911,  0.04356805, -0.04549212, -0.07465715,
         -0.05787036,  0.06310967,  0.07703626,  0.00472042, -0.03440247},
        {-0.43192756, -0.38934955, -0.40541255,  0.55594826, -0.30896857,
         -0.47924444, -0.16110973,  0.17133334, -0.5167628 , -0.46458164},
        {-0.26755902, -0.38277802,  0.12417176, -0.31938216, -0.56174606,
         -0.07760416, -0.33949   ,  0.5227232 , -0.868109  , -0.66576195},
        {-0.3493164 , -0.3671102 ,  0.05871554,  0.05876703, -0.2083111 ,
         -1.2905939 , -0.60626173,  0.70069605, -0.58931464, -0.8596934 },
        {-0.7821794 ,  0.04885282,  0.33784443,  0.30799937,  0.05872485,
         -1.0017345 ,  0.00615723,  0.11304997, -0.00157266, -1.1008132 },
        {-0.07600136, -0.37271103,  0.1364188 ,  0.37703   ,  0.3372236 ,
         -0.21930452, -0.08524364,  0.02735298, -0.10941642, -0.8300076 },
        { 0.02700057, -0.5108431 ,  0.14136876,  0.11166301, -0.04702353,
         -0.0938496 , -0.42358422,  0.18281184, -0.06654663, -0.34925294},
        {-0.14441428, -0.28136188,  0.02773599,  0.06834143,  0.0251122 ,
         -0.01341774, -0.02644629,  0.2976217 ,  0.01837277, -0.4006561 },
        {-0.3858646 , -0.53225404,  0.065231  ,  0.02057897, -0.0481045 ,
          0.14952944, -0.20424722,  0.05570921,  0.13970761, -0.05512614},
        { 0.0437457 , -0.275758  ,  0.01576017,  0.0530425 , -0.0722385 ,
          0.06886461, -0.14897195,  0.19456825, -0.04199798, -0.11252177},
        {-0.00540195, -0.20191142, -0.08775817,  0.05495457, -0.24444383,
          0.17601214, -0.16307427,  0.24924347, -0.01601687, -0.00912381},
        { 0.06132279, -0.2247782 ,  0.09334588, -0.02597309, -0.17388698,
          0.11567865, -0.0751834 ,  0.15407208, -0.06853235, -0.00044421},
        { 0.05564998, -0.08533055,  0.01191642,  0.11596506, -0.4349538 ,
          0.063412  , -0.13945854,  0.20791058, -0.05006364,  0.23405352},
        { 0.10372553, -0.16937466,  0.10271674,  0.00990504, -0.39262345,
         -0.07760256, -0.2578705 ,  0.10346428, -0.07252122,  0.30414715},
        { 0.09174618, -0.20152439,  0.03419701,  0.14991459, -0.40206885,
          0.00433804, -0.20680813, -0.12831298, -0.22943653,  0.4194276 },
        { 0.03984949, -0.3692291 , -0.05796662,  0.14670746, -0.5243459 ,
         -0.16780424, -0.19747493,  0.00799717,  0.11972934,  0.42841116},
        { 0.00102579, -0.23692265, -0.06366624,  0.00335129, -0.45393464,
          0.06996495, -0.30138645,  0.16156963,  0.02013436,  0.40287727},
        { 0.20665489, -0.23161937, -0.2044769 ,  0.10070816, -0.16999109,
          0.09590673, -0.17543977,  0.2949167 , -0.10766177,  0.20785853},
        { 0.213821  , -0.16414253, -0.13444541, -0.05417969, -0.21334177,
         -0.00054867, -0.31573084,  0.2295187 ,  0.06033685,  0.06329519},
        { 0.18006907, -0.02487827, -0.12006769,  0.05464206, -0.1020102 ,
          0.06167441, -0.34812868,  0.12288839,  0.02944377,  0.02478805},
        { 0.00623858,  0.0884455 , -0.15741235, -0.07821134, -0.18295968,
          0.05567713, -0.34842867,  0.20543002,  0.01401427,  0.01576594},
        {-0.0331484 , -0.00727859,  0.00331541, -0.20357558,  0.01587191,
          0.14968589, -0.13294479,  0.08328551,  0.15912732,  0.01754392},
        { 0.05069506, -0.09536402,  0.17009129, -0.16524161,  0.0265368 ,
          0.16982591, -0.16533297,  0.06004845,  0.02437926, -0.2128699 },
        { 0.17148143, -0.24786025, -0.66267186, -0.32002828,  0.17319317,
          0.254048  , -0.20828484, -0.17715727,  0.23061857, -0.3614991 },
        {-0.14633904, -0.8406064 , -0.97126794, -0.6112475 , -0.01389425,
          0.52343315,  0.14520761, -0.36118287,  0.08194766, -0.46112543},
        {-1.1254575 , -1.3804467 , -0.37723455, -1.8863938 , -0.09459195,
          0.7446882 , -0.3016925 , -0.60870206, -0.03401553, -0.46421993},
        {-1.073266  , -0.5395955 , -0.59081846, -0.75917107,  0.24396898,
          0.04475303, -0.0786345 , -1.1606631 ,  0.05866514, -1.1336124 },
        {-0.440143  , -0.3672801 , -0.5530687 , -0.49515432, -0.7859545 ,
          0.16399816, -0.03718562, -0.47103187, -0.169864  , -0.5478576 },
        { 0.36147073, -0.08379709, -0.24468844, -0.18003659, -0.3609661 ,
         -0.13797484, -0.17031574, -0.35148677, -0.15269254, -0.2798588 },
        {-0.34849697, -0.21712598,  0.13370843, -0.20710216, -0.35547233,
         -0.3741429 , -0.09853777,  0.6158178 , -0.47709677, -0.7019351 },
        { 0.04473685, -0.32023174, -0.04117605, -0.1938011 ,  0.17093906,
         -0.5663324 , -0.25076976,  0.24958466, -0.90894663, -0.9757231 },
        { 0.1060418 , -0.46697104,  0.0423395 ,  0.10568233, -0.23501644,
         -1.2213168 , -0.7422742 ,  0.5169989 ,  0.04086949, -0.82055074},
        {-0.64016944, -0.06525058,  0.27166936,  0.24740058,  0.01369969,
         -1.2142811 ,  0.00052126,  0.177735  , -0.06832284, -0.580994  },
        {-0.06217651, -0.61808527,  0.10064457,  0.12324604,  0.17534427,
         -0.29133925, -0.13466662,  0.1882744 , -0.00702475, -0.23275211},
        {-0.07692965, -0.5187879 , -0.06909177, -0.04370553, -0.06684542,
         -0.19825204, -0.35579953,  0.26634124,  0.12898527, -0.2065605 },
        {-0.08240812, -0.28962108, -0.05157034,  0.0269112 ,  0.01168888,
         -0.18857916, -0.2231749 ,  0.39853004,  0.12918195, -0.33055562},
        {-0.0662796 , -0.36953595, -0.03539407, -0.04535516, -0.18522933,
          0.12537067, -0.14826801,  0.22354937,  0.00484104,  0.03640331},
        { 0.08418769, -0.47409907,  0.03877868, -0.07922481,  0.02778412,
          0.02142197, -0.09569622,  0.23010057,  0.19579129, -0.05178551},
        { 0.03855813, -0.16822192,  0.1634151 , -0.01603046, -0.14562984,
          0.06233121, -0.2517126 ,  0.13023195,  0.09620294, -0.09217288},
        {-0.01226855, -0.2463195 ,  0.05551057,  0.02814329, -0.11501192,
          0.15031455, -0.17471904,  0.28207284, -0.06618857, -0.07098693},
        { 0.16929573, -0.00510636, -0.02449456,  0.12330464, -0.20569214,
         -0.00851087, -0.12152859,  0.29891318,  0.19162962, -0.178914  },
        { 0.00465228, -0.02982266, -0.03622278,  0.04549516, -0.22547092,
         -0.05680149, -0.23928231,  0.04914664,  0.15565848,  0.07660463},
        { 0.07878508, -0.00294893,  0.02425958,  0.12985708, -0.46996963,
         -0.16987033, -0.2759563 ,  0.09957767, -0.20308189,  0.21265787},
        { 0.19360468, -0.03134209,  0.02848168,  0.06939737, -0.3423775 ,
         -0.24098377, -0.464514  ,  0.29100448, -0.10472921,  0.19636023},
        { 0.34836024, -0.2477274 , -0.03009187,  0.13753068, -0.37811112,
         -0.07980795, -0.44855404,  0.16760395,  0.06803261,  0.08582115},
        { 0.3371269 ,  0.05359967, -0.02033557,  0.04902386, -0.22129937,
         -0.00166803, -0.37868553,  0.20569158, -0.02017613, -0.00166876},
        { 0.12542914, -0.1464433 , -0.1515703 ,  0.2031261 , -0.07374451,
         -0.06474548, -0.56102544,  0.26649866,  0.09484966,  0.05763684},
        { 0.0365413 , -0.10011794,  0.12581249,  0.08697343, -0.2287625 ,
          0.10692246, -0.5803465 ,  0.03402476,  0.0627621 , -0.11552224},
        { 0.08875646, -0.2306577 ,  0.10735124,  0.1487027 , -0.07805772,
          0.19674502, -0.36320898,  0.06262722, -0.00538677, -0.11460891},
        { 0.08121783, -0.25275385, -0.1557697 , -0.05456305, -0.02834067,
          0.1555681 , -0.21374838, -0.04306266,  0.07101356,  0.02617569},
        { 0.15111175, -0.23729591,  0.02380612,  0.19283415, -0.17437722,
          0.17413868, -0.4246393 ,  0.0879937 ,  0.1558658 , -0.07504977},
        { 0.3112309 , -0.60573244,  0.02479916, -0.50090826, -0.06466983,
          0.47829917, -0.66920745, -0.01737807,  0.09833335, -0.37444326},
        { 0.09128598, -1.0230005 , -1.2620754 , -1.3435999 , -0.10523636,
          0.85334057, -0.6935734 , -0.561539  ,  0.30914074, -0.4147817 },
        {-1.5289929 , -1.4181694 , -1.46677   , -1.8083296 ,  0.0486712 ,
          0.8125176 , -0.9459837 , -0.7431798 ,  0.1651435 , -0.55682755},
        {-1.2271394 , -0.6483415 , -0.7644034 , -0.74801004, -0.22020292,
          0.3100064 , -0.4364009 , -0.8196018 ,  0.4179574 , -1.2748932 },
        {-0.53060436, -0.24237174, -0.5003267 , -0.3388298 , -0.39746404,
         -0.06994574, -0.45727283, -0.3658978 ,  0.40818322, -0.4982481 },
        {-0.13630347, -0.24690421, -0.11980288, -0.3454697 , -0.22432067,
         -0.1838484 , -0.06192454,  0.2671407 , -0.2468342 , -0.30918932},
        {-0.14153275, -0.24180683, -0.49868277, -0.31808546, -0.45381084,
         -0.3900265 , -0.05510216,  0.5830648 , -0.45430276, -0.50292003},
        { 0.26735955, -0.34524307, -0.27020222,  0.0571459 , -0.01344289,
         -0.61940366, -0.34731945,  0.2913047 , -0.56852806, -0.99041086},
        { 0.08954604, -0.366311  ,  0.12677209,  0.23037818, -0.60977787,
         -1.1817776 , -0.8189705 ,  0.32925075, -0.12868974, -0.4068331 },
        {-0.16831048, -0.363963  ,  0.26407775,  0.5205522 , -0.45867535,
         -0.74987894,  0.13466464,  0.29709643, -0.0579003 , -0.47179785},
        {-0.05770969, -0.7443289 ,  0.29071876,  0.06079244, -0.15196022,
         -0.30576155, -0.26784036,  0.22546393,  0.08964598, -0.01840575},
        {-0.24252786, -0.54905736, -0.0311275 ,  0.10534421, -0.17068869,
         -0.14005117, -0.23774552,  0.15840195,  0.17674357,  0.18753377},
        {-0.20695402, -0.06365704, -0.02520721,  0.1284236 , -0.1531374 ,
         -0.08819441, -0.06128272,  0.17999041,  0.07259249,  0.02639604},
        {-0.06744925, -0.12048068, -0.03180223,  0.04588004, -0.14560853,
          0.08336113, -0.17534225,  0.02531255,  0.10566858, -0.06844626},
        { 0.01359837, -0.367557  ,  0.06879299,  0.02272644, -0.05853901,
          0.06495432, -0.30438766,  0.03009453,  0.1531942 , -0.00601222},
        { 0.08893926, -0.18374762,  0.09583221, -0.1322289 , -0.17876616,
          0.06410819, -0.28731647, -0.07435684,  0.02579311,  0.05123255},
        {-0.09640197, -0.06562344,  0.02794399, -0.36682528, -0.06127066,
          0.3197967 , -0.11342596,  0.12982179,  0.12428807,  0.03811634},
        { 0.02572344, -0.03110418, -0.03879457, -0.28068084, -0.1152997 ,
          0.13043803, -0.2368785 ,  0.3012152 ,  0.01693259, -0.01751537},
        { 0.20388159,  0.04694184,  0.02317281, -0.13400123, -0.14177574,
          0.04309075, -0.34518015,  0.08903312,  0.05650608, -0.00887995},
        { 0.08302691,  0.20228474,  0.10229877,  0.17205685, -0.61940634,
         -0.24162816, -0.19310033,  0.36247653, -0.25305465,  0.12187176},
        {-0.12058292,  0.34606037,  0.16058181,  0.29175743, -0.38887215,
         -0.450512  , -0.48573688,  0.2444295 , -0.43700463,  0.08934749},
        { 0.16072623,  0.17355123,  0.11142121,  0.18509784, -0.16670763,
         -0.43076223, -0.4788887 ,  0.3009588 , -0.14852954, -0.05631693},
        { 0.23650604, -0.01152206,  0.05100009,  0.15796705, -0.1667603 ,
         -0.23883463, -0.7503672 ,  0.32565466,  0.0185195 , -0.05695235},
        { 0.30458307, -0.11676824,  0.07385517,  0.07474491, -0.00957489,
         -0.12655295, -0.66612726,  0.27025113, -0.06403997,  0.03050181},
        { 0.14062516, -0.2929754 , -0.06869367,  0.12676674, -0.06204661,
         -0.19698606, -0.44637325,  0.2286329 ,  0.08515196, -0.08786257},
        { 0.21215743, -0.40478662, -0.08571874,  0.20214537, -0.08192226,
         -0.01354315, -0.28822872,  0.05328947,  0.09303347, -0.08784543},
        {-0.07614517, -0.26537016, -0.09187113,  0.1864996 , -0.04546886,
          0.2343479 , -0.2003484 ,  0.11605246,  0.08424635, -0.20642059},
        {-0.1343471 , -0.31826437, -0.04498207,  0.2698452 , -0.1371521 ,
          0.22585945, -0.41269773,  0.01190523,  0.1567648 , -0.22633639},
        { 0.19623545, -0.81724244, -0.20267636, -0.15152925, -0.17364818,
          0.39641684, -0.424876  , -0.11658209,  0.09083463, -0.48875895},
        { 0.2362536 , -0.8252601 , -1.2972295 , -2.4439578 , -0.5355461 ,
          1.004461  , -0.69905156, -0.27976757, -0.05538442, -0.5213487 },
        {-1.1554214 , -1.3020425 , -1.2122988 , -0.7360296 , -0.5114322 ,
          1.0712398 , -1.1851139 , -0.394365  ,  0.19402994, -0.7619768 },
        {-1.2869107 , -0.495916  , -0.29100206, -0.88466895, -0.5459161 ,
          0.37704176, -0.9533038 , -0.10702349,  0.47468996, -1.1838275 },
        {-0.5004642 , -0.41189474, -0.5660214 , -0.5156201 , -0.4715326 ,
          0.19114283, -0.79371506,  0.16725889, -0.2692668 , -0.60951865},
        {-0.1176173 , -0.27879143, -0.07589282, -0.33299255, -0.34445748,
         -0.20565048, -0.13483252,  0.38208172, -0.13315888, -0.34984428},
        {-0.1994091 ,  0.03420495, -0.37001002, -0.34458467, -0.30328286,
         -0.32541797, -0.20623101,  0.53950775, -0.58157086, -0.46418387},
        { 0.27733237, -0.28490046, -0.16248085,  0.07672912, -0.3939919 ,
         -0.5142432 , -0.26172015,  0.5053066 , -0.5479953 , -1.0327575 },
        { 0.1467579 , -0.30344138,  0.15515323,  0.56744075, -0.5282611 ,
         -0.9175471 , -0.6601508 ,  0.39228138, -0.49290213, -0.3932287 },
        {-0.09305003, -0.32207388, -0.14972483,  0.10108266, -0.2725408 ,
         -0.17517167, -0.19015558,  0.33270848,  0.27692556, -0.22846931},
        { 0.11982427, -0.8179714 ,  0.3007028 , -0.02650432, -0.33798987,
         -0.11284082, -0.19013064,  0.18259868,  0.01067362,  0.0326927 },
        {-0.11542778, -0.6589385 ,  0.23443428,  0.00525792, -0.2572249 ,
         -0.14581724, -0.27961773,  0.11122336,  0.1589325 ,  0.19284904},
        {-0.14128673, -0.32211378, -0.10139003, -0.11790077, -0.07072876,
          0.11057673, -0.09877984,  0.04047354,  0.1636802 ,  0.00517332},
        {-0.07522913, -0.10775557, -0.12843382, -0.27132174, -0.02580557,
          0.23873793, -0.04821913, -0.07845937,  0.1848245 ,  0.10836913},
        { 0.05532274, -0.34062472, -0.16259813, -0.53690493,  0.01404885,
          0.30798465, -0.13653778, -0.00672267,  0.18622047,  0.05753816},
        {-0.17444094, -0.05766322, -0.152954  , -0.46785238, -0.00707908,
          0.22710754, -0.08347932, -0.02629411,  0.25853136,  0.04580026},
        { 0.05309822, -0.00287103, -0.07627957, -0.5230652 ,  0.03610506,
          0.21939012, -0.2766705 , -0.09874795,  0.16929387,  0.08713898},
        { 0.0382829 , -0.09099959, -0.05917929, -0.4176755 ,  0.20665573,
          0.29936323, -0.2799625 , -0.13435464,  0.15545996,  0.09715897},
        { 0.0579946 ,  0.21562327, -0.318348  , -0.02298251, -0.33513603,
          0.17287946, -0.12428525,  0.17630605,  0.02205713, -0.24837914},
        {-0.00528954,  0.58663094, -0.10777523,  0.17894244, -0.8409967 ,
          0.04950891, -0.29006025,  0.37986484, -0.04219692, -0.06807192},
        {-0.23713994,  0.68494374, -0.10249378,  0.10746364, -0.20915613,
         -0.20240863, -0.51284385,  0.44493896, -0.3848629 , -0.11874037},
        { 0.02570498,  0.2848623 , -0.02453619,  0.17726138, -0.0438102 ,
         -0.30496347, -0.49328727,  0.47357848, -0.30403188, -0.06560772},
        { 0.28364584,  0.06845289,  0.11066313,  0.19502528,  0.08504025,
         -0.35275054, -0.43622458,  0.35897985, -0.13650694, -0.02812552},
        { 0.22587009, -0.26413378, -0.00644826,  0.16466278, -0.03940882,
         -0.41038167, -0.4102401 ,  0.23587288,  0.06972763,  0.01471132},
        { 0.09213515, -0.22391258, -0.06094227,  0.14051849, -0.02884546,
         -0.40072358, -0.47988394,  0.22582185,  0.12310337, -0.02796569},
        { 0.09558793, -0.4172498 , -0.02581365,  0.15165198, -0.13915868,
         -0.25439173, -0.23328987,  0.28867805,  0.12107019,  0.00326781},
        { 0.08275164, -0.22638687, -0.07672157,  0.06676082, -0.11335041,
         -0.10215209, -0.25330567,  0.32274553,  0.14600764, -0.10613907},
        { 0.17725018, -0.39485192, -0.11357825,  0.19532579, -0.04435173,
         -0.06612435, -0.44126776,  0.22133055,  0.0976944 , -0.10794127},
        { 0.3392368 , -0.761212  , -0.23008367,  0.01906697, -0.56855536,
          0.45412043, -0.15261921, -0.3098859 ,  0.08706535, -0.2883663 },
        { 0.23067856, -1.5469689 , -0.8833001 , -1.9945486 , -0.54728943,
          1.3715321 , -0.33095628, -0.5918019 , -0.24638417, -0.6611477 },
        {-0.89770275, -0.52028966, -0.5188864 , -0.17130952, -0.6683752 ,
          1.4930079 , -1.154983  , -0.32738635, -0.55800503, -0.4670967 },
        {-1.1752745 , -0.35986978, -0.05540514, -0.81092125, -0.9116599 ,
          1.1117668 , -1.0534704 , -0.15735242,  0.03242174, -1.0977098 },
        {-0.41773424,  0.25269738, -0.65614265, -0.32100534, -0.3944951 ,
         -0.01896029, -0.28149053,  0.18350363, -0.01290941, -0.46696976},
        {-0.0967374 , -0.00523926, -0.14314006, -0.2395452 , -0.23771971,
         -0.12338904, -0.04571586,  0.23348661, -0.00427437, -0.37525046},
        { 0.21949004,  0.25304917, -0.63822913, -0.399287  , -0.49262863,
         -0.45732018, -0.24412362,  0.41578925, -0.5721428 , -0.6236931 },
        {-0.36794025,  0.02029242, -0.49030566,  0.04486879, -0.71029186,
         -0.5262339 , -0.32843345,  0.77933896, -0.86334854, -0.83011156},
        {-0.11950421, -0.3569983 , -0.26168332,  0.76814747, -0.25323388,
         -0.8920454 , -0.6726153 ,  0.3813017 , -0.21232595, -0.45561644},
        {-0.43256927, -0.2682258 , -0.18918388,  0.16184774, -0.40715197,
         -0.14066213,  0.0086133 ,  0.33607468,  0.03032936, -0.1185067 },
        {-0.33550817, -0.56716776,  0.14273073, -0.25532198, -0.08798702,
         -0.09731256, -0.12236199,  0.09490203,  0.10938298,  0.19724034},
        { 0.0665438 , -0.75024855, -0.04118815, -0.2438647 , -0.07640956,
          0.22228464, -0.11030475, -0.03528716,  0.12565757,  0.17177074},
        {-0.02440079, -0.43512636, -0.39798397, -0.4555291 , -0.03241721,
          0.12912019,  0.10044047,  0.0757264 ,  0.33446172,  0.15134346},
        {-0.06046605, -0.41535664, -0.48851648, -0.5108393 ,  0.09125438,
          0.14156911,  0.02247757,  0.02969298,  0.15751214,  0.36161685},
        {-0.24584417, -0.37294585, -0.49818948, -0.4396353 ,  0.29875472,
          0.0443666 ,  0.13428709,  0.09496102,  0.3034902 ,  0.18446873},
        {-0.06798834, -0.17132662, -0.70644206, -0.33130342,  0.36533374,
          0.13020343, -0.07247779,  0.16113736,  0.1568676 ,  0.25707513},
        {-0.04852023, -0.15752275, -0.6497924 , -0.25094044,  0.14418827,
          0.06951002, -0.04472231,  0.15588965,  0.08414404,  0.2409443 },
        {-0.16865408, -0.117171  , -0.71300447, -0.12967709,  0.3698008 ,
          0.24634847,  0.02118277, -0.05039011,  0.17295891,  0.01104395},
        {-0.09883817,  0.27838767, -0.8669955 ,  0.07356126, -0.5671499 ,
          0.3502899 ,  0.09830273, -0.01514925,  0.2605648 , -0.04881628},
        {-0.5036845 ,  0.6846317 , -0.61237246,  0.12118604, -0.8155513 ,
         -0.006074  , -0.26194662,  0.2820544 ,  0.34490153, -0.02376786},
        {-0.5986037 ,  0.5910658 , -0.5209357 ,  0.09457083,  0.06455985,
         -0.22232722, -0.6322565 ,  0.42458886, -0.09353964,  0.08240117},
        {-0.5966067 ,  0.18504861, -0.23362282, -0.08751914,  0.22994064,
         -0.30444506, -0.33315402,  0.4226887 , -0.22347842,  0.21062191},
        {-0.04091947, -0.01919651, -0.26497492,  0.17224517,  0.08828653,
         -0.2857802 , -0.35262513,  0.30045176, -0.20311193,  0.30748   },
        {-0.10555236,  0.02968903, -0.07313885,  0.05031709, -0.02957052,
         -0.1710433 , -0.39169243,  0.4486487 , -0.08119386,  0.2271592 },
        { 0.00572789, -0.18614256,  0.09686962,  0.13132067, -0.03372185,
         -0.43216926, -0.20338064,  0.18472183, -0.00833691,  0.14656039},
        { 0.1623114 , -0.10068338, -0.03320316,  0.2311695 , -0.26185432,
         -0.6225555 , -0.17014462,  0.254695  , -0.0452322 ,  0.36673203},
        { 0.25273716, -0.20522827, -0.09575418, -0.11362567, -0.1585453 ,
         -0.5737862 , -0.08008619,  0.14473541,  0.00458199,  0.30178836},
        { 0.30812672, -0.3747724 , -0.09231757, -0.03935499, -0.24871717,
         -0.6792542 , -0.0557304 ,  0.28513905,  0.27711102,  0.13596377},
        { 0.17863566, -0.44461408, -0.30977875, -0.14288077, -0.6930426 ,
         -0.00212977,  0.28334558, -0.23720548,  0.16656141, -0.10436096},
        { 0.24269813, -1.1607581 , -0.29252338, -1.4299183 , -1.0706662 ,
          0.7614046 , -0.04267395, -0.9553298 ,  0.21797782, -0.68180186},
        {-0.56778806, -0.33705622,  0.00455406,  0.02764116, -0.8106251 ,
          1.3993994 , -0.8501201 , -1.0962063 , -0.23125803, -0.72392887},
        {-0.98831743, -0.2723541 , -0.03192848, -0.5737427 , -0.6912251 ,
          0.8619632 , -1.197805  , -0.38332024,  0.32052812, -0.61593944},
        {-0.30769143,  0.26965472, -0.37659726, -0.3788914 , -0.48227435,
         -0.0192353 , -0.05086353,  0.17209665, -0.02097387, -0.37686157},
        {-0.06637956,  0.03687545, -0.16381042, -0.26572263, -0.10912032,
         -0.14652312,  0.03318872,  0.3350825 , -0.19589452, -0.25692084},
        { 0.14967628, -0.15542713, -0.39354196, -0.43610817, -0.38655803,
         -0.31845093, -0.16118512,  0.7120747 , -0.4562619 , -0.74648046},
        {-0.18641064, -0.27835664, -0.6065076 , -0.68363494, -0.5301142 ,
         -0.4154138 , -0.47521466,  0.6211849 , -0.7842657 , -0.627168  },
        {-0.2506713 , -0.15685712, -0.64558595,  0.03590015, -0.39050686,
         -0.27056444, -0.5794769 ,  0.663527  ,  0.17877011, -0.332587  },
        {-0.32444006, -0.0243743 , -0.3216215 , -0.06736281, -0.4350577 ,
         -0.04934059, -0.19081064,  0.36855865,  0.00199633,  0.21070744},
        {-0.04795012, -0.32323664, -0.4302915 , -0.33209592, -0.07514055,
          0.05289003, -0.07762743,  0.08131122,  0.25815067,  0.31097844},
        { 0.12124218, -0.1314078 , -0.9320628 , -0.39831647,  0.1741028 ,
          0.29999244,  0.15201254, -0.04139301,  0.08733284,  0.30418733},
        {-0.02669467, -0.09282711, -0.93306184, -0.42596927,  0.29540986,
          0.08204791,  0.11352508,  0.23009713,  0.09926248,  0.12889652},
        {-0.0675361 , -0.1866589 , -0.63634443, -0.43914196,  0.23767003,
         -0.09787001,  0.06549975,  0.21525499, -0.02214786,  0.15080085},
        {-0.1473301 , -0.13285336, -0.6337543 , -0.20430508,  0.20782076,
         -0.11398496,  0.09423991, -0.07888677,  0.01879235,  0.16563235},
        {-0.06805789, -0.38587055, -0.5999823 ,  0.00972976,  0.35203472,
          0.10801335,  0.04405034, -0.09162606, -0.19104995,  0.20616983},
        {-0.05248532, -0.41618556, -0.569373  , -0.12356562,  0.55542356,
          0.21798751,  0.17738165, -0.10350291, -0.05231213,  0.12825857},
        { 0.00310647, -0.12684517, -0.5918274 ,  0.03321251,  0.68050265,
          0.17427184,  0.13021226, -0.5635833 ,  0.04738203, -0.25799075},
        {-0.12694964,  0.2851898 , -0.49338654,  0.06335901, -0.12968159,
          0.25390875,  0.05735742, -0.8368438 ,  0.30436072, -0.05342358},
        {-0.6328802 ,  0.71375865, -0.5602229 ,  0.27228767, -0.50041854,
         -0.15817313, -0.3213953 , -0.19967215,  0.15757778,  0.18530354},
        {-0.8445548 ,  0.47911578, -0.45497507,  0.08494882,  0.14035866,
         -0.14802359, -0.4037607 ,  0.23331094,  0.0436898 ,  0.2049578 },
        {-0.7272385 ,  0.09804823, -0.34186637,  0.08199542,  0.34058806,
         -0.37467605, -0.1520976 ,  0.38156447, -0.0127418 ,  0.29599443},
        {-0.15951127,  0.02206017, -0.39030677,  0.02374796,  0.06563137,
         -0.38762668, -0.1362825 ,  0.33639133, -0.01058691,  0.34099305},
        {-0.08520877, -0.01756341, -0.21304148,  0.09338947, -0.04132538,
         -0.27916738, -0.24752618,  0.281568  , -0.0959406 ,  0.27114224},
        {-0.01754962, -0.2510085 ,  0.06219386, -0.07191981,  0.06084798,
         -0.30265644, -0.41941863, -0.06459811,  0.15093526,  0.4042438 },
        { 0.02951451, -0.16930257, -0.0747734 , -0.16247979,  0.08727166,
         -0.42949644, -0.19159132,  0.00607252,  0.22519812,  0.33580196},
        { 0.13555343, -0.07132156, -0.01950349, -0.6348167 ,  0.16769132,
         -0.7736626 ,  0.13890785,  0.0670816 ,  0.28505808,  0.35359174},
        { 0.19951168, -0.12467016, -0.1842828 , -0.5608825 , -0.05643119,
         -1.174311  ,  0.3392446 ,  0.0821781 ,  0.2903532 ,  0.29012686},
        { 0.2565696 ,  0.00881199, -0.5178263 , -0.71863437, -0.36130294,
         -1.3040681 ,  0.59550714, -0.34781164,  0.52996504,  0.3794044 },
        { 0.57591903, -0.98493975,  0.15917444, -1.1938145 , -0.12700014,
         -1.3484251 ,  0.45812592, -0.6477758 ,  0.71219885, -0.75380504},
        {-0.10303769, -0.3511453 ,  0.57333076,  0.28196183, -0.36620435,
          0.08455263, -0.38167015, -0.02559442,  0.04032157, -1.5699004 },
        {-0.68596625, -0.53002095,  0.6018166 , -0.5002277 , -0.40245792,
          0.59288996, -1.0976987 ,  0.2934054 , -0.01418799, -0.78491426},
        {-0.40677968,  0.08807124,  0.21399266, -0.30492875, -0.4973507 ,
         -0.33880547, -0.20280175,  0.25359315, -0.49517545, -0.40648258},
        { 0.02985725,  0.3050766 , -0.07716654, -0.20205007, -0.00365645,
         -0.04384353, -0.08378913, -0.20283051, -0.22925621, -0.14086114},
        { 0.22148308, -0.19505721, -0.35367727, -0.40606302, -0.15484366,
         -0.37119552, -0.16894504,  0.33984336, -0.36453557, -0.47371334},
        { 0.120518  , -0.349682  , -0.27313712, -0.58801997, -0.48352358,
         -0.62505436, -0.21534394,  0.667649  , -0.5503387 , -0.612305  },
        {-0.15381843,  0.258503  , -0.4655453 ,  0.0048665 , -0.50228184,
         -0.1847639 , -0.5508062 ,  0.47949344,  0.02428702, -0.09369728},
        { 0.02768014,  0.25141603, -0.98857737, -0.3974148 , -0.17072855,
          0.12254653, -0.1090833 ,  0.3424676 , -0.14662106,  0.53110653},
        {-0.05105186, -0.1331091 , -0.94711626, -0.4034623 ,  0.18870173,
          0.25094014,  0.21052375,  0.16651043,  0.12126892,  0.36200342},
        { 0.2634473 , -0.00566488, -0.9849407 , -0.3390785 ,  0.2484327 ,
         -0.16949402,  0.3577677 ,  0.15520963, -0.05905396,  0.14172295},
        { 0.13465554, -0.2628955 , -0.84223825, -0.38145506,  0.2561212 ,
          0.03764748,  0.03650721,  0.12034962, -0.08560038,  0.20283356},
        { 0.03600679,  0.0874096 , -0.44318634, -0.25675365,  0.29876193,
         -0.10575651,  0.04099809, -0.0945335 , -0.12865338,  0.13912663},
        { 0.02058221, -0.1391915 , -0.35077813, -0.16580147,  0.33411145,
         -0.03802519,  0.00789229, -0.17384908, -0.07801922,  0.07117379},
        { 0.09436674, -0.7870142 , -0.25493255, -0.21805596,  0.42039257,
          0.13075767,  0.13668217, -0.09884972, -0.18093129,  0.02261347},
        { 0.03672345, -0.63955325, -0.02867353, -0.17652804,  0.5450741 ,
          0.22188552,  0.01878837, -0.3831674 , -0.01258513, -0.10845874},
        {-0.03795257, -0.07388325, -0.10727054,  0.03624024,  0.3763199 ,
          0.38172475,  0.12388362, -1.049828  ,  0.21709245, -0.24688019},
        {-0.43165985,  0.31220132,  0.00293937,  0.22763324, -0.27218625,
          0.15782374, -0.04820776, -1.0231966 ,  0.28127205,  0.02614614},
        {-0.7856477 ,  0.58407503, -0.09767953,  0.14339687, -0.13333632,
         -0.09457014, -0.23703597, -0.18657278,  0.01444851,  0.23745708},
        {-0.88829625,  0.4060187 , -0.2872196 , -0.11884467,  0.26185098,
         -0.32731786, -0.04615157,  0.01026861,  0.21180487,  0.2106454 },
        {-0.54298544,  0.07199688, -0.26043382, -0.02811347,  0.31276023,
         -0.4854879 ,  0.0481048 ,  0.24853393,  0.09828803,  0.38523337},
        {-0.12500587,  0.24310027, -0.1400406 ,  0.02621854,  0.29733473,
         -0.27077097, -0.19990453,  0.10058927, -0.11972596,  0.31494808},
        {-0.0404441 , -0.26308608, -0.18786341,  0.15395314,  0.22771545,
         -0.16113216, -0.22318201, -0.00360585, -0.010327  ,  0.23467608},
        {-0.07631008, -0.393282  , -0.09980299, -0.11004744,  0.20259678,
         -0.06921701, -0.02436957, -0.08941769,  0.04998627,  0.374056  },
        {-0.19195211, -0.2899248 , -0.13711958, -0.3088874 ,  0.28876784,
         -0.04745805, -0.04252846,  0.14701927,  0.1596729 ,  0.276856  },
        {-0.04815255, -0.1340644 , -0.09160265, -0.49287862,  0.37228963,
         -0.28747126,  0.07756816,  0.09746334, -0.03114782,  0.30650264},
        { 0.12818512, -0.48473167, -0.13533945, -0.84803104,  0.2034325 ,
         -0.44482368,  0.2840233 , -0.11221579,  0.05080464,  0.18368362},
        { 0.22064693, -0.81314003, -0.1477589 , -0.4425904 , -0.20591436,
         -0.85331523,  0.66557443, -0.2848611 ,  0.15722714, -0.29185328},
        { 0.4886724 , -1.0570668 ,  0.44684762, -0.41635135, -0.4750112 ,
         -1.2061851 ,  0.3749135 , -0.03187912,  0.18028748, -0.9808379 },
        { 0.16126804, -0.45037076,  0.8599426 ,  0.0025156 , -0.20587154,
         -0.7399579 , -0.3808233 , -0.02162412, -0.07036645, -1.0382679 },
        {-0.579907  , -0.5950082 ,  1.1759503 , -0.7908142 , -0.277773  ,
          0.15302196, -1.0576093 , -0.20362794, -0.32105434, -0.6344189 },
        {-0.25517035, -0.18608443,  0.4897287 , -0.36117646, -0.2305401 ,
         -0.29808366, -0.31204218, -0.2542518 , -0.29887325, -0.24184115},
        {-0.20264974, -0.02068093, -0.22432189, -0.24467488, -0.2622397 ,
          0.3575975 , -0.2001849 , -0.25706849, -0.19836459, -0.33516827},
        {-0.08452702, -0.13893849, -0.3607901 ,  0.21764241, -0.03121851,
         -0.28589442, -0.09925477,  0.31875724, -0.23623651, -0.3205187 },
        {-0.35263833,  0.2774756 , -0.28529423, -0.08819735, -0.5150755 ,
         -0.5205181 , -0.08781987,  0.62765235, -0.5213399 , -0.58483636},
        {-0.5279075 ,  0.35152024, -0.3185177 ,  0.03851561, -0.08902241,
         -0.08401681, -0.62743413,  0.2843692 , -0.24338982,  0.00072795},
        {-0.01216862,  0.34132096, -0.6654327 , -0.2623747 ,  0.40214646,
          0.05295114, -0.8079928 ,  0.19426642, -0.628385  ,  0.27621728},
        { 0.2665271 , -0.12371239, -0.6849676 , -0.45162618,  0.34567547,
         -0.17089379,  0.1301887 ,  0.17572676, -0.00795792,  0.0598665 },
        { 0.18470326, -0.36188155, -0.33964196, -0.46911308,  0.34641844,
         -0.06969396,  0.16706651, -0.00124994, -0.15596224,  0.18467405},
        { 0.36815184, -0.49893498, -0.08996586, -0.39087132,  0.31555128,
         -0.08343363,  0.03551884, -0.16462244, -0.44069415,  0.07991233},
        { 0.17807706,  0.15360178, -0.18792404, -0.19481897,  0.26762524,
         -0.00042886,  0.1150731 , -0.18202724, -0.3429439 , -0.06497569},
        { 0.14251997, -0.28479442, -0.11071523, -0.03815952,  0.21010086,
          0.13550681,  0.16254184, -0.23346552, -0.29585695, -0.06697471},
        { 0.01153084, -0.8120341 , -0.11867955, -0.21836185,  0.24996573,
          0.2448934 ,  0.21695803, -0.15168431, -0.07616105,  0.03059793},
        { 0.14885698, -0.513104  , -0.02031359, -0.18144971,  0.4069736 ,
          0.02718025,  0.3310176 , -0.4772094 ,  0.18209456, -0.03862962},
        { 0.16485606, -0.04139351, -0.01086767,  0.01221704,  0.2835232 ,
          0.09428037,  0.11078176, -0.9911    ,  0.24598627, -0.10462251},
        {-0.3297162 ,  0.26636642,  0.08564925,  0.0807701 , -0.18800654,
         -0.0528868 , -0.0999367 , -0.6567903 ,  0.30838913,  0.0267182 },
        {-0.7981097 ,  0.600281  ,  0.04536737,  0.04983635, -0.00466096,
         -0.03915168, -0.1324961 , -0.10339164,  0.19512506,  0.07040074},
        {-0.79037833,  0.40656647, -0.18720897,  0.04931585,  0.16393405,
         -0.22253403,  0.0542502 , -0.20664531,  0.13203952,  0.2014224 },
        {-0.79934984,  0.19764236, -0.11734211, -0.06275508,  0.32525107,
         -0.26546815, -0.03181972,  0.06876359, -0.01928675,  0.29886022},
        {-0.22101317, -0.05801758, -0.20606959, -0.06680564,  0.4199019 ,
         -0.34789422, -0.3018327 ,  0.12901144, -0.06155885,  0.26668534},
        {-0.08564812, -0.45951554, -0.09871297, -0.02291024,  0.22725463,
         -0.19584116, -0.1846112 ,  0.434777  , -0.12258352,  0.14651802},
        {-0.13484526, -0.6483756 , -0.13407025, -0.17762025,  0.27459565,
         -0.23233242, -0.0470587 ,  0.43878403, -0.05592134,  0.09641887},
        {-0.02423463, -0.29995686, -0.05757521, -0.1854882 ,  0.23058772,
         -0.01719793,  0.00574209,  0.2787223 , -0.2175837 ,  0.22429243},
        { 0.10833754, -0.25498   , -0.17937168, -0.04685625,  0.07011495,
         -0.1605626 ,  0.1017492 ,  0.07351574, -0.2720113 ,  0.14774479},
        { 0.10073498, -0.21326898, -0.24463879, -0.36063817,  0.05981432,
          0.09380192,  0.21728624,  0.21633203, -0.44577092, -0.01774928},
        { 0.29198313, -0.21965529, -0.02953311, -0.18053778, -0.23610409,
         -0.02689366,  0.35478064,  0.26671752, -0.5388428 , -0.5733309 },
        { 0.42071506, -0.21188639,  0.20751137, -0.19641735, -0.465009  ,
         -0.19842322,  0.18793291, -0.08982767, -0.45634317, -1.3668377 },
        { 0.03855081, -0.31298015,  0.5347945 , -0.49808267, -0.2873276 ,
         -0.9672798 ,  0.05767514, -0.68382156,  0.11731458, -0.83739734},
        {-0.7355002 ,  0.12217008,  0.98835266, -0.5667098 , -0.67380935,
         -0.64888924, -0.83629   , -0.61571556, -0.4936767 , -0.51521564},
        {-0.4572503 , -0.12680551,  0.38236496, -0.25817862, -0.26692432,
         -0.3932347 , -0.35242653, -0.23417306, -0.3902412 , -0.11094364},
        {-0.20605098,  0.01224669, -0.10179381, -0.29719293, -0.23907463,
          0.32476097, -0.31878042,  0.11582981, -0.29791284, -0.24316253},
        { 0.04673607,  0.01279295, -0.34406313,  0.18168244,  0.18042515,
         -0.27455088, -0.02158231, -0.08696324, -0.20951347, -0.07490559},
        {-0.6087958 ,  0.24305798, -0.32662326,  0.45128247,  0.4437038 ,
         -0.70711035, -0.3755074 ,  0.2437991 , -0.51972383, -0.922166  },
        {-0.49446398,  0.27522317,  0.14403968, -0.01484266,  0.17001525,
         -0.15272279, -0.8455868 ,  0.26166582, -0.26732978, -0.03640364},
        { 0.09349774,  0.22681478,  0.15088356, -0.13907698,  0.3287755 ,
         -0.16839448, -1.1130252 ,  0.00027027, -0.6996594 ,  0.16307619},
        { 0.21132642, -0.65458447,  0.21319945, -0.13922314,  0.08213879,
         -0.37869492, -0.02685229, -0.11997713, -0.5540312 , -0.02726902},
        {-0.06993786, -0.88262594,  0.24028273, -0.23879528,  0.17202403,
         -0.11460293,  0.12843864, -0.03516627, -0.25521436,  0.01454299},
        { 0.37684932, -0.18648295, -0.02236637, -0.30390653,  0.306245  ,
         -0.20302725,  0.17992702, -0.13932982, -0.23410222,  0.05225291},
        { 0.20407067,  0.03700186, -0.07321494, -0.4077834 ,  0.23661739,
         -0.10128716,  0.11323838, -0.2817031 , -0.18640429,  0.01850902},
        { 0.2700133 , -0.26200178,  0.00062286, -0.33159623,  0.31569916,
          0.14391643,  0.14035678, -0.363696  , -0.08329306, -0.08210479},
        { 0.16722848, -0.58058757, -0.02098971, -0.16085938,  0.21709324,
          0.06172708,  0.13518018, -0.26268506, -0.11278882, -0.05505963},
        { 0.02970442, -0.21995759, -0.01391477, -0.07260721,  0.2717287 ,
          0.1000154 ,  0.3748602 , -0.6209022 , -0.02018104,  0.05478302},
        {-0.02655375,  0.16062185, -0.08493673,  0.06762362,  0.11220971,
          0.08850712,  0.19668722, -0.6280225 ,  0.17379169, -0.138845  },
        {-0.55162406,  0.42054766,  0.20014952,  0.02477751, -0.21432348,
         -0.04727143,  0.01496304, -0.39975283,  0.26164714, -0.1822223 },
        {-1.0915164 ,  0.5656195 ,  0.01285449,  0.12778799,  0.06568551,
         -0.3219446 ,  0.20722555, -0.2919983 ,  0.3031826 , -0.15387644},
        {-0.69659156,  0.15877172,  0.02081647,  0.01929416,  0.3037363 ,
         -0.26912746,  0.04245847, -0.05384593,  0.0712071 ,  0.10607948},
        {-0.49396873,  0.16963087, -0.08367337, -0.13766167,  0.48645374,
         -0.28005853, -0.11740276, -0.13544962, -0.14137565,  0.28342825},
        {-0.2586446 , -0.40245375, -0.17876793, -0.0996131 ,  0.34728357,
         -0.2256972 , -0.09192871,  0.46777502, -0.11574734,  0.22756077},
        {-0.09618033, -0.73201144, -0.19678897, -0.14401041,  0.11671717,
          0.12705673, -0.14781259,  0.35652944, -0.12103944,  0.07392998},
        {-0.15874125, -0.9476205 , -0.11704229,  0.06150473,  0.14129642,
         -0.12332568, -0.07765154,  0.28368893, -0.17086086, -0.07303889},
        { 0.18699215, -0.8447742 , -0.19699635,  0.19920471, -0.10492948,
         -0.13019013,  0.06231805,  0.4338158 , -0.34961578,  0.07076481},
        { 0.02839442, -0.35246965, -0.18887687,  0.07389567, -0.10691067,
         -0.06464435,  0.07457712,  0.30817616, -0.37021714, -0.16221766},
        { 0.06353557, -0.50491303, -0.30021593,  0.17066057,  0.11092106,
         -0.17149656, -0.02339096,  0.35033464, -0.2283855 , -0.12098256},
        { 0.23322973, -0.6216686 , -0.19536775,  0.36666673, -0.17799713,
          0.07723536, -0.0090144 ,  0.1545667 , -0.37749732, -0.5483518 },
        { 0.37868437, -0.51164186,  0.4643442 ,  0.30019465, -0.8436244 ,
          0.32758504,  0.11641885, -0.35697523, -0.45895135, -1.2949301 },
        {-0.02329796, -0.49812403,  0.5698228 , -1.5215193 , -0.56251067,
         -0.41113067,  0.1869292 , -0.8486205 ,  0.00612792, -1.1133292 },
        {-0.8365032 , -0.4123908 ,  0.797488  ,  0.08488373, -0.12782839,
         -0.8044487 , -0.83311075, -0.4355635 , -0.9879697 , -0.28985894},
        {-0.48295763, -0.35497186,  0.46529663, -0.3565193 , -0.25599918,
         -0.45852986, -0.6826893 , -0.2474762 , -0.51822615, -0.33780104},
        {-0.19695905,  0.01200025,  0.07679838, -0.1285235 , -0.31112307,
         -0.23344879,  0.0009986 ,  0.18215567, -0.23901302, -0.32248303},
        {-0.00391898,  0.36837494, -0.38847312,  0.2871774 , -0.02832196,
         -0.34801954, -0.02921313, -0.18172911, -0.2551231 , -0.29948074},
        {-0.4718126 ,  0.35467896,  0.03724032,  0.48830855, -0.23024236,
         -0.78904057, -0.3694826 , -0.16532111, -0.56147736, -0.84105057},
        {-0.34650117, -0.3179638 ,  0.5035324 ,  0.21293548, -0.33842808,
         -0.01034303, -0.8271643 , -0.19813904, -0.11515895, -0.13894814},
        { 0.13632718,  0.02251508,  0.34849745,  0.26413032, -0.4300252 ,
         -0.30272168, -0.6705015 ,  0.06542403, -0.5720052 ,  0.05387133},
        { 0.32934728, -0.46204045,  0.20478997,  0.11604486, -0.16996045,
         -0.16107792,  0.06466035, -0.07536066, -0.46640107, -0.01478893},
        { 0.08085594, -0.59851664,  0.29950222, -0.15123267, -0.02158857,
         -0.2890691 ,  0.1855323 ,  0.02330108, -0.20874515, -0.14109096},
        { 0.2446315 , -0.31952605, -0.06314817, -0.31373677,  0.26773694,
         -0.51711535,  0.2749367 ,  0.10013857, -0.05049431, -0.11080635},
        { 0.21604358, -0.18309778, -0.2217761 , -0.44695556,  0.3154034 ,
         -0.36975294,  0.2615449 , -0.06135972, -0.06903233,  0.08679062},
        { 0.17968494, -0.02629233,  0.08651978, -0.21093614,  0.19525117,
         -0.32528177,  0.31262165, -0.21022622, -0.0264486 , -0.1341301 },
        { 0.28052652, -0.17755353,  0.11652003, -0.20550402, -0.07701806,
         -0.11514343,  0.3885644 , -0.45249087,  0.06309782,  0.01774584},
        { 0.14205363, -0.15882759,  0.16110078, -0.11931112,  0.01121152,
         -0.1321552 ,  0.573273  , -0.7567623 , -0.00567518,  0.07160776},
        {-0.3642412 , -0.16345976,  0.19446547, -0.03153015,  0.00765814,
         -0.07677199,  0.01236698, -0.2649529 ,  0.24592908, -0.14377905},
        {-0.8546906 ,  0.35709593,  0.26259792,  0.17821336,  0.0063352 ,
         -0.11060685, -0.07836196, -0.25391206,  0.16096804, -0.2784393 },
        {-0.83001196,  0.59617746,  0.14895299, -0.06228667,  0.19026043,
         -0.3458397 ,  0.0887518 , -0.26363662,  0.09970872, -0.14361937},
        {-0.3441593 , -0.02632761, -0.05790922, -0.18971016,  0.53803414,
         -0.11948261,  0.03649369,  0.02534627,  0.02339246,  0.04470967},
        {-0.25434846, -0.20612925,  0.08252936, -0.26751745,  0.38471445,
         -0.25130224, -0.05896066,  0.09318899,  0.10541389,  0.16806693},
        {-0.06659271, -0.85952556,  0.20839167, -0.06987628,  0.2593059 ,
         -0.15686321, -0.1775435 ,  0.2574641 , -0.04821857,  0.1299773 },
        {-0.01489507, -0.77242273, -0.03620747,  0.14314559,  0.07014754,
         -0.11616009,  0.03100768,  0.18782821, -0.26073542,  0.01662565},
        { 0.03268827, -0.675588  ,  0.00857476,  0.21736372,  0.13776171,
          0.03461574,  0.13916072,  0.24467805, -0.33570093, -0.09924328},
        { 0.17697012, -0.35961115, -0.16776754,  0.17592013,  0.11771912,
          0.09822447, -0.01340675,  0.20712893, -0.37437657, -0.1252638 },
        { 0.03591008, -0.35245928,  0.14981283,  0.04412944,  0.14513831,
         -0.10138196, -0.03001967,  0.18584847, -0.3411885 , -0.3523013 },
        {-0.0021637 , -0.3939747 ,  0.09613328,  0.21323532, -0.07671852,
          0.10413091, -0.09471445, -0.10674419, -0.39737913, -0.05739213},
        { 0.12483652, -0.5795814 ,  0.09331085,  0.5133853 , -0.25588322,
          0.08854142, -0.13076016, -0.25305998, -0.04307314, -0.5324904 },
        {-0.06437624, -0.23784284,  0.32379973,  0.601629  , -0.5001905 ,
          0.01555113, -0.06493253, -0.48615515, -0.26508135, -1.0892533 },
        {-0.4250776 , -0.6339864 ,  1.0686285 , -0.95451725, -0.56365526,
         -0.486371  ,  0.17248559, -0.9889356 , -0.5478802 , -1.1225421 },
        {-0.7537082 , -0.30911717,  1.1478682 , -0.7823435 , -0.5129196 ,
         -0.9135465 , -1.0976241 , -0.75187296, -1.0647919 , -0.7002753 },
        {-0.11941481, -0.34298086,  0.5050639 , -0.46467727, -0.35836968,
         -0.2784647 , -0.67131317, -0.29106343, -0.38849622, -0.572574  },
        { 0.04908823, -0.01831133,  0.01517736,  0.00508066, -0.07124419,
         -0.06114435, -0.05388992, -0.02414861,  0.04926426, -0.00448861},
        {-0.1686295 ,  0.21696982, -0.4036414 ,  0.4535579 ,  0.018072  ,
         -0.31001496, -0.11800938, -0.21677387, -0.45108518, -0.295449  },
        {-0.56617564,  0.18800835,  0.19842936,  0.13773793,  0.05746213,
         -0.9007945 , -0.38376456, -0.26292744, -0.51481885, -0.6128808 },
        {-0.36141166, -0.42881036,  0.33617386,  0.38189656, -0.6675135 ,
          0.17049289, -0.59607506, -0.31771573, -0.44048014, -0.342438  },
        { 0.09500922, -0.12243766,  0.32529548,  0.3460391 , -0.41323707,
         -0.0186704 , -0.8253568 ,  0.14675948, -0.259254  , -0.3922833 },
        { 0.13698556, -0.6185037 ,  0.30148035,  0.11787873, -0.30533773,
          0.18040985, -0.11427555, -0.08239616, -0.34168738, -0.30724162},
        { 0.07470083, -0.7305123 ,  0.20150177, -0.10861897, -0.15282919,
          0.32682437, -0.04597396, -0.18640111, -0.19855893, -0.22334674},
        { 0.09628489, -0.4155781 ,  0.06434137, -0.15326816,  0.09021714,
         -0.2448826 ,  0.10956192, -0.23891531,  0.07995966, -0.03734513},
        { 0.15147817, -0.10328949,  0.04679416, -0.25320724,  0.17408744,
         -0.36691836,  0.245626  , -0.177327  ,  0.14395149,  0.06096321},
        { 0.23155612, -0.24484494,  0.05627956, -0.5913946 ,  0.07454459,
         -0.44330603,  0.27150565, -0.27978098,  0.1391514 , -0.11574546},
        { 0.37972176, -0.0776074 ,  0.1839086 , -0.62303996, -0.12514594,
         -0.34403485,  0.42269194, -0.5665261 ,  0.03933369, -0.01868096},
        { 0.06156531, -0.33127525,  0.33024487, -0.41601115, -0.1462395 ,
         -0.28322965,  0.48086506, -0.25278223,  0.23079863, -0.03058054},
        {-0.19997285, -0.0004168 ,  0.27198243, -0.34495628,  0.0066331 ,
         -0.52236414,  0.12820573, -0.10954104,  0.274483  , -0.02014903},
        {-0.7240766 ,  0.3274843 ,  0.22391488, -0.22029132,  0.21625566,
         -0.45235413,  0.04981731,  0.00857263,  0.15548779, -0.0786683 },
        {-0.5767248 ,  0.46086398,  0.04576959, -0.38080323,  0.4536305 ,
         -0.30444613,  0.10547172,  0.08641486,  0.0022258 , -0.06691223},
        {-0.42276528, -0.03636654,  0.04545951, -0.29911616,  0.39228892,
         -0.09024603, -0.10935978,  0.06353819, -0.10650457,  0.20206288},
        {-0.11521554, -0.40243784, -0.00747048,  0.0243848 ,  0.3432454 ,
          0.01870576, -0.13293411, -0.08893447,  0.05539702,  0.09529968},
        { 0.13419266, -0.6277328 , -0.08033798,  0.13582158,  0.22019374,
          0.12489028,  0.0183602 ,  0.0619383 , -0.12081708,  0.11821579},
        {-0.05546749, -0.37170258,  0.02281982,  0.05582707,  0.20406875,
          0.19141331,  0.11658237,  0.04443555, -0.2935892 ,  0.01921117},
        { 0.07045465, -0.16506527,  0.00074754,  0.31899098, -0.05407154,
          0.03111634,  0.09999631,  0.02732273, -0.14671013, -0.14716823},
        { 0.12140111, -0.23637137, -0.0060473 ,  0.01219405,  0.07197379,
          0.08191203,  0.01885194,  0.12200541, -0.1183916 , -0.14358316},
        {-0.07898262, -0.13798663,  0.04058775,  0.08347978,  0.08863977,
         -0.01855038,  0.06422927, -0.11266387, -0.22988637, -0.26579127},
        { 0.1430139 , -0.00535781,  0.10417265,  0.18744166, -0.17753972,
         -0.00314406,  0.01043113, -0.05473856, -0.21167123, -0.3979667 },
        {-0.09800588, -0.2622738 , -0.02334362,  0.26112264, -0.23474267,
          0.03173627,  0.04162618, -0.08830651,  0.05178696, -0.6559499 },
        {-0.11477337, -0.16728368,  0.20909432, -0.14979893, -0.5838121 ,
          0.12046112,  0.1040788 ,  0.0543982 ,  0.13142186, -0.98633105},
        {-0.20379601, -0.4955839 ,  1.0221657 , -1.017077  , -0.852155  ,
         -0.7689133 ,  0.1728122 ,  0.10662202, -1.2422231 , -0.98702735},
        {-0.582148  , -0.07458924,  0.729482  , -0.87870854, -0.5081039 ,
         -1.064022  , -0.84770405,  0.27501896, -1.0263007 , -0.6428221 },
        { 0.21644841, -0.48207766,  0.7265451 , -0.44091707, -0.37125996,
         -0.4089105 , -0.7806377 , -0.38483655, -0.45534688, -0.4357215 },
        {-0.19707617, -0.10081929, -0.34418526, -0.43818614, -0.29977491,
         -0.4164169 , -0.0967428 ,  0.1561326 , -0.32506925,  0.0926487 },
        {-0.20242535,  0.4266798 , -0.45049277,  0.3994901 , -0.02275677,
         -0.49900642, -0.16947696, -0.00562018, -0.46792984, -0.25615698},
        {-0.6791442 , -0.39538395, -0.05552692,  0.20993046, -0.17732365,
         -0.47413903, -0.42326376,  0.28063723, -0.8252757 , -0.555304  },
        {-0.48986423, -0.7200261 ,  0.00783714,  0.6306844 , -0.47342822,
         -0.03700911, -0.33966693, -0.29480475, -1.0900134 , -0.59750247},
        {-0.1358124 , -1.1833843 ,  0.23500428,  0.19466431, -0.23350123,
          0.26825342, -0.5690081 ,  0.00938535, -0.41647145, -0.60238653},
        {-0.0338887 , -1.0208771 ,  0.3227001 ,  0.2675548 , -0.23216821,
          0.32617375, -0.34101343, -0.02848568, -0.11530235, -0.47298694},
        { 0.00704095, -1.0564197 ,  0.16421767,  0.09144518, -0.16179577,
          0.32508963, -0.15120262, -0.45682943, -0.15461206, -0.03865286},
        { 0.0297504 , -0.5157328 ,  0.29113933, -0.13145715, -0.08157507,
          0.16976841,  0.08026086, -0.46550268, -0.05089311, -0.19156937},
        { 0.22211859,  0.01402646,  0.06489854, -0.13220166,  0.01916297,
         -0.07412453,  0.15316087, -0.32923204,  0.0675274 , -0.1509757 },
        { 0.21772964, -0.06716552,  0.04685154, -0.38040477, -0.00130647,
         -0.26300037,  0.18988805, -0.30705333,  0.17985517, -0.08172898},
        { 0.28883582, -0.19107884,  0.18326941, -0.44946945, -0.34032035,
         -0.2466432 ,  0.2620754 , -0.4489625 ,  0.21236299,  0.26040542},
        { 0.14320026, -0.23153697,  0.0948424 , -0.4346793 , -0.13730702,
         -0.1163995 ,  0.26571053, -0.2564375 ,  0.21626   ,  0.0759448 },
        {-0.29886413, -0.12833212,  0.29332155, -0.51875395,  0.17307386,
         -0.19380122,  0.41676244, -0.17504601,  0.12483096, -0.34161386},
        {-0.6524746 ,  0.1804433 ,  0.1849499 , -0.41345456,  0.21575892,
         -0.09584758,  0.1767669 , -0.02605562, -0.03597515, -0.25067362},
        {-0.5338729 ,  0.13623874,  0.07294357, -0.29237702,  0.2744611 ,
         -0.0041913 , -0.01711969,  0.03435346, -0.17485216,  0.06870738},
        {-0.11742781, -0.19690983,  0.04058913,  0.06178843,  0.20476356,
          0.0527789 ,  0.0377477 , -0.05134816, -0.05173844,  0.12312475},
        {-0.11819884, -0.43251964,  0.0981029 ,  0.23657131,  0.18357901,
          0.03897252,  0.12782995, -0.09731878, -0.10496034, -0.08513642},
        {-0.05174226, -0.2534979 ,  0.18558048,  0.2192477 , -0.1976962 ,
          0.17407215,  0.16979784, -0.13733307, -0.1485994 , -0.07261937},
        {-0.05779988, -0.10063653,  0.10029416,  0.1657578 , -0.1629857 ,
         -0.02810955,  0.17252167, -0.01389126, -0.09852338, -0.11859773},
        {-0.05432947, -0.09294824,  0.03651591,  0.15147874, -0.1327097 ,
          0.03102925, -0.00359821, -0.09818738, -0.0976634 , -0.07485344},
        {-0.0798513 ,  0.1511627 , -0.06255305,  0.08796088, -0.00719147,
          0.09305551,  0.00318754, -0.11111499,  0.01918003,  0.0108004 },
        {-0.10519201, -0.06560645,  0.06122639,  0.21986485,  0.00832156,
         -0.00167153, -0.06222178, -0.09989932, -0.1910016 , -0.21128693},
        { 0.13675465, -0.14749758,  0.15313628,  0.35417143, -0.4689185 ,
          0.05320471,  0.00197913, -0.27687576,  0.00981142, -0.4170447 },
        { 0.00706931, -0.23367089,  0.36234316,  0.12360287, -0.29610643,
          0.08841796, -0.03001782, -0.60544425,  0.09652581, -0.6143402 },
        {-0.09184243, -0.10674135,  0.6437598 , -0.48544377, -0.57009965,
          0.24337792, -0.07586864, -0.504057  , -0.05359351, -1.0051423 },
        {-0.40353867, -0.13229619,  0.89794475, -1.3336709 , -0.95123434,
         -0.5132617 ,  0.22599682, -0.18260665, -1.1349394 , -0.63228995},
        {-0.46201378,  0.12568663,  0.10029227, -0.71089447, -0.3480855 ,
         -0.9016491 , -0.44984084,  0.4471876 , -0.91460055, -0.63882345},
        {-0.32041943,  0.21994552,  0.49003384, -0.2675246 , -0.15003736,
         -0.49267557, -0.6216467 , -0.29529646, -0.28290537, -0.38561386},
        {-0.0685536 ,  0.24809226, -0.19207636, -0.14701077,  0.0544862 ,
          0.04656713,  0.01352333, -0.02961366, -0.17810526,  0.06348217},
        { 0.3183003 ,  0.1535313 , -0.4435413 ,  0.00071301, -0.2669223 ,
         -0.47426715, -0.25246006,  0.34074178, -0.38587508, -0.3427389 },
        {-0.19244538, -0.02955502, -0.14002816, -0.2024643 , -0.17588888,
          0.26938596, -0.43064734,  0.46411014, -0.9781266 , -1.0306728 },
        {-0.4387974 , -0.4969401 , -0.23724978,  0.4975507 ,  0.0302062 ,
          0.16515756, -0.462229  , -0.26403907, -0.7964508 , -0.5922325 },
        {-0.17781141, -0.9060588 ,  0.09293499,  0.20002699, -0.28747442,
          0.29579   , -0.3329945 ,  0.05741481, -0.37567714, -0.67519176},
        {-0.08934712, -1.4699827 ,  0.02919319,  0.3486577 , -0.01889115,
          0.15043622, -0.30178693, -0.29546887,  0.05692939, -0.45673305},
        { 0.03695663, -0.4166443 ,  0.03805757,  0.05923017, -0.05832519,
          0.19942117, -0.11517173, -0.34990197, -0.01410793, -0.24262771},
        { 0.09876224, -0.02639258,  0.23149061, -0.076681  , -0.23033784,
          0.04674426, -0.03598805, -0.60267955, -0.18022959,  0.00369101},
        { 0.13479641, -0.11062478,  0.19320966, -0.08601486, -0.37278226,
          0.21643262, -0.09674708, -0.26726937,  0.01624386, -0.23859799},
        { 0.08654237,  0.05321553,  0.1490635 , -0.05628544, -0.4885331 ,
          0.0325282 ,  0.1742348 , -0.33695993,  0.09902845, -0.3682592 },
        { 0.25011083, -0.12094381,  0.21758935, -0.1403898 , -0.44405714,
         -0.00363511,  0.25236785, -0.45391384,  0.0961577 , -0.25403515},
        { 0.22969703, -0.06668011,  0.1871316 , -0.24787465, -0.2826883 ,
          0.0002629 ,  0.515185  , -0.3044331 , -0.04831024, -0.2962863 },
        { 0.19767164, -0.08703208,  0.22898456, -0.25298232, -0.3356899 ,
          0.03932938,  0.4908164 , -0.1111005 , -0.0266137 , -0.30577472},
        {-0.15141112,  0.12878011,  0.3111309 , -0.11475311, -0.14258449,
          0.02480705,  0.22512905, -0.08490807, -0.1348124 , -0.1604452 },
        {-0.2464774 , -0.02523903,  0.08980748, -0.09177308,  0.12796941,
         -0.07768158,  0.2418237 ,  0.00887079, -0.20240179, -0.20426323},
        {-0.19186734, -0.0548665 ,  0.12749009,  0.0973769 ,  0.07678874,
          0.04781491,  0.16521646, -0.11881664, -0.09166015, -0.18666418},
        {-0.09959327,  0.04994093,  0.17744164,  0.16952455, -0.0193029 ,
         -0.09417372,  0.20173603, -0.35557112, -0.06331099, -0.15662014},
        {-0.09475732, -0.11428779,  0.15412484,  0.1807738 , -0.13699526,
         -0.09477416,  0.1293414 , -0.30783734, -0.04315857, -0.26304945},
        {-0.03936771,  0.1655072 ,  0.13882296,  0.1632544 , -0.10362099,
          0.03401672,  0.13009807, -0.42154413,  0.08112717, -0.18910775},
        {-0.12045748,  0.26203218, -0.05317811,  0.19113414, -0.17558649,
          0.06813104,  0.06699377, -0.22634672,  0.06008443, -0.00217973},
        {-0.00213645,  0.05100332,  0.09142409,  0.08612837, -0.32176384,
          0.14585614, -0.01424285, -0.23334697,  0.01617124, -0.07495137},
        { 0.01508466, -0.06478643,  0.1693775 ,  0.12994595, -0.14689659,
          0.027573  ,  0.03169172, -0.41731828, -0.13186006, -0.2795456 },
        { 0.16923995, -0.17474207,  0.24532075,  0.05701097, -0.7026082 ,
          0.04819126,  0.04446986, -0.53522843,  0.15404917, -0.47241125},
        {-0.03292648, -0.06421616,  0.24767174,  0.01063394, -0.6313126 ,
          0.22718951,  0.00931157, -0.8569055 ,  0.21228768, -0.44641587},
        {-0.01468504,  0.12940192,  0.10362627, -0.23818679, -0.64394915,
          0.23351198, -0.15423363, -0.326551  , -0.19742885, -0.47271442},
        {-0.5452936 ,  0.2694436 ,  0.9699037 , -1.8491119 , -0.8657216 ,
         -0.13644964, -0.31301996, -0.45611134, -1.1106818 , -0.42992863},
        {-0.56705743,  0.17881906,  0.60740805, -0.7577771 , -0.28109455,
         -0.5861013 , -0.5992776 , -0.349767  , -0.8584512 , -0.30121472},
        {-0.1946773 ,  0.4221093 ,  0.32277998, -0.35919058, -0.12879817,
         -0.21052669, -0.43937507, -0.29387426, -0.34476584, -0.2683227 },
        { 0.057518  , -0.00394639,  0.01812347, -0.08045032,  0.02760691,
         -0.00160763, -0.05088923,  0.01212018, -0.06854794, -0.06030882},
        { 0.22483082, -0.2945376 , -0.28958458, -0.1265764 , -0.23454773,
         -0.48922777, -0.35751545,  0.0097513 , -0.24897334, -0.26211232},
        {-0.14870864, -0.3807066 ,  0.17466179, -0.27515334, -0.06122988,
          0.16352285, -0.31662935, -0.18828961, -1.0321612 , -0.6817371 },
        {-0.21667641, -0.17368561, -0.01076065,  0.4136431 , -0.03292541,
          0.04966755, -0.9918532 , -0.8627043 , -0.76674294, -0.84592086},
        { 0.06128691, -0.42140296,  0.15398343,  0.21812932, -0.17871927,
         -0.0301475 , -0.3294583 , -0.86585355, -0.33426106, -0.24186884},
        { 0.15146802, -0.7352084 ,  0.17937893,  0.2451916 , -0.4589391 ,
          0.19036643, -0.32619646, -0.6365419 , -0.1072063 , -0.08604409},
        { 0.03240325, -0.10400201,  0.12362506,  0.27940714, -0.36381033,
          0.05740311, -0.34180394, -0.7093684 , -0.06959634, -0.31680107},
        {-0.0332547 , -0.04440272,  0.2529747 ,  0.08718526, -0.5496741 ,
         -0.13220891, -0.05098882, -0.64204586,  0.12408135, -0.38843414},
        { 0.07918827,  0.1291609 ,  0.19691707,  0.16134197, -0.6132016 ,
          0.16907935, -0.16944033, -0.3032061 , -0.07800366, -0.34014112},
        { 0.00762521,  0.07170881,  0.14670263,  0.11578691, -0.46851772,
          0.19008228,  0.16048162, -0.3880404 , -0.05275195, -0.47420937},
        { 0.29414704,  0.13468598,  0.22045937, -0.06366132, -0.5159025 ,
         -0.03061966,  0.34741527, -0.3152112 ,  0.0011261 , -0.5997013 },
        { 0.36223534,  0.1394129 ,  0.24986888, -0.19970909, -0.2579891 ,
          0.14103094,  0.33763465, -0.21741019, -0.18189472, -0.5370397 },
        { 0.38796473, -0.0220049 ,  0.21572138, -0.33313486, -0.22489925,
          0.00835711,  0.4643304 , -0.0066891 ,  0.01860476, -0.54386395},
        { 0.1806363 , -0.13097426,  0.08373157, -0.08093002, -0.25569093,
          0.03971644,  0.293087  ,  0.00933709, -0.00862482, -0.22169535},
        {-0.02360796,  0.0048289 ,  0.04758581,  0.08019033, -0.02235976,
         -0.00086245,  0.49042252, -0.00863421, -0.18566081, -0.2970307 },
        {-0.0207339 , -0.06617677,  0.06308857, -0.01899749,  0.04850694,
         -0.01696144,  0.27376974, -0.21015249,  0.05479635, -0.2631367 },
        {-0.07178684,  0.25151044,  0.10727911,  0.08478984,  0.03479027,
          0.12966496,  0.12434657, -0.27802798, -0.16620468, -0.11303499},
        {-0.03280586,  0.31480277, -0.07109375,  0.16669439,  0.07638898,
          0.15411003,  0.05673474, -0.40209264,  0.0018445 , -0.21209487},
        {-0.14932875,  0.4305207 ,  0.07655822,  0.23959501, -0.0861515 ,
          0.09196423,  0.20383431, -0.70482874, -0.03174036, -0.2980158 },
        {-0.20291252,  0.26207724,  0.24757776,  0.10085718, -0.24087666,
          0.05986153,  0.05564357, -0.40293762,  0.02489131, -0.04383895},
        {-0.15848818,  0.13973129,  0.19753636,  0.19628654, -0.22043107,
         -0.12109723,  0.13340493, -0.7043406 ,  0.03535178, -0.24980842},
        {-0.06251665,  0.00250532,  0.18605639,  0.03624038, -0.18758276,
          0.00848852, -0.03650682, -0.63054204,  0.14051424, -0.42896774},
        { 0.01288042, -0.10546847,  0.24596617, -0.09556124, -0.40957892,
          0.3318326 , -0.05275901, -0.7355121 ,  0.20237583, -0.47172186},
        {-0.19991662, -0.10769853,  0.14037454,  0.14400572, -0.48994035,
          0.13753176, -0.05101388, -0.6306508 ,  0.14474945, -0.12400843},
        {-0.32553244,  0.02521221,  0.24356304, -0.23377608, -0.5456565 ,
         -0.07733103, -0.3478953 , -0.25451162, -0.21559532,  0.19933207},
        {-0.8110279 ,  0.20304716,  0.49875027, -1.5924609 , -0.57255346,
          0.16302422, -0.19996186, -0.4240639 , -1.0266281 ,  0.08699866},
        {-0.46167022,  0.1327977 ,  0.17092335,  0.02822796, -0.50688845,
         -0.582444  , -0.31499416, -0.32589433, -0.6231358 , -0.44816697},
        {-0.0491114 ,  0.25897998, -0.24855669, -0.14250545, -0.25900438,
          0.20665993, -0.11531015, -0.03688532, -0.4506889 , -0.03556262},
        {-0.04227041,  0.21159205, -0.18393524, -0.11314166, -0.04515364,
         -0.06935966, -0.05970599, -0.04918412, -0.30181375, -0.00630963},
        {-0.07386348,  0.04669732, -0.00016781,  0.17393056, -0.09761794,
         -0.55936956,  0.01953978, -0.23021623, -0.25445393, -0.2583663 },
        {-0.26200348, -0.20591654,  0.2260469 ,  0.15731682, -0.12043864,
         -0.6368379 , -0.23822239, -0.4503197 , -0.80033743, -0.6557267 },
        {-0.10051885,  0.11232658,  0.11269193,  0.3286161 , -0.41828874,
         -0.04985309, -0.5336126 , -1.1368603 , -0.7419797 , -0.807848  },
        {-0.20536125,  0.36227262, -0.01723554,  0.1359954 , -0.4658928 ,
          0.17906259, -0.75532633, -0.6281339 , -0.18436241, -0.30331743},
        { 0.01938974,  0.38971984,  0.03490247, -0.02940666, -0.16104415,
          0.10096556, -0.71856236, -0.41696253, -0.12320168,  0.03747715},
        {-0.06748654,  0.21187228,  0.06380965,  0.10465554, -0.76641613,
          0.00023256, -0.5173812 , -0.62422806,  0.10120967, -0.09243683},
        {-0.02588192,  0.08903645,  0.09538472,  0.1287578 , -0.65802604,
          0.11670465, -0.11282014, -0.47973296,  0.1945    , -0.30333024},
        {-0.08337513,  0.15092511, -0.01032123,  0.03764955, -0.09277972,
          0.0818747 ,  0.08100089, -0.1467118 ,  0.00073831, -0.18373115},
        {-0.01444546,  0.14961693,  0.18080507, -0.05468848, -0.1081595 ,
          0.06984879,  0.08879378, -0.23760831,  0.04709247, -0.15786685},
        { 0.16975182,  0.14211398,  0.15233758, -0.18251131, -0.23174284,
          0.00950781,  0.15438984, -0.17297865, -0.06535219, -0.24785106},
        { 0.2409986 , -0.05264761,  0.09797201, -0.11473772, -0.15634045,
          0.10751761,  0.21064052, -0.20143661, -0.08857689, -0.3694189 },
        { 0.19877191, -0.10789517, -0.00159419, -0.11275081, -0.216068  ,
          0.08252986,  0.47389254, -0.11521807, -0.12736179, -0.3212981 },
        { 0.13872941, -0.1725793 ,  0.09659389, -0.07945843, -0.2650074 ,
          0.12385266,  0.5102051 , -0.1160602 ,  0.09696069, -0.24136133},
        {-0.06809937,  0.0593517 ,  0.0466714 , -0.0762668 , -0.24538375,
          0.07558373,  0.49639988, -0.15649271,  0.05296564, -0.21660022},
        {-0.02274456,  0.13715175, -0.07030611,  0.06032337,  0.05280644,
          0.0600585 ,  0.28538048, -0.12145734,  0.00398478, -0.20257704},
        {-0.03578141,  0.10682046,  0.03592189,  0.03422673, -0.14680561,
          0.06167763,  0.23851949, -0.15327762, -0.06344605, -0.1928374 },
        {-0.22410612,  0.03699176,  0.20045687,  0.10148948, -0.0316175 ,
          0.0575981 ,  0.22444974, -0.2633203 , -0.03003772, -0.28960496},
        {-0.30815923,  0.28516614,  0.24290216,  0.1532294 , -0.20321931,
         -0.02309653,  0.26137114, -0.3961043 , -0.04717907, -0.28327128},
        {-0.32215786,  0.17265171,  0.3274934 ,  0.15148221, -0.09572084,
         -0.03855301,  0.03662928, -0.5219278 , -0.11937067, -0.27164975},
        {-0.19770052,  0.28682426,  0.09570582, -0.00456924, -0.0554633 ,
          0.202914  ,  0.13267562, -0.5740844 ,  0.08034088, -0.2538643 },
        {-0.02668435,  0.2879646 ,  0.19180371, -0.14948362, -0.0163231 ,
          0.23366216, -0.16480333, -0.5239405 ,  0.04534732, -0.2193088 },
        {-0.09674461, -0.33987072,  0.16159336, -0.1257055 , -0.08179358,
          0.27815136, -0.03791417, -0.85132384,  0.12293801, -0.34818846},
        {-0.23562339, -0.45019868,  0.44911128, -0.16995308, -0.09496137,
          0.16261268, -0.13332285, -0.949794  , -0.01113766, -0.15119915},
        {-0.32498574,  0.27684107,  0.17986622, -0.7739252 , -0.3110254 ,
          0.12731655, -0.29874113, -0.23114316, -0.6729162 ,  0.31005818},
        {-0.50525963,  0.3385014 ,  0.35925823, -1.3835115 , -0.5666126 ,
          0.16167885, -0.39709246, -0.1973778 , -0.6611078 , -0.05003656},
        { 0.21440694, -0.0170377 ,  0.14766382, -0.19522937, -0.26303038,
         -0.0551746 , -0.02258073, -0.3593278 , -0.82045966, -0.4441086 },
        { 0.07106651, -0.04995328, -0.02787015,  0.02439377, -0.05904074,
         -0.05878088, -0.02755168, -0.01608296, -0.02586748, -0.08883741},
        { 0.07727233,  0.26878482, -0.16368565, -0.20876458,  0.0693744 ,
         -0.0767792 ,  0.05508439, -0.01302579, -0.18046258,  0.0082528 },
        {-0.08460405,  0.13624825, -0.28441438,  0.11781897, -0.07927846,
         -0.20825535, -0.00201103, -0.0848857 , -0.10272909, -0.09686701},
        {-0.41360447, -0.08140085,  0.20109513,  0.19985342, -0.21391098,
         -0.90619266, -0.04453431, -0.5547304 , -0.7463682 , -0.8401913 },
        {-0.5225594 ,  0.04779445,  0.1609071 ,  0.44983143, -0.45887995,
          0.00212565, -0.3426774 , -0.904747  , -0.22370744, -0.1954626 },
        {-0.5652913 ,  0.25125518,  0.22380674,  0.04690579, -0.78653985,
          0.21663573, -0.823808  , -0.39603254, -0.13099273, -0.1837558 },
        {-0.07791464,  0.9004754 ,  0.1325849 , -0.03742665, -0.7480472 ,
         -0.19885515, -1.0531836 , -0.1079421 , -0.14312522, -0.49795452},
        { 0.07676431,  0.40735698,  0.22401702,  0.06768164, -0.47601095,
         -0.24087977, -1.3661551 , -0.10779611,  0.02204032, -0.22990017},
        {-0.03393455,  0.11214713,  0.2425561 ,  0.06986364, -0.4429228 ,
         -0.04259291, -0.25043935, -0.01970805,  0.03433787, -0.2808436 },
        { 0.15300237,  0.08405274,  0.27004254,  0.0163623 , -0.312578  ,
         -0.00606209, -0.04167028, -0.11224336, -0.05625909,  0.02124349},
        { 0.0907242 ,  0.06060164,  0.21511659, -0.05862297, -0.2656837 ,
          0.027939  ,  0.05158355, -0.08509266, -0.10919014, -0.11442909},
        { 0.02488233, -0.12433721,  0.08073329,  0.01666875, -0.23695174,
         -0.11735258,  0.17623352, -0.14474948, -0.04072522,  0.00315935},
        { 0.1702724 , -0.3857226 ,  0.13301153,  0.09729953, -0.15672268,
          0.11371575,  0.08872437, -0.17559777,  0.05125184, -0.00055823},
        { 0.13197327, -0.4998939 ,  0.08133314, -0.12844734, -0.23123677,
          0.08715797,  0.32631513, -0.03658595,  0.10420067,  0.01155644},
        { 0.29453766, -0.3419193 ,  0.00489483, -0.05281039, -0.14750962,
          0.23702523,  0.17306873, -0.2859934 ,  0.16279206, -0.11673652},
        { 0.17998709, -0.13708334, -0.0668193 , -0.09404007, -0.18358724,
          0.11513984,  0.06444907, -0.09713775,  0.11085926, -0.04915774},
        { 0.01436863,  0.03598741, -0.09527849,  0.08833058, -0.21505289,
          0.07772794,  0.2871884 , -0.02415351,  0.04774991, -0.25959927},
        { 0.00722282,  0.01683007,  0.0765655 ,  0.06257951, -0.09989315,
          0.13934247,  0.15891053, -0.13630311, -0.01177326, -0.12283335},
        { 0.02453675,  0.23523791,  0.04899846,  0.08005533, -0.02214802,
          0.0655951 ,  0.08926234, -0.27318686,  0.04355048, -0.24293935},
        {-0.21988975,  0.37333575,  0.22266582,  0.09561675, -0.07701518,
          0.1584088 , -0.00038675, -0.41581145, -0.01014182, -0.28660995},
        {-0.06405918,  0.16739433,  0.19649652,  0.1118348 ,  0.1900139 ,
          0.13956872, -0.06130901, -0.31759405, -0.08785373, -0.42237845},
        {-0.14306922,  0.40379682,  0.19102627,  0.13282272, -0.07817336,
          0.08110988,  0.0985388 , -0.5171787 , -0.09986351, -0.20704193},
        {-0.08803646,  0.12831064,  0.19516012, -0.13143352,  0.24278195,
          0.09064469,  0.05509989, -0.528036  ,  0.00858544, -0.11092333},
        { 0.18208426, -0.48594558,  0.16374215,  0.0122615 , -0.03786015,
          0.05296884, -0.33268476, -0.75356704, -0.04707428, -0.09024129},
        {-0.08420033, -0.26732132,  0.1693361 , -0.18146472,  0.00871685,
          0.24798611, -0.7431147 , -1.0490309 ,  0.03230534,  0.09880827},
        {-0.37027967,  0.16065726,  0.28023472, -0.8897288 , -0.09309607,
          0.22943886, -0.79170084, -0.58130765, -0.34102446,  0.29606414},
        {-0.34032285,  0.23494677,  0.09499661, -0.47616935, -0.3184341 ,
          0.05924179, -0.62104326, -0.21393861, -0.44355914,  0.02992819},
        { 0.18168731,  0.37764394, -0.3260483 ,  0.07050397,  0.243323  ,
          0.12362128,  0.13526444, -0.4504876 , -0.55854565, -0.55763704},
        { 0.01878231,  0.00872091,  0.03172088, -0.08751108, -0.00331495,
         -0.07910699, -0.01588224, -0.04412877, -0.12051593, -0.0975853 },
        {-0.02169608, -0.02524476, -0.03766453,  0.07156586, -0.03532282,
          0.05003519, -0.0068932 , -0.04859992,  0.08222263, -0.07402387},
        {-0.02206043, -0.08615802, -0.04256763, -0.00087364,  0.01667538,
          0.04751595, -0.04692766,  0.00580283,  0.01015779, -0.07379971},
        {-0.3214331 , -0.40738225, -0.14950939,  0.6082008 , -0.3090422 ,
         -0.09001396, -0.03963271, -0.6624882 , -0.5567741 , -0.57297254},
        {-0.6579578 , -0.3679127 , -0.17449406,  0.7085663 , -0.29203358,
          0.28620163, -0.31799433, -0.7404427 , -0.21394889, -0.1071356 },
        {-0.78695965, -0.3732816 , -0.01785816,  0.5058796 , -0.695524  ,
          0.2933676 , -0.600054  ,  0.00455035, -0.15635538, -0.54641163},
        {-0.30504596,  0.42251724, -0.1568517 ,  0.1431632 , -0.69217193,
          0.11066186, -1.1214627 ,  0.1709865 , -0.4621962 , -0.33061194},
        {-0.08882969,  0.2435202 ,  0.0934189 ,  0.23540564,  0.00778191,
         -0.06401826, -1.2448002 ,  0.18068227, -0.3153235 , -0.37550324},
        { 0.0598336 ,  0.04557128,  0.13781276,  0.22616275, -0.05003353,
         -0.24275707, -0.91403496,  0.3422025 , -0.2253773 , -0.21321131},
        { 0.05432472, -0.10584995,  0.08865114, -0.01879969,  0.04120496,
          0.09216823, -0.48930684, -0.29661265,  0.08045293,  0.02344502},
        { 0.17145312,  0.02110447,  0.106667  ,  0.15674256, -0.05501115,
          0.12814385, -0.2765645 , -0.19965588, -0.00162934, -0.23797452},
        { 0.34543037, -0.2144293 ,  0.0200166 ,  0.15912719, -0.02749644,
          0.19308327, -0.42289168, -0.14754361, -0.0609399 , -0.10075387},
        { 0.33206105, -0.19241162,  0.02913813,  0.14193045, -0.08052917,
          0.12125564, -0.37110972, -0.24962008,  0.05870431, -0.16614914},
        { 0.197068  ,  0.08016901,  0.13184999, -0.04141162, -0.14514855,
          0.18752739, -0.1637342 , -0.2600152 ,  0.23993625, -0.13848403},
        { 0.25772476, -0.16697936, -0.06201788,  0.13069065, -0.12505385,
          0.00049159, -0.00861229, -0.1918752 ,  0.30610108, -0.1403949 },
        { 0.22969146, -0.23022588, -0.04924612, -0.07454956, -0.14331298,
          0.08841161, -0.01008013, -0.08745051,  0.20408249, -0.06133261},
        { 0.11883162,  0.05224743, -0.00504494,  0.03181076, -0.0576202 ,
          0.11938423, -0.00814571, -0.01207207,  0.24817924, -0.14058483},
        {-0.02434604,  0.10449538, -0.09374043, -0.10444328,  0.01471129,
          0.11237534, -0.1318813 , -0.07971939,  0.17327331, -0.18497743},
        { 0.08465561,  0.31142306,  0.04598373,  0.08161994,  0.08310356,
          0.02899628, -0.1370412 , -0.15267193,  0.10852204, -0.1200114 },
        {-0.25764394,  0.03898107,  0.24940501,  0.2393629 ,  0.14510685,
         -0.21827461,  0.07791018, -0.39707148,  0.12617661, -0.20565145},
        {-0.41548455,  0.010918  ,  0.38680217,  0.04063959,  0.01357412,
         -0.10845571,  0.10254791, -0.45473564,  0.00414047, -0.15688802},
