-2.810572460293769836e-02,3.201929479837417603e-02,5.417295545339584351e-02,-6.389820575714111328e-02,7.916101068258285522e-02,7.590136677026748657e-02,4.387622326612472534e-02,8.222922682762145996e-03,-7.788119465112686157e-02,6.762059777975082397e-02,-8.203506469726562500e-03,-4.684105515480041504e-02,-7.964687794446945190e-02,-1.501905918121337891e-02,1.885754615068435669e-02,7.714708894491195679e-02,4.956149309873580933e-02,-1.019646972417831421e-02,1.417511701583862305e-02,-2.982586622238159180e-03,4.810675978660583496e-03,-6.428630650043487549e-02,2.305106073617935181e-02,5.720987915992736816e-03,-5.598485097289085388e-02,-9.824670851230621338e-03,4.480666667222976685e-02,7.385931164026260376e-02,-4.177792742848396301e-02,-5.390549451112747192e-02,8.298150449991226196e-02,2.692195028066635132e-02,8.001445978879928589e-02,-2.659957110881805420e-02,7.937342673540115356e-02,-6.546837091445922852e-02,-5.742251873016357422e-02,1.396843045949935913e-02,-2.880661934614181519e-02,2.445796132087707520e-02,7.846338301897048950e-02,2.621187269687652588e-02,-8.113580942153930664e-02,-7.366745173931121826e-02,-5.920420587062835693e-02,-2.220324426889419556e-02,-8.035065978765487671e-02,-2.468508109450340271e-02,6.579429656267166138e-02,6.248766928911209106e-02,3.477046638727188110e-02,3.356523811817169189e-02,-6.566962599754333496e-02,3.451013565063476562e-02,3.446583449840545654e-02,4.184971004724502563e-02,5.408904701471328735e-02,-1.187980920076370239e-02,-4.113140329718589783e-02,-1.609642058610916138e-02,-7.996655255556106567e-02,7.170129567384719849e-02,7.746877521276473999e-02,-6.016605347394943237e-02
-2.358467504382133484e-02,7.507424801588058472e-02,-8.177958428859710693e-02,-7.491841912269592285e-03,-1.432031393051147461e-02,6.510137766599655151e-02,3.660748898983001709e-02,5.538892000913619995e-02,-5.380200967192649841e-02,-1.683317124843597412e-03,-2.384290099143981934e-02,-2.373247966170310974e-02,-4.710800573229789734e-02,-8.072359859943389893e-02,6.142146140336990356e-02,-4.434349387884140015e-02,4.422565549612045288e-02,-6.527508795261383057e-02,-7.073587924242019653e-02,-2.908608317375183105e-02,3.014573454856872559e-02,-2.624370157718658447e-03,8.095996826887130737e-02,-1.424707472324371338e-02,4.703968018293380737e-02,3.503707796335220337e-02,9.383752942085266113e-03,-7.559128105640411377e-02,-4.657715559005737305e-02,1.358670741319656372e-02,4.265183955430984497e-02,-4.724524170160293579e-02,-1.899640262126922607e-02,-6.103298068046569824e-02,-6.556606292724609375e-02,-1.098641008138656616e-02,-6.127311289310455322e-02,2.887733280658721924e-02,-1.011230051517486572e-02,2.299420535564422607e-03,7.851783186197280884e-02,-5.961183831095695496e-02,-2.861946821212768555e-02,3.509616106748580933e-02,-2.882478758692741394e-02,-1.560834795236587524e-02,1.473240554332733154e-03,-3.451599180698394775e-02,1.519826799631118774e-02,-5.831038206815719604e-02,-4.908426478505134583e-02,2.053886651992797852e-03,-3.449088335037231445e-02,6.369987875223159790e-02,2.156771719455718994e-03,2.537352591753005981e-02,5.635880678892135620e-02,-3.844263777136802673e-02,2.565050125122070312e-02,-2.323895320296287537e-02,2.654843032360076904e-02,3.374516963958740234e-03,-6.783472001552581787e-02,2.423441410064697266e-02
1.346377283334732056e-02,3.008548915386199951e-02,-6.674993038177490234e-02,-7.220803946256637573e-02,-7.241278886795043945e-03,4.036737233400344849e-02,5.948082357645034790e-02,-4.366121068596839905e-02,-4.318388924002647400e-02,7.099767774343490601e-02,2.840283513069152832e-02,6.389039009809494019e-02,-8.021966367959976196e-02,8.281948417425155640e-02,2.034067362546920776e-02,2.787545323371887207e-02,-4.557046666741371155e-02,-5.258077383041381836e-02,2.693087607622146606e-02,-6.518781185150146484e-02,5.771967023611068726e-02,-7.353682816028594971e-02,4.379078000783920288e-02,-4.812235757708549500e-02,6.977788358926773071e-02,-5.883521586656570435e-02,6.440078467130661011e-02,7.548084110021591187e-02,6.671748310327529907e-02,4.063791781663894653e-02,-8.304365724325180054e-02,2.346569299697875977e-02,2.470694482326507568e-02,2.178955078125000000e-02,-7.168038189411163330e-02,1.115705072879791260e-02,5.531031638383865356e-02,7.216139882802963257e-02,-4.509897902607917786e-02,6.797092407941818237e-02,-4.494730383157730103e-02,7.845913618803024292e-02,-2.312295511364936829e-02,-7.056467235088348389e-02,6.029009819030761719e-03,4.382968693971633911e-02,-3.626767918467521667e-02,6.101081520318984985e-02,2.620816230773925781e-03,1.327766478061676025e-02,-8.797831833362579346e-03,-4.431407526135444641e-02,5.333103239536285400e-03,7.891423255205154419e-02,-7.073808461427688599e-02,-1.875659078359603882e-02,6.400463730096817017e-02,5.601838976144790649e-02,3.360199928283691406e-02,-2.975292503833770752e-02,-5.507169663906097412e-02,-8.725851774215698242e-03,-4.958100244402885437e-02,-4.686295986175537109e-03
-6.446523219347000122e-02,6.347089260816574097e-02,-1.932494342327117920e-02,-5.164018645882606506e-02,6.522195786237716675e-02,-2.085171639919281006e-03,2.342522144317626953e-02,-4.331759363412857056e-02,-6.196430325508117676e-02,5.858165770769119263e-02,-5.963516235351562500e-02,-7.900588959455490112e-02,2.873839437961578369e-02,-3.657650202512741089e-02,-5.557579547166824341e-02,2.876631170511245728e-02,-1.442927122116088867e-02,-1.422930508852005005e-02,6.796041876077651978e-02,-4.046760872006416321e-02,5.823403596878051758e-03,5.382663756608963013e-02,1.735540479421615601e-02,-1.615213602781295776e-02,1.024353504180908203e-02,7.929412275552749634e-02,3.499377518892288208e-02,4.121767729520797729e-02,1.252442598342895508e-03,-2.507348358631134033e-02,-7.895701378583908081e-02,-4.510373249650001526e-02,3.075095266103744507e-02,-6.492745876312255859e-02,-1.856341958045959473e-02,6.833953410387039185e-02,4.037922620773315430e-02,-1.565563678741455078e-02,-4.442207142710685730e-02,-6.857600063085556030e-02,6.424719840288162231e-02,-2.130462974309921265e-02,2.994541078805923462e-02,-5.907356739044189453e-02,-3.587564826011657715e-02,1.105501502752304077e-02,-2.893256396055221558e-02,1.602809876203536987e-02,7.669175416231155396e-02,7.210319489240646362e-02,5.982429534196853638e-02,3.675729781389236450e-02,5.002804100513458252e-03,5.169600248336791992e-03,7.221899181604385376e-02,5.704907327890396118e-02,-6.321552395820617676e-02,4.308194667100906372e-02,2.855338901281356812e-02,6.043063849210739136e-02,6.207037717103958130e-02,-7.044366002082824707e-02,-2.406765520572662354e-02,7.927680760622024536e-02
-6.992821395397186279e-02,4.262673109769821167e-02,-5.905389785766601562e-03,-2.641553059220314026e-02,5.083592981100082397e-02,-3.225485607981681824e-02,7.371080666780471802e-02,-3.007456660270690918e-03,-4.002505913376808167e-02,4.247755557298660278e-02,5.788313597440719604e-02,-1.903300732374191284e-02,7.805120199918746948e-02,-2.276483923196792603e-02,1.096792519092559814e-03,4.378981888294219971e-03,1.877736300230026245e-02,7.221814244985580444e-02,4.040838778018951416e-02,4.423040896654129028e-02,-3.487337008118629456e-02,3.686721622943878174e-02,3.650677204132080078e-02,-8.313879370689392090e-02,-8.303593844175338745e-02,6.148234009742736816e-03,-6.936916708946228027e-02,4.932410269975662231e-02,1.360960304737091064e-03,-3.599010407924652100e-03,7.228734344244003296e-02,1.125767081975936890e-02,7.690904289484024048e-02,-6.107417121529579163e-02,-6.084799766540527344e-03,5.356980115175247192e-02,-8.180387318134307861e-02,-2.287197113037109375e-02,1.350606977939605713e-02,-1.212838292121887207e-02,8.397010713815689087e-02,-6.055126339197158813e-02,-1.942715793848037720e-02,-2.296775206923484802e-02,7.326117902994155884e-02,2.609647810459136963e-02,6.602760404348373413e-02,6.554604321718215942e-02,-5.371055752038955688e-02,-7.311704754829406738e-02,1.965482532978057861e-02,-2.138011902570724487e-02,-7.101134955883026123e-02,8.110428601503372192e-02,6.931654363870620728e-02,1.093905419111251831e-02,-5.995269119739532471e-02,4.852078109979629517e-02,-2.746094390749931335e-02,-3.995542973279953003e-02,6.255706399679183960e-02,-1.914426684379577637e-02,3.548008948564529419e-02,4.991037398576736450e-02
-5.069325864315032959e-02,8.235221356153488159e-02,2.153558284044265747e-02,4.848454147577285767e-02,-5.797400325536727905e-02,4.672367125749588013e-02,-5.576276406645774841e-02,-3.329387679696083069e-02,2.902056276798248291e-02,-5.112415552139282227e-02,4.296053200960159302e-02,5.444210022687911987e-02,-1.579706370830535889e-02,-3.040831536054611206e-02,8.250158280134201050e-02,5.173131823539733887e-03,-1.719006896018981934e-02,3.791479766368865967e-02,-8.619002997875213623e-03,-7.804071158170700073e-02,-8.058026432991027832e-04,1.941467076539993286e-02,1.348623633384704590e-02,-2.748807892203330994e-02,4.311764985322952271e-02,5.984818190336227417e-02,8.222629874944686890e-02,5.414985865354537964e-02,-2.176292240619659424e-02,-7.792443037033081055e-03,-3.036439418792724609e-02,-3.117635846138000488e-03,2.966488152742385864e-02,-3.654940798878669739e-02,7.103840261697769165e-02,3.162838518619537354e-02,-5.317261070013046265e-02,-3.680676966905593872e-02,-2.031169831752777100e-02,-2.294759824872016907e-02,6.677635014057159424e-03,-7.188162952661514282e-02,2.270995080471038818e-02,-6.336029618978500366e-02,2.860294282436370850e-02,2.383515983819961548e-02,8.055614680051803589e-02,1.249458640813827515e-02,-5.515197664499282837e-02,-3.868502005934715271e-02,-3.889609873294830322e-02,1.142859458923339844e-02,8.162055164575576782e-02,8.232162147760391235e-02,-6.493195891380310059e-03,-5.321789532899856567e-02,9.630806744098663330e-03,-4.234226793050765991e-02,7.165317982435226440e-02,-2.734129875898361206e-02,-5.537524819374084473e-03,2.514851093292236328e-02,4.938217252492904663e-02,7.031188160181045532e-02
-1.011613011360168457e-02,-3.025725483894348145e-03,-3.457814455032348633e-02,4.955553263425827026e-02,-6.107351183891296387e-02,6.263714283704757690e-02,4.416801780462265015e-02,4.361063987016677856e-02,6.219971925020217896e-02,1.875153928995132446e-02,-8.291733264923095703e-02,-4.809552431106567383e-02,6.387763470411300659e-02,-5.721312761306762695e-02,6.631308048963546753e-02,2.197670191526412964e-02,-1.531713455915451050e-02,8.009883016347885132e-02,3.451611101627349854e-02,8.328857272863388062e-02,-7.358851283788681030e-02,2.062094211578369141e-02,-6.392195075750350952e-02,-6.626576185226440430e-03,5.914589017629623413e-02,7.417326420545578003e-02,7.653475552797317505e-02,-4.194149374961853027e-02,-5.652334168553352356e-02,7.594601064920425415e-02,-7.393724471330642700e-02,-8.384404331445693970e-02,-4.355887323617935181e-02,-2.270098403096199036e-02,-1.266437023878097534e-02,-6.494119763374328613e-03,1.183450222015380859e-04,2.427873015403747559e-02,4.886943846940994263e-02,1.183392107486724854e-02,2.819968014955520630e-02,5.595300346612930298e-02,3.099971264600753784e-02,3.510437905788421631e-02,4.225559532642364502e-03,8.122051507234573364e-02,8.262530714273452759e-02,1.728139817714691162e-02,3.718440234661102295e-02,5.946397781372070312e-03,-4.192418605089187622e-02,7.417743653059005737e-02,-5.349497124552726746e-02,6.847225874662399292e-02,3.322350233793258667e-02,7.916476577520370483e-02,5.037435144186019897e-02,-4.756413400173187256e-03,3.107521682977676392e-02,2.667252719402313232e-02,6.380151957273483276e-02,-4.281457886099815369e-02,-1.402810215950012207e-03,2.353692799806594849e-02
-6.361629068851470947e-02,-3.830239176750183105e-03,-8.654057979583740234e-03,-3.533372655510902405e-02,-6.078457832336425781e-02,4.276809841394424438e-02,4.710333794355392456e-02,7.141090184450149536e-02,7.300519198179244995e-02,5.909086018800735474e-02,-5.785814672708511353e-02,4.749179631471633911e-02,5.662391334772109985e-02,3.056123107671737671e-02,-8.137002587318420410e-02,4.595746845006942749e-02,-6.906074285507202148e-02,6.830809265375137329e-02,2.039648592472076416e-02,3.889473527669906616e-02,-7.564330101013183594e-02,-5.279149115085601807e-02,-7.062143087387084961e-02,6.050575524568557739e-02,3.493519872426986694e-02,1.499042659997940063e-02,1.042003929615020752e-02,5.284964293241500854e-02,2.901858091354370117e-02,-3.808540105819702148e-02,-3.561284765601158142e-02,-2.245198190212249756e-02,-6.342962384223937988e-02,-3.339697793126106262e-02,6.501265615224838257e-02,1.122057437896728516e-04,1.168753951787948608e-02,-1.823022961616516113e-02,8.006937056779861450e-02,4.932688921689987183e-02,-4.477677866816520691e-02,-4.219791665673255920e-02,2.015531063079833984e-02,-5.223228037357330322e-02,6.075844913721084595e-02,2.826708555221557617e-02,-5.689854919910430908e-02,-4.985138773918151855e-03,2.973880618810653687e-02,-2.583496272563934326e-03,-3.971457481384277344e-04,-5.221545696258544922e-02,-1.636257022619247437e-02,1.523771882057189941e-02,-2.017885446548461914e-02,1.103225350379943848e-02,-3.202202171087265015e-02,3.066902607679367065e-02,7.823633402585983276e-02,4.990039020776748657e-02,-3.488271683454513550e-02,-2.553400024771690369e-02,-1.840757578611373901e-02,5.744373053312301636e-02
-3.219090402126312256e-03,1.741313934326171875e-02,-1.796452701091766357e-02,-5.329109355807304382e-02,1.159643381834030151e-02,4.695264250040054321e-02,-2.304792404174804688e-03,-6.142324581742286682e-02,7.648361474275588989e-02,2.976072579622268677e-02,-8.402942866086959839e-02,4.648033529520034790e-02,8.351003378629684448e-02,-1.625279337167739868e-02,-2.820285037159919739e-02,-4.911617189645767212e-02,1.187625527381896973e-02,5.125438421964645386e-02,-2.932662144303321838e-02,-8.056128025054931641e-02,7.609569281339645386e-02,3.655675053596496582e-02,-1.377403736114501953e-02,-6.861598789691925049e-02,1.074771583080291748e-02,-4.760865494608879089e-02,-1.041809469461441040e-02,6.969050318002700806e-02,7.758610695600509644e-02,-8.394028246402740479e-02,-4.777522757649421692e-02,-8.167995512485504150e-02,-6.423496454954147339e-02,1.065412163734436035e-02,9.031124413013458252e-03,-8.213967084884643555e-02,-1.822189241647720337e-02,-7.794669270515441895e-02,7.908267527818679810e-02,6.861478090286254883e-03,-4.390788450837135315e-02,7.581066340208053589e-02,1.874026656150817871e-02,4.325614124536514282e-02,2.295092493295669556e-02,-1.201597601175308228e-02,8.152098208665847778e-02,6.759003549814224243e-02,2.285446226596832275e-02,-7.880106568336486816e-04,-1.516355574131011963e-02,-7.614182680845260620e-02,-4.126869142055511475e-03,-1.749905198812484741e-02,3.211756050586700439e-02,7.487524300813674927e-02,4.958745092153549194e-02,2.424521744251251221e-02,3.403775393962860107e-03,1.959295570850372314e-02,-8.032546937465667725e-02,-2.751374989748001099e-02,-5.362689122557640076e-02,-7.242461293935775757e-02
-4.385512322187423706e-02,-5.444315820932388306e-02,2.043601870536804199e-02,6.962444633245468140e-02,5.626846104860305786e-02,-1.347760856151580811e-02,-3.594999015331268311e-02,-7.699131965637207031e-03,1.512597501277923584e-02,-1.446513086557388306e-02,5.031707137823104858e-02,1.983775943517684937e-02,7.566965371370315552e-02,4.286848753690719604e-02,-3.112944215536117554e-02,-7.584684342145919800e-02,7.978447526693344116e-02,3.822267800569534302e-02,-6.917373836040496826e-02,-3.476740047335624695e-02,5.270878225564956665e-02,3.594242781400680542e-02,4.301544278860092163e-02,5.482602864503860474e-02,-5.762290582060813904e-02,3.049589693546295166e-02,-7.586400955915451050e-02,-6.064937263727188110e-02,-7.745354622602462769e-02,3.172529488801956177e-02,-5.903504788875579834e-03,-1.126013696193695068e-02,4.617839306592941284e-02,-5.482542514801025391e-02,2.434864640235900879e-02,-6.952234357595443726e-02,4.275515675544738770e-03,2.978087961673736572e-02,-1.069974154233932495e-02,5.908896774053573608e-02,-7.136664539575576782e-02,-7.253737747669219971e-02,2.648165076971054077e-02,-6.082046031951904297e-02,-2.863501012325286865e-02,1.738460361957550049e-02,-4.751535877585411072e-02,-2.236003056168556213e-02,3.819600492715835571e-02,-1.722083240747451782e-02,4.446359723806381226e-02,6.183061748743057251e-02,-7.610101252794265747e-02,1.004585623741149902e-02,-4.889155924320220947e-02,-2.977895364165306091e-02,3.672972321510314941e-02,5.681114643812179565e-02,-5.722271278500556946e-02,-6.791303306818008423e-02,-1.629568636417388916e-02,-8.085004240274429321e-02,-4.883361980319023132e-02,-3.136332333087921143e-02
-4.236467182636260986e-02,-3.362542018294334412e-02,-2.606172114610671997e-02,-7.710916548967361450e-02,2.007444947957992554e-02,7.649462670087814331e-02,-7.381884008646011353e-02,-7.989861071109771729e-02,2.618473768234252930e-02,2.790974825620651245e-02,7.969938963651657104e-02,2.799149602651596069e-02,4.743640869855880737e-02,7.727446407079696655e-02,-3.895728290081024170e-02,-7.262377440929412842e-02,-3.036756440997123718e-02,-3.292270004749298096e-03,1.967201381921768188e-02,4.366365820169448853e-02,8.030163496732711792e-02,-2.681501954793930054e-02,3.769160807132720947e-02,-5.156979337334632874e-02,-6.126475334167480469e-02,-4.982893913984298706e-02,-9.667985141277313232e-03,9.909667074680328369e-03,3.307969123125076294e-02,5.969905108213424683e-02,2.563519775867462158e-02,8.168261498212814331e-02,-2.852655574679374695e-02,-1.778389513492584229e-02,3.336615860462188721e-03,-3.322675824165344238e-03,5.376540869474411011e-02,-4.596009105443954468e-02,-6.304589658975601196e-02,3.647989779710769653e-02,3.674907237291336060e-02,3.385085612535476685e-02,-1.717005670070648193e-02,-5.172610282897949219e-03,4.033796489238739014e-03,-2.911307662725448608e-02,-1.716949045658111572e-03,-4.344839230179786682e-02,-3.320290893316268921e-02,-8.306429535150527954e-02,-5.951074138283729553e-02,-6.397421658039093018e-02,-5.685500800609588623e-02,-8.844576776027679443e-03,1.294554024934768677e-02,5.582080036401748657e-02,-5.568858236074447632e-02,7.665177434682846069e-02,-3.224244341254234314e-02,7.956510037183761597e-02,5.417282134294509888e-02,6.226127594709396362e-02,-5.777893215417861938e-02,5.971515923738479614e-02
6.651145964860916138e-02,-2.149711549282073975e-02,6.165149062871932983e-02,4.016686975955963135e-02,4.271576553583145142e-02,4.921009391546249390e-02,-7.723753899335861206e-02,-7.298111915588378906e-03,-7.965197414159774780e-02,4.899074882268905640e-02,-4.318489134311676025e-02,-5.666576325893402100e-03,-6.099764257669448853e-02,8.299986273050308228e-02,-2.279704436659812927e-02,-1.858622580766677856e-02,-1.357116550207138062e-02,7.755907624959945679e-02,3.262107819318771362e-02,-4.807322099804878235e-02,-1.890668272972106934e-02,2.057094871997833252e-02,-4.208444431424140930e-02,-7.486740499734878540e-02,5.529283732175827026e-02,7.248333841562271118e-02,8.203711360692977905e-02,-4.343790188431739807e-02,-2.753925696015357971e-02,-3.246389329433441162e-03,7.387258112430572510e-03,-8.421860635280609131e-03,2.278567105531692505e-02,5.724277347326278687e-02,6.480533629655838013e-02,-8.322028070688247681e-02,-7.808361202478408813e-02,-1.338616013526916504e-02,4.266113787889480591e-02,8.261080831289291382e-02,7.128209620714187622e-02,1.882632076740264893e-02,-9.521968662738800049e-03,3.644628822803497314e-02,4.546575993299484253e-02,1.120919734239578247e-02,7.615315169095993042e-02,7.860787212848663330e-03,7.197622209787368774e-02,-6.832540035247802734e-03,-3.045380115509033203e-03,-7.054532319307327271e-02,-5.816167593002319336e-02,4.343802481889724731e-02,2.054770290851593018e-02,-4.504916444420814514e-02,-8.132351934909820557e-02,9.240433573722839355e-04,-5.618634074926376343e-02,-7.245904952287673950e-02,-5.108865723013877869e-02,6.241796165704727173e-02,-1.558436453342437744e-02,6.263639777898788452e-02
5.680451542139053345e-02,4.798663035035133362e-02,-1.694755256175994873e-02,2.004325389862060547e-03,-2.025923319160938263e-02,-1.070767045021057129e-01,1.333474274724721909e-02,-1.041951626539230347e-01,-3.435509651899337769e-02,-1.000453811138868332e-02,-4.415866732597351074e-02,3.244990482926368713e-02,-1.242217123508453369e-01,-8.339931070804595947e-02,4.885682370513677597e-03,1.194968521595001221e-01,-1.624962128698825836e-02,4.964032024145126343e-02,-1.927053183317184448e-02,-1.555325649678707123e-02,-7.860784232616424561e-02,7.532784342765808105e-02,3.907243907451629639e-02,4.924267530441284180e-02,-3.415196202695369720e-03,-9.550197049975395203e-03,7.345400750637054443e-03,-7.482297718524932861e-02,-1.178884878754615784e-01,2.374789491295814514e-02,1.763033494353294373e-02,6.347134709358215332e-02,2.347967401146888733e-02,2.268487401306629181e-02,4.337599128484725952e-02,-6.876663863658905029e-02,4.399489983916282654e-02,-4.312172532081604004e-04,-4.708799347281455994e-02,1.084824651479721069e-02,-1.226703263819217682e-02,8.421197533607482910e-02,1.388186030089855194e-02,-5.930491909384727478e-02,5.467139650136232376e-03,-4.716639965772628784e-02,6.646028906106948853e-02,-6.666861474514007568e-02,6.371044367551803589e-02,7.289733737707138062e-02,4.497244581580162048e-02,-2.557379193603992462e-02,-2.535460889339447021e-02,-3.551878780126571655e-02,1.056305132806301117e-02,7.316998392343521118e-02,2.074313908815383911e-02,-6.362253427505493164e-02,-6.172347813844680786e-02,-5.782270431518554688e-02,-6.776783615350723267e-02,-1.913312263786792755e-02,9.917866438627243042e-02,-3.329224139451980591e-02
-2.694513648748397827e-02,7.986528426408767700e-02,7.887995988130569458e-02,-2.136833593249320984e-02,-3.236654400825500488e-02,-3.839033469557762146e-02,-3.037767950445413589e-03,-2.717398665845394135e-02,1.052522137761116028e-01,-3.502614796161651611e-02,-2.132641524076461792e-02,6.066200137138366699e-02,-1.668644882738590240e-02,-1.634303107857704163e-02,5.172180756926536560e-02,7.588025182485580444e-02,1.004023402929306030e-01,-8.954184502363204956e-02,2.584998309612274170e-02,1.724824607372283936e-01,2.446845918893814087e-02,1.613206118345260620e-01,3.089187294244766235e-02,8.247816562652587891e-02,7.288466393947601318e-02,-8.956501632928848267e-02,-9.434126317501068115e-03,-8.732266724109649658e-02,-9.869828820228576660e-02,2.475483343005180359e-02,9.648309648036956787e-02,1.176064610481262207e-01,-2.899634465575218201e-02,-1.080047339200973511e-02,2.281601727008819580e-02,-2.077371999621391296e-02,-3.978542238473892212e-02,-7.521150261163711548e-02,8.791869506239891052e-03,3.424477577209472656e-02,-4.681109264492988586e-02,3.176203370094299316e-02,4.658159241080284119e-02,-6.234002858400344849e-02,6.683309376239776611e-02,-1.115942820906639099e-01,1.072253212332725525e-01,-3.118493407964706421e-02,1.918314397335052490e-02,1.033573150634765625e-01,4.662202671170234680e-02,-2.919038012623786926e-02,-6.295982003211975098e-02,-8.648014813661575317e-02,-1.422131154686212540e-02,-2.079828828573226929e-02,-9.558809548616409302e-02,2.565186470746994019e-02,-9.153352677822113037e-02,-2.564958296716213226e-02,-2.580881118774414062e-05,3.719522431492805481e-02,6.330934166908264160e-02,-2.882094681262969971e-02
-1.371038705110549927e-02,2.648431807756423950e-02,2.075529098510742188e-02,1.005836203694343567e-01,3.919708356261253357e-02,-9.670954197645187378e-02,1.266467571258544922e-01,-3.356359899044036865e-02,8.901085704565048218e-02,-6.526445504277944565e-03,-8.949927985668182373e-02,2.288863621652126312e-02,4.490676522254943848e-02,1.346167474985122681e-01,-6.260090321302413940e-02,3.885997831821441650e-02,4.764804616570472717e-02,1.709135435521602631e-02,-1.899476349353790283e-02,5.755288898944854736e-02,-1.575534045696258545e-02,6.934241205453872681e-02,1.461105048656463623e-02,3.337462246417999268e-02,1.087583899497985840e-01,-5.865071341395378113e-02,-1.953560113906860352e-02,1.139843687415122986e-01,1.101012900471687317e-01,2.286900579929351807e-02,1.913172006607055664e-02,3.932335600256919861e-02,1.099036168307065964e-02,-6.319550424814224243e-02,-4.981528222560882568e-02,4.931727051734924316e-02,1.231683194637298584e-01,1.665005832910537720e-02,1.350897736847400665e-02,1.262277364730834961e-04,1.450092159211635590e-02,-2.969233877956867218e-02,-3.868154808878898621e-02,-1.491854339838027954e-02,-9.705150499939918518e-03,-5.866743158549070358e-03,-3.536434471607208252e-02,6.388485431671142578e-03,-2.376590622588992119e-03,-9.515143930912017822e-02,9.490768425166606903e-03,6.460540741682052612e-02,6.887108087539672852e-03,7.763130124658346176e-03,-8.684209734201431274e-02,7.943632453680038452e-02,1.716971397399902344e-02,-1.537784188985824585e-02,-8.330286294221878052e-02,6.373451650142669678e-02,-8.241275697946548462e-02,-3.853899985551834106e-02,8.249486982822418213e-02,1.143474355340003967e-01
-1.088064163923263550e-02,1.698316633701324463e-02,6.562764197587966919e-02,-1.764902099967002869e-02,1.058906200341880322e-03,4.029251635074615479e-02,-9.541660547256469727e-03,-1.260877121239900589e-02,-3.020409680902957916e-02,-5.769693478941917419e-02,-7.021421939134597778e-02,-3.546875715255737305e-02,6.303786486387252808e-02,-1.841497048735618591e-02,-7.367775589227676392e-02,-7.026914507150650024e-02,4.041729122400283813e-02,-7.303547114133834839e-02,-6.096072122454643250e-02,2.504853159189224243e-02,-4.725285619497299194e-02,5.534624680876731873e-02,-1.547506451606750488e-02,7.785266637802124023e-02,-2.295621298253536224e-02,-3.615847975015640259e-02,-3.194784000515937805e-02,3.687269240617752075e-02,1.038805488497018814e-02,-8.194521069526672363e-03,5.955022573471069336e-02,2.125952020287513733e-02,5.999135971069335938e-02,5.784509330987930298e-02,-4.870290309190750122e-02,-1.734613813459873199e-02,-2.391454763710498810e-02,2.975246310234069824e-02,1.264423038810491562e-02,-6.133821234107017517e-02,-3.732195869088172913e-02,-2.403600886464118958e-02,-7.003157585859298706e-02,-9.946487843990325928e-03,-2.535464242100715637e-02,-7.085287570953369141e-02,5.655520595610141754e-03,2.811631560325622559e-02,6.373258680105209351e-02,3.046795912086963654e-02,1.830433681607246399e-02,7.263170182704925537e-02,3.797774761915206909e-02,3.700820729136466980e-02,-8.557721972465515137e-02,8.331919461488723755e-02,1.771306246519088745e-02,-2.320506051182746887e-02,7.757347077131271362e-02,-6.825101375579833984e-02,-8.853279054164886475e-03,-1.976959407329559326e-03,-5.768615007400512695e-02,-1.336510665714740753e-02
-1.483859121799468994e-02,-2.829803153872489929e-02,2.901458740234375000e-02,-8.036502450704574585e-02,8.114280551671981812e-02,-3.771113976836204529e-02,-8.318915218114852905e-02,-5.091524496674537659e-02,1.986883580684661865e-03,-3.174009174108505249e-02,4.152660816907882690e-02,7.130079716444015503e-02,-3.388234227895736694e-02,-2.354830503463745117e-04,1.222150027751922607e-02,2.895935624837875366e-02,4.174124449491500854e-02,5.183047801256179810e-02,-6.573333591222763062e-02,7.958342880010604858e-02,1.285192370414733887e-02,-5.222437903285026550e-02,-2.463901787996292114e-02,7.448560744524002075e-02,5.212710052728652954e-02,-2.351250126957893372e-02,-3.527550771832466125e-02,3.400433808565139771e-02,7.153568416833877563e-02,-3.616744279861450195e-02,-5.757816135883331299e-02,1.490838080644607544e-02,7.973743230104446411e-02,-3.180563077330589294e-02,-5.217127501964569092e-03,3.087458759546279907e-02,-4.417731985449790955e-02,-6.357105076313018799e-02,-3.977511823177337646e-02,-5.445691943168640137e-02,5.357032269239425659e-02,7.455259561538696289e-03,-2.917280048131942749e-02,3.338447958230972290e-02,3.223119676113128662e-02,-4.020910337567329407e-02,7.749768346548080444e-02,-5.808953940868377686e-02,-6.575685739517211914e-02,6.238999217748641968e-02,1.284454017877578735e-02,-2.449556440114974976e-02,4.186791926622390747e-02,3.038877993822097778e-02,4.374265670776367188e-03,-3.728162869811058044e-02,8.312985301017761230e-03,-6.795737147331237793e-02,4.234947264194488525e-03,1.064009964466094971e-02,-6.123013794422149658e-02,7.523946464061737061e-03,1.834031194448471069e-02,-7.981060445308685303e-02
7.878894358873367310e-02,3.189780563116073608e-02,-3.569186478853225708e-02,-1.370739936828613281e-02,8.409661799669265747e-02,-2.894561737775802612e-02,5.344184488058090210e-02,-1.049141585826873779e-02,4.905088990926742554e-02,-7.747913897037506104e-02,-6.017971038818359375e-02,6.094875186681747437e-02,1.394370198249816895e-02,7.915496081113815308e-02,3.737718611955642700e-02,2.342287451028823853e-02,6.925940513610839844e-03,8.293648809194564819e-02,-4.060518369078636169e-02,-3.000703826546669006e-02,-1.776674389839172363e-02,-2.118634432554244995e-02,-2.814473211765289307e-02,6.544775515794754028e-02,-5.236552655696868896e-02,-8.410660177469253540e-02,-2.855218946933746338e-03,4.004864394664764404e-02,2.397708594799041748e-02,-6.594168394804000854e-02,-3.937077522277832031e-02,-6.207488477230072021e-02,-6.297223269939422607e-03,-6.457134336233139038e-02,2.047771215438842773e-02,4.397193342447280884e-02,-6.258271634578704834e-03,-6.168169155716896057e-02,-3.315068408846855164e-02,-5.829135328531265259e-02,-6.754602491855621338e-02,3.571681678295135498e-02,9.832717478275299072e-03,1.366287469863891602e-02,-1.747970283031463623e-02,-1.176625490188598633e-02,-1.637279987335205078e-02,-7.978583872318267822e-02,-4.192661494016647339e-02,-4.967738315463066101e-02,1.382738351821899414e-03,7.312799245119094849e-02,-3.979681804776191711e-02,-7.926810532808303833e-02,5.265074223279953003e-02,-5.872742086648941040e-02,4.848944395780563354e-02,-6.985750049352645874e-02,-1.750360429286956787e-02,-2.220314368605613708e-02,7.632502168416976929e-02,-6.977941095829010010e-02,2.170694619417190552e-02,6.633326411247253418e-04
3.687644004821777344e-02,-3.195308148860931396e-03,-2.846889570355415344e-02,1.771161705255508423e-02,-1.862942427396774292e-02,-5.325427278876304626e-02,-4.181575030088424683e-02,9.269535541534423828e-03,-7.513806223869323730e-02,3.451799601316452026e-02,-6.659703701734542847e-02,1.039727777242660522e-02,-7.967435568571090698e-02,-2.190972119569778442e-02,6.714957207441329956e-02,-4.869317635893821716e-02,1.439862698316574097e-02,6.274842470884323120e-02,4.533918946981430054e-02,-6.749087572097778320e-02,-8.136837929487228394e-02,7.821474224328994751e-02,-8.287116885185241699e-02,5.785911530256271362e-02,-7.605992257595062256e-03,3.599028289318084717e-02,3.466863185167312622e-02,-3.193761035799980164e-02,-2.407333254814147949e-02,3.560493141412734985e-02,1.259466260671615601e-02,3.275369852781295776e-02,-4.886957630515098572e-02,-6.033248454332351685e-02,1.571620255708694458e-02,5.129126459360122681e-02,-6.678775697946548462e-02,-6.426470726728439331e-02,7.010092586278915405e-02,1.925274729728698730e-02,-6.263235211372375488e-02,6.426981836557388306e-02,3.044621646404266357e-02,-7.827010005712509155e-02,3.909630328416824341e-02,4.615693539381027222e-02,4.337184876203536987e-02,-7.025927305221557617e-03,6.770578771829605103e-02,4.483566433191299438e-02,5.039461702108383179e-02,6.422816962003707886e-02,7.858433574438095093e-02,4.045750200748443604e-02,-6.661841273307800293e-02,-5.670876801013946533e-02,1.181982457637786865e-02,3.210765868425369263e-02,-2.562109753489494324e-02,-6.769912689924240112e-02,1.233544945716857910e-02,1.193359494209289551e-02,1.041440665721893311e-02,-5.817296728491783142e-02
-2.415246888995170593e-02,-3.657726198434829712e-02,-6.111923605203628540e-02,-1.476759463548660278e-02,2.818880975246429443e-02,-7.242834568023681641e-02,7.206902652978897095e-02,4.825513809919357300e-02,5.449608713388442993e-02,4.855909198522567749e-02,-1.673631370067596436e-02,-8.095331490039825439e-03,8.103211969137191772e-02,-3.828230127692222595e-02,-6.271918118000030518e-02,6.050556153059005737e-02,5.546858161687850952e-02,2.675126492977142334e-02,-5.119843780994415283e-02,-7.768666744232177734e-02,-2.843045070767402649e-02,-7.219339907169342041e-02,8.357500284910202026e-02,-6.324229389429092407e-02,-3.445578739047050476e-02,3.543326258659362793e-02,-5.684674531221389771e-02,2.868390083312988281e-02,-6.505530327558517456e-02,6.897727400064468384e-02,7.863114029169082642e-02,1.241416484117507935e-02,-5.722285062074661255e-02,8.806593716144561768e-03,-5.997641384601593018e-02,6.571165472269058228e-02,8.176869899034500122e-02,2.027459442615509033e-02,1.787618547677993774e-02,8.024383336305618286e-02,3.122661262750625610e-02,5.822948366403579712e-02,-7.969380915164947510e-02,8.525282144546508789e-03,6.172647327184677124e-02,3.491450101137161255e-02,7.807705551385879517e-02,-8.504346013069152832e-03,-2.594163268804550171e-02,-7.625491917133331299e-02,4.414319992065429688e-03,2.444366365671157837e-02,-5.565178394317626953e-02,1.329746097326278687e-02,-5.955947563052177429e-02,4.514310508966445923e-02,-6.770901381969451904e-02,-4.289209097623825073e-02,7.870053499937057495e-02,3.241922706365585327e-02,6.134554743766784668e-03,3.916763514280319214e-02,7.179576903581619263e-02,7.484947890043258667e-02
-6.118491291999816895e-04,-2.833527326583862305e-02,-7.038169354200363159e-02,7.685273885726928711e-03,1.939806342124938965e-02,-4.553966224193572998e-02,-3.996327146887779236e-02,-5.509301647543907166e-02,6.659806519746780396e-02,1.929767429828643799e-03,1.767216622829437256e-02,-2.897550165653228760e-02,-1.245231181383132935e-02,-5.455538630485534668e-02,3.755924850702285767e-02,-5.704508721828460693e-02,2.671895921230316162e-02,-7.006593048572540283e-02,1.641342788934707642e-02,-5.286438763141632080e-02,3.101039677858352661e-02,-8.364430069923400879e-02,-6.767016649246215820e-02,-4.149647802114486694e-02,5.701630562543869019e-02,8.145924657583236694e-02,2.565094083547592163e-02,-6.591168045997619629e-02,-6.486187875270843506e-02,1.808770000934600830e-02,5.438464134931564331e-02,-1.680327206850051880e-02,-7.161060720682144165e-02,3.909973055124282837e-02,-4.571636393666267395e-02,8.095515519380569458e-02,7.709372788667678833e-02,-6.428245455026626587e-02,8.106454461812973022e-02,-8.177206665277481079e-02,-5.507129430770874023e-02,7.120592147111892700e-02,-3.364230692386627197e-02,-8.378814905881881714e-02,-4.536628723144531250e-02,-7.510236650705337524e-02,-2.657085284590721130e-02,5.892238765954971313e-02,4.926124960184097290e-02,-3.201732784509658813e-02,3.752946853637695312e-03,3.872165828943252563e-02,-7.372073829174041748e-03,8.092246204614639282e-02,-5.594521760940551758e-03,2.216840535402297974e-02,8.222842961549758911e-02,5.822967737913131714e-02,-6.860630214214324951e-02,1.347810029983520508e-05,1.177506148815155029e-02,-7.254572212696075439e-02,2.367945760488510132e-02,6.928557902574539185e-02
4.689328372478485107e-03,-6.703653931617736816e-02,-4.706246033310890198e-02,-4.797726124525070190e-02,-2.864100784063339233e-02,-5.211444199085235596e-02,-7.675366103649139404e-02,3.454037755727767944e-02,-6.114362180233001709e-02,-6.930447369813919067e-02,3.941844403743743896e-02,4.489091783761978149e-02,7.496314495801925659e-02,-4.501296207308769226e-02,1.584842801094055176e-02,6.975287944078445435e-02,1.069633662700653076e-02,-9.190723299980163574e-03,-5.647547170519828796e-02,-4.377894103527069092e-03,3.831522911787033081e-02,-1.683451980352401733e-02,-8.272713422775268555e-02,1.212558150291442871e-02,2.828172594308853149e-02,-2.727667987346649170e-02,4.582055658102035522e-02,7.023528963327407837e-02,1.179872453212738037e-02,-2.116885781288146973e-02,6.178126484155654907e-02,7.193573564291000366e-02,-6.359543651342391968e-02,8.325288444757461548e-02,-5.220049619674682617e-02,-6.952846050262451172e-02,-3.737905248999595642e-02,-7.275615632534027100e-02,3.583886474370956421e-02,-1.988837867975234985e-02,-3.580320999026298523e-02,-1.239184290170669556e-02,-4.019260406494140625e-03,-7.345829904079437256e-02,-2.075488865375518799e-02,1.126639544963836670e-03,2.667764574289321899e-02,7.530286908149719238e-03,7.995016872882843018e-03,-2.887863665819168091e-02,3.072688728570938110e-02,2.443377673625946045e-02,7.759623974561691284e-02,5.565583705902099609e-03,1.492015272378921509e-02,-7.794342935085296631e-02,-2.668971940875053406e-02,4.801768809556961060e-02,-2.183064818382263184e-03,4.481822252273559570e-03,-4.971569031476974487e-02,-8.191092312335968018e-02,-3.884184733033180237e-02,1.082333922386169434e-02
4.526757448911666870e-02,5.614974349737167358e-02,-3.943998366594314575e-02,-1.958718150854110718e-02,4.634519666433334351e-02,1.635148376226425171e-02,-7.979929447174072266e-02,1.083312928676605225e-02,-6.989069283008575439e-02,-7.768971472978591919e-02,8.044152706861495972e-02,3.027952462434768677e-02,-6.642004847526550293e-02,5.100152641534805298e-02,3.645124286413192749e-02,-8.062186092138290405e-02,-7.100813090801239014e-03,-4.883000999689102173e-02,1.807478815317153931e-02,2.362154424190521240e-03,7.205657660961151123e-03,-1.135204732418060303e-02,6.457001715898513794e-02,-1.744972169399261475e-02,7.764566689729690552e-02,2.422295510768890381e-03,3.072831034660339355e-02,-8.285907655954360962e-02,-6.300803273916244507e-02,-8.267854154109954834e-02,7.019027322530746460e-02,6.329423934221267700e-02,-3.367796540260314941e-03,3.839807957410812378e-02,-7.598644495010375977e-02,1.109957695007324219e-02,6.470089405775070190e-02,-1.260763406753540039e-02,-7.578282803297042847e-02,-4.656251519918441772e-02,-8.378409594297409058e-02,-6.136410310864448547e-02,-9.431697428226470947e-03,8.183520287275314331e-02,4.180642217397689819e-02,-6.184279918670654297e-04,-8.061153441667556763e-02,-2.990931272506713867e-02,-3.233646228909492493e-02,2.289956808090209961e-02,1.749741286039352417e-02,-1.830922812223434448e-02,1.979434490203857422e-02,3.823605179786682129e-02,-6.399482488632202148e-03,3.920983523130416870e-02,-6.588982045650482178e-02,-4.909992590546607971e-02,-6.253045052289962769e-02,-6.102658063173294067e-02,8.309915661811828613e-03,4.036139696836471558e-02,-1.249200105667114258e-02,3.489641100168228149e-02
6.822548061609268188e-02,2.701796591281890869e-03,-3.964427858591079712e-02,-4.060213640332221985e-02,-7.235375791788101196e-02,-6.198108941316604614e-02,3.231885284185409546e-02,4.358007758855819702e-02,-3.176425769925117493e-02,1.530530303716659546e-02,7.281009107828140259e-02,7.933693379163742065e-02,7.645791023969650269e-02,1.321613788604736328e-02,-5.731175839900970459e-02,6.669604033231735229e-02,1.936834305524826050e-02,-6.178080290555953979e-02,-7.109151035547256470e-02,4.848667234182357788e-02,-8.679188787937164307e-03,5.960126966238021851e-02,-5.501921474933624268e-02,-3.279348835349082947e-02,-2.787090837955474854e-03,-4.016460105776786804e-02,4.167836159467697144e-02,5.416456609964370728e-02,-8.302149921655654907e-02,-1.958104223012924194e-02,-4.620447754859924316e-02,-3.872111812233924866e-02,6.795211881399154663e-02,5.093752592802047729e-02,-1.549750566482543945e-02,-2.267422899603843689e-02,4.459387809038162231e-02,7.768040150403976440e-02,-5.526887625455856323e-02,-7.275918871164321899e-02,4.806431382894515991e-02,4.745575040578842163e-02,-5.887258052825927734e-02,6.770125776529312134e-02,5.455771833658218384e-02,-1.921801269054412842e-02,2.643577754497528076e-03,8.327677100896835327e-02,-1.539158076047897339e-02,-2.568595111370086670e-03,9.298317134380340576e-03,-7.998570799827575684e-02,1.814468204975128174e-02,-3.600048646330833435e-02,6.184227019548416138e-02,4.666394740343093872e-02,7.989323884248733521e-02,6.781991571187973022e-02,-1.013331860303878784e-02,-1.295969635248184204e-02,-7.182124257087707520e-02,-5.864333361387252808e-02,7.493219524621963501e-02,-6.703548133373260498e-03
-8.219056576490402222e-02,-1.164917647838592529e-02,-5.915129929780960083e-02,7.085032016038894653e-02,-7.948639988899230957e-02,2.870474010705947876e-02,-7.365533709526062012e-02,-6.023526191711425781e-02,4.120754450559616089e-02,-1.648392528295516968e-02,-2.921519428491592407e-02,-4.023132473230361938e-02,-5.882979929447174072e-02,4.497592896223068237e-02,-3.927258402109146118e-02,8.672468364238739014e-03,6.972260773181915283e-03,-3.773578628897666931e-02,4.961926490068435669e-02,-7.950536906719207764e-03,-6.224866211414337158e-02,-5.442827939987182617e-02,-1.158726960420608521e-02,8.017907291650772095e-02,-8.163020014762878418e-02,-3.146006539463996887e-02,4.729196429252624512e-03,-1.728443056344985962e-02,-1.869150996208190918e-02,-5.433187633752822876e-02,-8.123864978551864624e-02,2.545251697301864624e-02,-2.923077717423439026e-02,3.392311185598373413e-02,6.156455725431442261e-02,-6.514772772789001465e-03,-5.791257694363594055e-02,6.161277741193771362e-02,4.729355126619338989e-02,6.324494630098342896e-02,-1.780970394611358643e-02,-6.554624438285827637e-02,1.807719469070434570e-02,-5.645594000816345215e-02,-1.541698724031448364e-02,2.793612331151962280e-02,7.822307199239730835e-02,2.434384822845458984e-02,6.200814992189407349e-02,3.641929477453231812e-02,-5.164066702127456665e-02,1.359731703996658325e-02,-7.169861346483230591e-02,7.404870539903640747e-02,-5.009560659527778625e-02,6.346106529235839844e-04,-2.723613008856773376e-02,-5.644260346889495850e-02,-6.346901506185531616e-02,-7.302401214838027954e-02,-6.523588299751281738e-02,-1.787514239549636841e-02,8.139481395483016968e-02,7.507323473691940308e-02
3.882291913032531738e-02,3.341334313154220581e-02,5.163883417844772339e-02,4.850766807794570923e-02,-4.077292233705520630e-02,-4.095121100544929504e-02,-5.521357059478759766e-03,5.672723799943923950e-02,6.242968142032623291e-03,-2.988209575414657593e-02,7.197207957506179810e-02,-1.657234132289886475e-02,-3.104707971215248108e-02,-6.287246197462081909e-02,-3.941923379898071289e-03,-5.898371338844299316e-03,8.205551654100418091e-02,-3.195932880043983459e-02,-3.003475442528724670e-02,-6.118511408567428589e-02,2.515973895788192749e-02,6.170343607664108276e-02,7.019528001546859741e-02,6.092732399702072144e-02,-2.899635955691337585e-02,-1.675018668174743652e-02,-3.554015234112739563e-02,5.586497485637664795e-03,-5.655506998300552368e-02,-3.028957173228263855e-02,-4.953349009156227112e-02,6.244858354330062866e-02,-4.649288579821586609e-02,3.573440015316009521e-02,-3.665808588266372681e-02,-5.141220986843109131e-03,-5.685608834028244019e-02,5.698817223310470581e-02,4.502380639314651489e-02,-4.621795564889907837e-02,1.190834492444992065e-02,4.896322637796401978e-02,-8.062041550874710083e-02,-1.351021975278854370e-02,7.540557533502578735e-02,-8.243592083454132080e-02,-1.943953335285186768e-02,6.970456987619400024e-02,3.686182200908660889e-02,-1.141898334026336670e-03,2.968098968267440796e-02,2.606660127639770508e-03,6.816951185464859009e-02,-5.750337988138198853e-02,-3.808177262544631958e-02,-4.254356026649475098e-02,-5.742775276303291321e-02,-2.112872898578643799e-03,-5.073699727654457092e-02,-6.255754083395004272e-02,2.727108448743820190e-02,6.790731102228164673e-02,-7.486106455326080322e-02,7.585822790861129761e-02
3.605882823467254639e-02,-4.664267599582672119e-02,-6.118493527173995972e-02,-2.498379722237586975e-02,-8.806295692920684814e-03,-5.233095213770866394e-02,-2.395719289779663086e-02,-3.293060511350631714e-02,6.178122013807296753e-02,2.118034660816192627e-02,5.970478802919387817e-02,6.064451485872268677e-02,6.086643785238265991e-02,-5.429506301879882812e-03,-8.285848796367645264e-02,7.999674230813980103e-02,7.467321306467056274e-02,-7.469810545444488525e-02,4.193701595067977905e-02,8.146402984857559204e-02,-3.295622766017913818e-03,9.746640920639038086e-03,-5.822623521089553833e-02,3.028142452239990234e-02,-6.581118702888488770e-02,-6.036082282662391663e-02,-4.090934991836547852e-03,3.280483931303024292e-02,-5.263871327042579651e-02,-8.265830576419830322e-02,-9.591594338417053223e-03,-6.738936156034469604e-02,4.734166711568832397e-02,-1.129189878702163696e-02,5.208030343055725098e-04,8.055192977190017700e-02,-8.071206510066986084e-03,2.266675233840942383e-02,3.868564963340759277e-04,-5.881123244762420654e-02,-8.184076845645904541e-02,3.004159033298492432e-02,4.358842968940734863e-03,5.942389369010925293e-03,3.536885976791381836e-02,-2.782130986452102661e-02,2.429076284170150757e-02,3.251755237579345703e-02,-9.522065520286560059e-03,7.168019562959671021e-02,-3.464725241065025330e-02,1.540477573871612549e-02,2.464541047811508179e-02,-2.909208089113235474e-02,7.095427066087722778e-02,2.554155886173248291e-03,-3.502877429127693176e-02,5.331241339445114136e-02,4.688404500484466553e-03,-4.975507780909538269e-02,7.411376386880874634e-02,-8.233512192964553833e-02,-6.940334290266036987e-02,-1.198293268680572510e-02
-1.799053698778152466e-02,1.501026004552841187e-02,-7.584756612777709961e-02,-7.777261734008789062e-02,-3.719607368111610413e-02,-1.398840546607971191e-02,1.820251345634460449e-03,-2.141595631837844849e-02,5.972474068403244019e-02,-4.556260630488395691e-02,1.998819410800933838e-02,-6.113766506314277649e-02,-7.585668563842773438e-02,-1.564683765172958374e-02,1.689291745424270630e-02,-7.138555496931076050e-02,6.534283608198165894e-02,7.355882972478866577e-02,2.625492960214614868e-02,-3.436039015650749207e-02,-7.020396739244461060e-02,2.861248701810836792e-02,6.089014559984207153e-02,3.619512170553207397e-02,-3.074487298727035522e-02,3.526317328214645386e-02,-8.391959220170974731e-02,-5.454706400632858276e-02,6.325828284025192261e-02,4.035750776529312134e-02,7.500273734331130981e-02,6.650348752737045288e-02,-8.300611376762390137e-02,5.177082866430282593e-02,6.278083473443984985e-02,-6.223145127296447754e-02,-5.087750032544136047e-02,5.215569585561752319e-02,4.440525919198989868e-02,-7.837486267089843750e-02,4.572238773107528687e-02,1.068815588951110840e-03,-3.187589347362518311e-03,-2.040892094373703003e-02,-6.484861671924591064e-02,6.040590256452560425e-02,-8.109064400196075439e-02,5.100508779287338257e-02,2.049718052148818970e-02,1.981786638498306274e-02,-3.667178004980087280e-02,-1.021113246679306030e-02,-4.808574914932250977e-03,-8.385190367698669434e-02,-2.507643029093742371e-02,-2.857804298400878906e-03,6.384074687957763672e-03,-1.966167986392974854e-02,-1.962764561176300049e-02,-1.958585530519485474e-02,6.085222214460372925e-02,4.894370585680007935e-02,-2.865998074412345886e-02,-8.568845689296722412e-03
-6.316943466663360596e-02,7.185623794794082642e-02,2.792488783597946167e-02,-3.960118442773818970e-02,-3.349903598427772522e-02,-7.048419117927551270e-02,-1.701793819665908813e-02,9.321302175521850586e-03,1.214316487312316895e-02,-8.173115551471710205e-02,1.344540715217590332e-02,-3.011815994977951050e-02,-9.644001722335815430e-03,3.448288142681121826e-02,5.643857270479202271e-02,4.522330313920974731e-02,8.000162988901138306e-02,4.949105530977249146e-02,4.681359976530075073e-02,-6.615199893712997437e-02,-7.733109593391418457e-02,6.855418533086776733e-02,-5.123435705900192261e-02,3.635435551404953003e-02,-1.504272222518920898e-05,6.671828776597976685e-02,-1.028635352849960327e-02,2.454381436109542847e-02,5.483444780111312866e-02,4.044462740421295166e-02,4.344459623098373413e-02,-1.369851827621459961e-02,-1.855279505252838135e-02,7.779445499181747437e-02,-3.291947394609451294e-02,-4.831815138459205627e-02,-4.865109920501708984e-03,-4.929377511143684387e-02,-6.109847873449325562e-02,-2.750999853014945984e-02,-6.447587907314300537e-02,-1.214472949504852295e-02,1.985380798578262329e-02,-1.031940430402755737e-02,3.786353766918182373e-02,-6.399556994438171387e-03,-3.604762256145477295e-03,-7.645267248153686523e-02,4.523478448390960693e-03,6.176582723855972290e-02,-4.994637891650199890e-02,1.996254175901412964e-02,6.385504454374313354e-02,1.051979511976242065e-02,-4.064001888036727905e-02,-3.713324666023254395e-03,1.535250991582870483e-02,5.707099288702011108e-02,7.675416022539138794e-02,3.665770590305328369e-02,3.328250348567962646e-02,7.296823710203170776e-02,5.221888422966003418e-04,5.395831912755966187e-02
-7.016783207654953003e-02,-4.122002422809600830e-02,-5.658894777297973633e-03,-3.555713593959808350e-02,7.930638641119003296e-02,3.341354429721832275e-02,6.479042023420333862e-02,-7.993985712528228760e-02,7.911378890275955200e-02,-5.485743284225463867e-03,-2.866326645016670227e-02,7.835463434457778931e-02,-4.523507133126258850e-02,4.136117547750473022e-02,-6.163963675498962402e-02,-6.994036585092544556e-02,4.985510557889938354e-02,-5.852565169334411621e-03,-4.613912105560302734e-02,-9.922765195369720459e-03,-5.168952047824859619e-02,8.756212890148162842e-03,6.492111831903457642e-02,3.990587592124938965e-02,-5.053526535630226135e-02,-4.805926606059074402e-02,6.500642746686935425e-02,-5.049142614006996155e-02,-7.181234657764434814e-03,-1.447966694831848145e-02,5.293842405080795288e-02,-8.157439529895782471e-03,-6.537847220897674561e-02,-1.693308353424072266e-03,6.026086956262588501e-02,-5.374476313591003418e-03,-4.651996120810508728e-02,-7.552438229322433472e-02,-4.542647302150726318e-02,-2.480946108698844910e-02,1.469417661428451538e-02,1.368794590234756470e-02,6.750058382749557495e-02,1.219619065523147583e-02,2.726779878139495850e-02,5.578205734491348267e-02,-6.999860703945159912e-02,-2.447009459137916565e-02,3.313110768795013428e-02,-7.669830322265625000e-02,2.674948424100875854e-02,-5.955708771944046021e-02,-1.785971969366073608e-02,-6.539477407932281494e-02,2.532406896352767944e-02,8.263769000768661499e-02,3.235533833503723145e-03,2.204595506191253662e-02,-6.208567321300506592e-02,-5.833202227950096130e-02,1.335577666759490967e-02,-2.531283721327781677e-02,-4.611064121127128601e-02,-2.367648854851722717e-02
-2.787625789642333984e-02,-8.293525874614715576e-02,-4.499480128288269043e-04,1.007602363824844360e-02,7.980659604072570801e-03,6.644963473081588745e-02,-6.327901780605316162e-02,-2.547864988446235657e-02,-8.327554911375045776e-02,5.338745564222335815e-02,-6.454374641180038452e-02,-7.624103873968124390e-02,5.934593826532363892e-02,-3.870724141597747803e-02,-8.200489729642868042e-02,1.470486074686050415e-02,1.401205360889434814e-02,-4.606505855917930603e-02,7.826759666204452515e-02,2.936713397502899170e-02,5.685053020715713501e-02,-6.605236977338790894e-02,-2.133192121982574463e-02,2.605917304754257202e-02,7.135238498449325562e-02,1.073628664016723633e-02,2.412561327219009399e-02,8.946999907493591309e-03,3.545199334621429443e-02,-6.924118101596832275e-02,6.852997094392776489e-02,-6.935216486454010010e-02,9.705491364002227783e-03,3.554014861583709717e-02,3.784181922674179077e-02,4.736749082803726196e-02,3.829449415206909180e-04,-4.644383117556571960e-02,-2.695207297801971436e-02,-6.373509764671325684e-02,5.497472733259201050e-02,-4.377877339720726013e-02,-2.029509097337722778e-02,-3.510991483926773071e-02,2.868197858333587646e-02,1.041562855243682861e-02,4.272932559251785278e-02,5.311212688684463501e-02,2.386476099491119385e-02,2.934715896844863892e-02,-7.989490032196044922e-02,6.798145920038223267e-02,2.063424140214920044e-02,-5.634932965040206909e-02,-7.077346742153167725e-02,-4.844866693019866943e-02,-6.777766346931457520e-02,6.094469875097274780e-02,5.784399807453155518e-03,3.352570533752441406e-02,6.520189344882965088e-03,2.845893055200576782e-02,1.756162941455841064e-02,-4.846477136015892029e-02
-6.725661456584930420e-02,7.556908577680587769e-02,-8.148219436407089233e-02,6.979022175073623657e-02,5.443064123392105103e-02,1.665528863668441772e-02,3.171662986278533936e-02,-6.325536966323852539e-02,1.821819692850112915e-02,-2.765296772122383118e-02,-1.213408261537551880e-02,-8.821487426757812500e-06,9.736411273479461670e-03,4.951129108667373657e-02,-2.101510763168334961e-04,7.779196649789810181e-02,-2.382208406925201416e-02,-8.354395627975463867e-03,-3.071479126811027527e-02,-7.218245416879653931e-02,5.017071217298507690e-02,-2.223844081163406372e-02,-1.629532873630523682e-02,1.222132146358489990e-02,5.432029813528060913e-02,2.909424155950546265e-02,3.245903551578521729e-02,6.451236456632614136e-02,3.467432409524917603e-02,-2.363689988851547241e-02,-3.070630878210067749e-02,3.265779465436935425e-02,7.626295834779739380e-02,7.558626681566238403e-02,2.438831329345703125e-02,-2.573096007108688354e-02,-3.736850619316101074e-02,7.199434190988540649e-02,5.694232136011123657e-02,-1.514375954866409302e-02,-8.088022470474243164e-02,6.366436928510665894e-02,7.680915296077728271e-03,7.776818424463272095e-02,-3.493355587124824524e-02,-1.410342007875442505e-02,3.238354623317718506e-02,-5.935509502887725830e-02,-9.838327765464782715e-03,-6.320369243621826172e-02,4.808101803064346313e-02,9.513065218925476074e-03,8.108242601156234741e-02,7.031536847352981567e-02,-3.958983346819877625e-02,3.166440129280090332e-02,5.195692181587219238e-03,-6.051414459943771362e-02,-4.494808614253997803e-02,-1.573194563388824463e-02,-3.732053190469741821e-02,-6.457780301570892334e-02,-3.172146156430244446e-02,7.175534963607788086e-03
3.399358689785003662e-02,4.840337112545967102e-02,7.983081042766571045e-03,1.168913394212722778e-02,6.200591102242469788e-02,-8.476714044809341431e-02,3.667817637324333191e-02,-7.716065645217895508e-02,-6.473124027252197266e-02,7.549864053726196289e-02,9.048884734511375427e-03,-7.970425486564636230e-02,-9.710535407066345215e-02,4.725187271833419800e-02,-5.025152117013931274e-02,4.695235937833786011e-02,-1.524179987609386444e-02,-4.595131427049636841e-02,-4.299539327621459961e-02,-8.008411526679992676e-02,1.790054142475128174e-02,2.825240790843963623e-02,-4.067100211977958679e-02,-1.946244575083255768e-02,-3.867365792393684387e-02,-7.074678689241409302e-02,1.299280673265457153e-02,3.378083556890487671e-02,-4.939902946352958679e-02,7.150170207023620605e-02,-5.677748937159776688e-03,8.734723925590515137e-02,-1.735126413404941559e-02,1.748415641486644745e-02,4.466085880994796753e-02,-4.486458003520965576e-02,-6.171942129731178284e-02,-8.002642425708472729e-04,-3.585322201251983643e-02,6.044892221689224243e-02,5.398892983794212341e-02,8.172760903835296631e-02,-2.958105318248271942e-02,-4.736015573143959045e-02,-4.169996455311775208e-02,2.210877835750579834e-03,-3.945872653275728226e-03,6.275802850723266602e-03,-4.978072363883256912e-03,3.479370614513754845e-03,3.031717985868453979e-02,-2.387860603630542755e-02,-5.015537142753601074e-02,3.712660074234008789e-02,-3.624271601438522339e-02,2.826590090990066528e-02,5.357172340154647827e-02,1.813986897468566895e-02,-7.416091859340667725e-02,1.509074401110410690e-02,-4.225048050284385681e-02,-2.146840095520019531e-03,3.756240382790565491e-02,-1.864341902546584606e-04
5.316111072897911072e-02,6.971880793571472168e-02,-5.020207911729812622e-02,9.131051599979400635e-02,-4.740156698971986771e-03,-6.372593808919191360e-03,-4.056831821799278259e-02,-9.602062404155731201e-02,1.641245745122432709e-02,2.105455473065376282e-02,-8.625420182943344116e-02,-4.993091523647308350e-02,2.239083498716354370e-02,-1.049927622079849243e-02,6.744775176048278809e-02,-7.517093420028686523e-02,4.604524001479148865e-02,4.076007381081581116e-02,-3.149815276265144348e-02,-5.471726879477500916e-02,2.657930180430412292e-02,-6.389770656824111938e-02,1.621752232313156128e-02,-2.131002582609653473e-02,6.523397564888000488e-02,-8.940897881984710693e-02,-7.185052335262298584e-02,-2.826578170061111450e-02,-4.120908677577972412e-02,1.937018521130084991e-02,2.815396152436733246e-02,4.999549686908721924e-02,4.289191216230392456e-02,-1.729400269687175751e-02,2.751082181930541992e-02,-2.148937620222568512e-02,-4.581695422530174255e-03,6.852536648511886597e-02,-5.388908460736274719e-02,-4.897917807102203369e-02,3.976507112383842468e-02,8.666645735502243042e-02,5.386450514197349548e-02,-4.596422240138053894e-02,8.922993391752243042e-02,7.399753481149673462e-02,-2.112085931003093719e-02,5.792068317532539368e-02,-3.188175708055496216e-02,7.446787506341934204e-02,-5.303479358553886414e-02,2.968838624656200409e-02,4.014432057738304138e-02,-5.081353709101676941e-02,1.528587378561496735e-02,5.608143657445907593e-02,1.857657730579376221e-02,6.928262859582901001e-02,7.198136299848556519e-02,-9.229733049869537354e-02,-4.367161542177200317e-02,-7.699613273143768311e-02,-8.478228934109210968e-03,2.070748247206211090e-02
9.622128307819366455e-02,2.099860757589340210e-01,5.232726782560348511e-02,7.376348972320556641e-02,2.517935931682586670e-01,-1.674515008926391602e-01,1.578147262334823608e-01,-1.027658954262733459e-01,-5.469935014843940735e-03,8.827351033687591553e-02,-1.505911797285079956e-01,-9.111888706684112549e-03,-2.049367576837539673e-01,7.568397559225559235e-04,-5.695164948701858521e-02,-2.596694044768810272e-02,-4.156354069709777832e-02,-2.018374204635620117e-01,3.115087747573852539e-03,-7.312013208866119385e-02,-1.255957782268524170e-01,-1.018791645765304565e-02,-3.748815134167671204e-02,1.244954466819763184e-01,2.569551952183246613e-02,-2.057807296514511108e-01,-1.693136245012283325e-02,7.065974920988082886e-02,-1.536089628934860229e-01,-1.770939528942108154e-01,2.006701380014419556e-01,1.761607825756072998e-01,1.114728897809982300e-01,1.426655501127243042e-01,-8.130507171154022217e-02,-1.642968803644180298e-01,4.769133403897285461e-02,-3.592173382639884949e-02,-4.472259059548377991e-02,-1.193890944123268127e-01,1.624682247638702393e-01,9.604395180940628052e-02,1.272791177034378052e-01,-7.643014192581176758e-03,1.549906581640243530e-01,5.479507148265838623e-03,1.911707073450088501e-01,-6.287641823291778564e-02,7.836318016052246094e-02,1.336656212806701660e-01,-2.070882469415664673e-01,-1.103023812174797058e-01,-2.262214198708534241e-03,-1.356049627065658569e-01,-3.251144289970397949e-02,-7.078698277473449707e-02,-5.803614854812622070e-03,-1.383990347385406494e-01,-1.194896996021270752e-01,-1.839439272880554199e-01,4.103932529687881470e-02,-9.735390543937683105e-02,2.023784518241882324e-01,-3.891697525978088379e-02
7.032211869955062866e-02,1.850902140140533447e-01,-3.341003134846687317e-02,5.438014119863510132e-02,2.158237546682357788e-01,-1.310408115386962891e-01,4.523060843348503113e-02,-4.864998534321784973e-02,-1.426987908780574799e-02,4.312226548790931702e-03,-1.430702656507492065e-01,4.141493141651153564e-02,-1.028587520122528076e-01,-4.706591367721557617e-02,1.962153054773807526e-02,1.843129470944404602e-02,-2.437216788530349731e-02,-1.675364077091217041e-01,-2.221914753317832947e-02,-5.422327294945716858e-02,-1.158103998750448227e-02,7.867407985031604767e-03,3.797511011362075806e-02,7.149536162614822388e-02,5.157034099102020264e-02,-1.257290542125701904e-01,1.079933345317840576e-02,-9.801240265369415283e-02,-1.111592799425125122e-01,-1.532405614852905273e-01,7.267042994499206543e-02,1.528767198324203491e-01,1.556163728237152100e-01,1.937776207923889160e-01,-6.310327351093292236e-02,-2.508521825075149536e-02,-5.554291605949401855e-02,-1.084609329700469971e-02,-2.291882643476128578e-03,-1.424078643321990967e-01,6.743082404136657715e-02,1.169212460517883301e-01,1.070723906159400940e-01,-4.550821706652641296e-02,9.358767420053482056e-02,-9.188046306371688843e-02,9.683035314083099365e-02,1.248192973434925079e-03,1.201781481504440308e-01,1.226174160838127136e-01,-1.125337332487106323e-01,-1.270953267812728882e-01,-7.307216525077819824e-02,2.015614323318004608e-02,-2.378822863101959229e-02,-1.759415119886398315e-02,-4.283029586076736450e-03,-1.925152689218521118e-01,-1.978729218244552612e-01,-2.368222028017044067e-01,-8.564639091491699219e-02,-1.079980209469795227e-01,5.549526587128639221e-02,-4.032570868730545044e-02
-2.935668081045150757e-02,2.432131022214889526e-01,-1.062651798129081726e-01,3.520902991294860840e-02,2.143756300210952759e-01,-2.088046260178089142e-02,1.543063968420028687e-01,6.273305043578147888e-03,-1.808310858905315399e-02,-4.933083057403564453e-02,-1.338749378919601440e-01,-9.487563371658325195e-02,-2.096202522516250610e-01,2.625475078821182251e-02,5.169842392206192017e-03,-7.062163203954696655e-02,5.931052565574645996e-02,-1.085586473345756531e-01,-4.062756523489952087e-02,4.280606657266616821e-02,4.634782299399375916e-02,7.949125021696090698e-03,-4.396480694413185120e-02,4.850828275084495544e-02,-7.087082415819168091e-02,-1.747150868177413940e-01,7.320678234100341797e-02,-5.825408175587654114e-02,-1.414373219013214111e-01,-1.196501478552818298e-01,1.786932200193405151e-01,1.499875336885452271e-01,6.434606760740280151e-02,8.175841718912124634e-02,5.851850658655166626e-02,-1.022170633077621460e-01,1.313251722604036331e-02,-3.615251556038856506e-02,-7.341263350099325180e-03,-7.878959178924560547e-02,1.762085407972335815e-02,1.804092526435852051e-02,4.358971863985061646e-02,-4.674790427088737488e-02,1.082306727766990662e-02,-2.028610929846763611e-02,1.074491813778877258e-01,-7.394340634346008301e-02,1.395061984658241272e-02,6.592245399951934814e-02,-7.136649638414382935e-02,-3.493888303637504578e-02,-1.412299275398254395e-01,-6.031555309891700745e-02,5.217060446739196777e-02,-3.921014070510864258e-02,4.066294990479946136e-03,-9.165005385875701904e-02,-1.648696660995483398e-01,-4.314954578876495361e-02,-2.058821544051170349e-02,-1.120544075965881348e-01,6.267958879470825195e-02,-4.012704640626907349e-02
-1.126125007867813110e-01,1.364051252603530884e-01,7.048738747835159302e-02,9.586754441261291504e-02,1.426128596067428589e-01,-3.217555209994316101e-02,1.780171990394592285e-01,-1.364310830831527710e-01,-1.560094393789768219e-02,2.644922956824302673e-02,1.569962012581527233e-03,-8.605207502841949463e-02,-1.091268807649612427e-01,2.155018597841262817e-02,6.784826517105102539e-02,-8.457802236080169678e-02,-1.039577648043632507e-01,-1.177693903446197510e-01,-4.965395852923393250e-02,-7.659785449504852295e-02,-1.474139466881752014e-02,-7.119930814951658249e-03,-2.619794011116027832e-02,4.620533902198076248e-03,3.538258001208305359e-02,-6.915510445833206177e-02,-3.702864050865173340e-02,-1.123860850930213928e-01,-1.200680807232856750e-01,2.376162679865956306e-03,1.838144659996032715e-02,3.835732932202517986e-04,7.271149009466171265e-02,3.087836503982543945e-02,2.482829242944717407e-02,-7.815117947757244110e-03,3.202954307198524475e-02,-2.919083833694458008e-02,-4.219146072864532471e-02,-1.329631954431533813e-01,1.586107313632965088e-01,1.745878532528877258e-02,8.661758154630661011e-02,5.439161509275436401e-02,1.297784894704818726e-01,6.366207450628280640e-02,8.596217632293701172e-02,5.997946858406066895e-02,1.056642010807991028e-01,2.599566802382469177e-02,-1.376946121454238892e-01,-1.926982589066028595e-02,-1.129157990217208862e-01,1.840867102146148682e-02,5.758719146251678467e-02,4.528409615159034729e-02,2.574399299919605255e-02,-6.436245888471603394e-02,-1.068955212831497192e-01,4.998838156461715698e-02,4.965409263968467712e-02,2.407389506697654724e-02,1.422603279352188110e-01,-2.071785926818847656e-02
-1.457105875015258789e-01,8.440198004245758057e-02,6.908614188432693481e-02,5.392985045909881592e-02,1.553394496440887451e-01,-6.730759888887405396e-02,1.436675991863012314e-02,-1.364409476518630981e-01,5.324520636349916458e-03,7.525346428155899048e-02,-1.147720590233802795e-01,1.801924221217632294e-02,-7.551469374448060989e-03,2.380838058888912201e-02,5.429168045520782471e-02,2.694389969110488892e-02,2.439190261065959930e-02,-6.947409361600875854e-02,-4.975234717130661011e-02,4.877969250082969666e-02,3.544052690267562866e-02,-2.521351538598537445e-02,-9.444562345743179321e-02,1.522570401430130005e-01,9.302575886249542236e-02,-8.589125424623489380e-02,1.697931438684463501e-02,-5.219907313585281372e-02,-1.106447577476501465e-01,-1.325907409191131592e-01,1.139708459377288818e-01,4.118039458990097046e-02,9.686668962240219116e-02,1.659304276108741760e-02,2.680034749209880829e-02,-4.015863873064517975e-03,9.570953436195850372e-03,-5.242693424224853516e-02,-9.858467429876327515e-02,-1.082865819334983826e-01,6.190660223364830017e-02,2.092439681291580200e-01,5.502554401755332947e-02,-1.242218911647796631e-02,1.949370801448822021e-01,-3.043428249657154083e-02,5.553967505693435669e-02,4.851724207401275635e-02,2.608701027929782867e-02,-8.307961374521255493e-02,-6.151537969708442688e-02,-1.762102358043193817e-02,-7.415981590747833252e-02,-1.244008094072341919e-01,2.362027764320373535e-02,-2.134661190211772919e-04,-7.708255946636199951e-02,-7.903845608234405518e-02,-6.802359223365783691e-02,-9.910926222801208496e-02,8.809800446033477783e-02,-6.963840126991271973e-02,1.323442608118057251e-01,4.903952404856681824e-02
-1.107498407363891602e-01,1.904184967279434204e-01,-1.103692427277565002e-01,-9.151764959096908569e-02,1.950935125350952148e-01,-1.166788935661315918e-01,6.691206246614456177e-02,-8.841834962368011475e-02,6.856176257133483887e-02,1.477047502994537354e-01,-3.157367929816246033e-03,5.674092471599578857e-02,-6.610526144504547119e-02,-1.397708654403686523e-01,-1.186467707157135010e-01,-1.316669769585132599e-02,-4.485119134187698364e-02,-9.794104844331741333e-02,-4.859715700149536133e-03,2.419325523078441620e-02,-1.453509628772735596e-01,2.369478903710842133e-02,-1.395159214735031128e-01,2.240496277809143066e-01,2.379400283098220825e-02,-1.372521519660949707e-01,1.651660911738872528e-02,-8.156117051839828491e-02,7.054606080055236816e-02,-7.086184620857238770e-02,1.848548948764801025e-01,-1.208182051777839661e-01,1.320731341838836670e-01,7.905957847833633423e-02,-4.784940928220748901e-02,4.416500031948089600e-02,-8.291998505592346191e-02,-4.989208281040191650e-02,-8.340594172477722168e-02,-1.686329208314418793e-02,1.320400089025497437e-01,-2.653731405735015869e-02,1.054102107882499695e-01,-1.331147551536560059e-02,9.054239094257354736e-02,2.613049559295177460e-02,-3.071030788123607635e-02,3.614741936326026917e-02,-5.503493174910545349e-02,1.850953251123428345e-01,-1.208065673708915710e-01,-1.173998136073350906e-02,-1.224170252680778503e-01,1.364903748035430908e-01,7.295697182416915894e-02,-2.747088484466075897e-02,4.052534699440002441e-02,-8.606258779764175415e-02,-8.397860825061798096e-02,7.602836191654205322e-02,-7.394844293594360352e-02,-1.501090172678232193e-02,1.462329775094985962e-01,1.453204546123743057e-03
-7.058260589838027954e-02,1.087583154439926147e-01,-1.384451836347579956e-01,-1.352941989898681641e-01,2.870520055294036865e-01,-8.252349495887756348e-02,2.040158659219741821e-01,-6.082717701792716980e-02,2.430907934904098511e-01,3.813323006033897400e-02,-3.152524307370185852e-02,-5.468200892210006714e-02,4.756779223680496216e-02,-1.134236454963684082e-01,-9.553871303796768188e-02,-4.519942449405789375e-04,-1.322529315948486328e-01,-2.290680259466171265e-01,7.425624877214431763e-02,7.571768760681152344e-02,-1.514589637517929077e-01,1.789270937442779541e-01,-8.427235484123229980e-02,2.636165022850036621e-01,1.149789243936538696e-01,-1.563652008771896362e-01,-4.723026603460311890e-02,-1.155945956707000732e-01,-3.398143872618675232e-02,-1.140404567122459412e-01,1.341893672943115234e-01,-4.498278722167015076e-02,1.516199856996536255e-01,-2.640005014836788177e-02,-7.348920404911041260e-02,6.965269893407821655e-02,-1.624006778001785278e-01,-3.371943905949592590e-02,-2.590864524245262146e-02,-1.430343091487884521e-01,4.506747052073478699e-02,-6.611756235361099243e-02,1.823773533105850220e-01,2.106401324272155762e-02,-1.861049234867095947e-02,-6.975422054529190063e-02,9.792094677686691284e-02,-1.602993160486221313e-02,-1.500918865203857422e-01,1.500881165266036987e-01,-8.571846038103103638e-02,1.164430975914001465e-01,-1.102621257305145264e-01,5.238992720842361450e-02,9.631463885307312012e-02,-9.360987693071365356e-02,-1.465591490268707275e-01,-1.151282712817192078e-01,1.584589481353759766e-02,7.396614551544189453e-02,-5.838687345385551453e-02,-5.609600618481636047e-02,1.466674357652664185e-01,-6.235323380678892136e-03
-3.117145970463752747e-02,2.338300794363021851e-01,-6.345215439796447754e-02,-1.232223212718963623e-01,3.384054601192474365e-01,-2.073943763971328735e-01,1.595138013362884521e-01,-1.951679587364196777e-01,2.215191870927810669e-01,-2.613575756549835205e-02,-2.070987224578857422e-01,8.059264160692691803e-03,-7.280916720628738403e-02,-2.435294911265373230e-02,-1.342433243989944458e-01,9.958268702030181885e-02,-1.926009207963943481e-01,-1.954470425844192505e-01,3.080639988183975220e-02,-7.297860085964202881e-02,-1.042955368757247925e-01,1.877875179052352905e-01,-1.763725429773330688e-01,2.001265734434127808e-01,1.204079017043113708e-01,-1.402701586484909058e-01,6.742153316736221313e-02,-2.024232298135757446e-01,-1.010046377778053284e-01,-2.763788402080535889e-01,1.685127615928649902e-01,-1.448707133531570435e-01,2.849180698394775391e-01,8.130929619073867798e-02,-6.748501956462860107e-02,1.049245372414588928e-01,-1.666692942380905151e-01,-5.736007541418075562e-02,-1.433028578758239746e-01,-1.573509909212589264e-02,7.270275056362152100e-02,1.087244898080825806e-01,2.499447464942932129e-01,-5.935349687933921814e-02,1.770593076944351196e-01,-1.845146156847476959e-02,1.150908768177032471e-01,-5.555029585957527161e-02,-1.704114675521850586e-01,1.615134626626968384e-01,-1.851734369993209839e-01,6.538300961256027222e-02,-6.009806692600250244e-02,6.728699803352355957e-02,1.423110216856002808e-01,-5.665699765086174011e-02,-7.953940331935882568e-02,-1.954209357500076294e-01,-2.850450389087200165e-02,1.493013799190521240e-01,-1.499154120683670044e-01,-2.145748026669025421e-02,2.805753350257873535e-01,6.616104394197463989e-02
3.587317466735839844e-01,1.047833934426307678e-01,1.873986870050430298e-01,2.789911031723022461e-01,-1.459259241819381714e-01,-1.064271181821823120e-01,4.274250939488410950e-02,-1.587465554475784302e-01,1.713211834430694580e-02,3.017899114638566971e-03,-2.804392576217651367e-01,-3.087921533733606339e-03,-1.368653923273086548e-01,1.529296487569808960e-02,-3.849735558032989502e-01,-7.421409338712692261e-02,-7.639623433351516724e-02,-1.269611567258834839e-01,7.644047588109970093e-02,1.246990412473678589e-01,-1.206807941198348999e-01,7.487262785434722900e-02,1.555625442415475845e-02,1.012249812483787537e-01,1.931439191102981567e-01,-1.048337966203689575e-01,5.957598611712455750e-02,2.012619189918041229e-02,-9.972748905420303345e-02,7.310152053833007812e-03,1.171499565243721008e-01,1.584449112415313721e-01,2.026686370372772217e-01,8.582326024770736694e-02,4.211732745170593262e-02,-2.165464758872985840e-01,-5.686654913006350398e-05,1.287094205617904663e-01,1.486152559518814087e-01,-1.427887678146362305e-01,4.850813001394271851e-02,-1.171045303344726562e-01,5.567317456007003784e-02,3.683636710047721863e-02,8.211141824722290039e-02,1.983465105295181274e-01,3.797508776187896729e-01,7.497932761907577515e-02,-8.237273246049880981e-02,-1.377631872892379761e-01,-6.725038588047027588e-02,5.145081318914890289e-03,-5.589956045150756836e-02,-3.186839222908020020e-01,6.672880053520202637e-02,-4.179416596889495850e-02,-2.140418738126754761e-01,-1.580183357000350952e-01,-1.288361549377441406e-01,-1.906251758337020874e-01,1.188964024186134338e-01,-6.685172021389007568e-02,-7.900984957814216614e-03,6.834322214126586914e-02
1.422656476497650146e-01,2.001198530197143555e-01,1.285530328750610352e-01,-6.316514313220977783e-02,1.571053117513656616e-01,-2.275988310575485229e-01,8.107467740774154663e-02,-2.026621103286743164e-01,-3.555748239159584045e-02,5.538819357752799988e-02,-2.976042926311492920e-01,-1.237994409166276455e-03,1.063140481710433960e-01,4.299110919237136841e-02,-2.666848301887512207e-01,2.179159224033355713e-02,-3.782048448920249939e-02,-1.001027747988700867e-01,-2.974496409296989441e-02,1.768663376569747925e-01,-2.243026942014694214e-01,-3.772528097033500671e-02,1.135638132691383362e-01,1.209043860435485840e-01,2.339567691087722778e-01,-1.801205128431320190e-01,-9.371957927942276001e-02,3.489391133189201355e-02,-7.231079041957855225e-02,-6.816910952329635620e-02,-2.457116357982158661e-02,8.312691748142242432e-02,1.830115467309951782e-01,6.389149278402328491e-02,8.599160239100456238e-03,7.183485478162765503e-02,-9.102315455675125122e-02,-1.152910571545362473e-02,4.303552582859992981e-02,-2.009476870298385620e-01,3.236957266926765442e-02,-9.028233587741851807e-02,1.611984819173812866e-01,-8.351059257984161377e-02,-1.760367751121520996e-01,1.568364351987838745e-01,1.336155533790588379e-01,3.697400912642478943e-03,-1.057175770401954651e-01,4.011071845889091492e-02,-6.321185827255249023e-02,5.499033629894256592e-02,-7.808832079172134399e-02,-1.117832809686660767e-01,-1.401750892400741577e-01,-2.525265887379646301e-02,-2.489531040191650391e-01,-1.517648100852966309e-01,-1.278919428586959839e-01,7.946638017892837524e-02,3.035327605903148651e-02,-1.574691683053970337e-01,2.236346751451492310e-01,-3.510966151952743530e-02
-2.214790433645248413e-01,4.044752120971679688e-01,-2.435037791728973389e-01,-1.660746932029724121e-01,2.703683078289031982e-01,-1.593946069478988647e-01,2.462124824523925781e-01,-1.402396410703659058e-01,2.700904011726379395e-01,-1.042274013161659241e-01,-2.622461318969726562e-01,-6.274462491273880005e-02,1.640447974205017090e-01,2.268875688314437866e-01,-1.078042760491371155e-01,5.509018898010253906e-02,1.557146459817886353e-01,-7.940372079610824585e-02,2.664750069379806519e-02,1.498688608407974243e-01,8.166986517608165741e-03,2.800351940095424652e-02,1.438222527503967285e-01,2.266437113285064697e-01,-1.709887087345123291e-01,-7.629745453596115112e-02,-1.699789017438888550e-01,-2.440751343965530396e-02,6.097221001982688904e-02,-9.420283138751983643e-02,-9.449601173400878906e-02,9.385106712579727173e-02,2.301065623760223389e-01,-1.910169571638107300e-01,-3.463123738765716553e-02,1.906023025512695312e-01,-1.417524460703134537e-02,-1.919052600860595703e-01,-2.170603256672620773e-03,-4.740499705076217651e-02,3.409496545791625977e-01,-2.678611576557159424e-01,2.014242261648178101e-01,-2.561742626130580902e-02,-1.364995837211608887e-01,-1.287711560726165771e-01,5.275107547640800476e-02,4.026421159505844116e-02,-4.684561118483543396e-02,8.184222877025604248e-02,-1.451280266046524048e-01,1.632989197969436646e-01,-1.476340591907501221e-01,7.065179198980331421e-02,-2.837109863758087158e-01,-1.300903558731079102e-01,-2.179993540048599243e-01,-4.353743046522140503e-02,-1.408630460500717163e-01,3.274474740028381348e-01,-2.547887861728668213e-01,-2.195058614015579224e-01,3.571658134460449219e-01,9.202902764081954956e-02
-1.117753684520721436e-01,3.320510089397430420e-01,-2.460707873106002808e-01,-7.752783596515655518e-02,3.165490627288818359e-01,-2.471849024295806885e-01,3.471113145351409912e-01,-1.304263025522232056e-01,1.560397297143936157e-01,6.426435429602861404e-03,-2.179364562034606934e-01,-8.322634547948837280e-02,7.791983895003795624e-03,-2.400961704552173615e-02,-8.404880762100219727e-02,9.776800870895385742e-02,-6.768464297056198120e-02,-1.538800001144409180e-01,-5.083432421088218689e-02,1.403866708278656006e-01,-7.734325528144836426e-02,2.000882057473063469e-03,-6.596491485834121704e-02,2.527058422565460205e-01,5.843065306544303894e-02,-1.187763661146163940e-01,-8.202773332595825195e-02,-1.353706866502761841e-01,9.129603207111358643e-02,-7.585636526346206665e-02,1.089444458484649658e-01,1.650053262710571289e-01,2.048575580120086670e-01,-7.583525776863098145e-02,-4.887454956769943237e-02,1.592380106449127197e-01,-1.769486218690872192e-01,-1.631372720003128052e-01,-8.162271976470947266e-02,-5.433306097984313965e-02,3.153037428855895996e-01,-1.544942706823348999e-01,1.992821097373962402e-01,5.948520079255104065e-02,-9.462409466505050659e-02,-2.596466988325119019e-02,3.307319059967994690e-02,6.965189427137374878e-02,-1.600394546985626221e-01,1.750480681657791138e-01,-2.490409314632415771e-01,8.859572559595108032e-02,-5.923018977046012878e-02,5.698015913367271423e-02,-1.854991763830184937e-01,-7.645744085311889648e-02,-2.641072273254394531e-01,-5.762789770960807800e-02,-1.909221112728118896e-01,1.721583902835845947e-01,-9.429930150508880615e-02,-1.916702985763549805e-01,3.040049374103546143e-01,4.126247763633728027e-02
3.308833837509155273e-01,3.275919854640960693e-01,1.767413467168807983e-01,-2.176083624362945557e-02,3.910825550556182861e-01,-8.404146879911422729e-02,2.387460470199584961e-01,-2.267291247844696045e-01,9.616366028785705566e-02,4.939217865467071533e-02,-2.055101096630096436e-01,3.055905224755406380e-03,-8.346911519765853882e-02,-3.887613490223884583e-02,-2.819251082837581635e-02,3.581497073173522949e-02,-1.117264479398727417e-01,-1.276961565017700195e-01,-5.349224060773849487e-02,-9.575572609901428223e-02,-6.411059200763702393e-02,2.996891364455223083e-02,-1.857727020978927612e-02,1.867239773273468018e-01,1.258885115385055542e-01,1.916723325848579407e-02,-1.866444759070873260e-02,-7.357809692621231079e-02,-2.123215496540069580e-01,3.159822151064872742e-02,1.687436550855636597e-01,1.801080852746963501e-01,2.162590920925140381e-01,8.037507534027099609e-02,-3.710632771253585815e-02,-9.295863658189773560e-02,-1.502589434385299683e-01,-1.789345890283584595e-01,-1.002668775618076324e-02,-2.299777567386627197e-01,2.112452387809753418e-01,1.790959835052490234e-01,1.231696456670761108e-01,3.416181728243827820e-02,1.919131726026535034e-01,-1.723499447107315063e-01,1.053708791732788086e-01,-6.987553555518388748e-03,9.174548089504241943e-02,3.328972309827804565e-02,-1.344807893037796021e-01,-2.109721601009368896e-01,-1.131961308419704437e-02,-9.949348866939544678e-02,2.764887735247612000e-02,-7.184031605720520020e-02,1.356382761150598526e-02,-2.929287403821945190e-02,-5.684460327029228210e-02,-1.726318448781967163e-01,4.782951995730400085e-02,-9.120469540357589722e-02,9.600007534027099609e-02,-7.186126708984375000e-02
-7.834019511938095093e-02,1.289464235305786133e-01,2.682364881038665771e-01,2.156044691801071167e-01,1.841239929199218750e-01,-1.271235793828964233e-01,1.697811633348464966e-01,-2.264309227466583252e-01,2.512597143650054932e-01,1.808314323425292969e-01,-2.926517128944396973e-01,-8.124278485774993896e-02,-1.832472980022430420e-01,-1.908652856945991516e-02,-1.275983005762100220e-01,-2.026495523750782013e-02,1.149884983897209167e-02,-2.075123637914657593e-01,3.893779218196868896e-02,-3.744350373744964600e-02,-2.353978604078292847e-01,3.595580160617828369e-02,-8.133089542388916016e-02,2.974767982959747314e-01,2.221310734748840332e-01,-1.130309849977493286e-01,7.249893248081207275e-02,-8.774441480636596680e-02,-1.780365705490112305e-01,-9.795623831450939178e-03,2.446464151144027710e-01,1.970698684453964233e-01,9.356387704610824585e-02,1.728235036134719849e-01,-3.709514625370502472e-03,-2.840255200862884521e-01,-1.874116808176040649e-01,-1.793460734188556671e-02,-3.108912892639636993e-02,-2.045335173606872559e-01,1.664069890975952148e-01,2.394148856401443481e-01,2.156777083873748779e-01,6.435077637434005737e-02,1.973189041018486023e-02,-1.974499523639678955e-01,2.008790522813796997e-01,-2.300778403878211975e-02,2.602910995483398438e-01,6.704014539718627930e-02,-2.413068413734436035e-01,-2.759907245635986328e-01,2.908727899193763733e-02,-2.463111132383346558e-01,-1.097755357623100281e-01,6.022328883409500122e-02,-4.820301011204719543e-02,-1.827580928802490234e-01,-1.031663417816162109e-01,-2.747791707515716553e-01,1.074862927198410034e-01,-9.886196255683898926e-02,2.924223542213439941e-01,-8.650875091552734375e-02
-2.509771846234798431e-02,2.165160775184631348e-01,2.604491710662841797e-01,2.419122457504272461e-01,2.377255409955978394e-01,-2.571032941341400146e-01,2.737316191196441650e-01,-2.840684354305267334e-01,2.173963785171508789e-01,8.224975317716598511e-02,-1.875866055488586426e-01,-8.755379915237426758e-02,-2.525586783885955811e-01,-2.284178696572780609e-02,-9.612793475389480591e-02,4.389586299657821655e-02,-1.015448942780494690e-01,-1.489072591066360474e-01,-1.052328199148178101e-02,-6.949831545352935791e-02,-2.226064801216125488e-01,-9.396263957023620605e-02,-1.667046248912811279e-01,2.290226221084594727e-01,2.198014259338378906e-01,2.662093378603458405e-02,1.564091816544532776e-02,-8.474919945001602173e-02,-1.993127465248107910e-01,5.087098851799964905e-02,2.744939029216766357e-01,2.223508805036544800e-01,2.592418491840362549e-01,1.579283773899078369e-01,-5.320932343602180481e-02,-2.589766681194305420e-01,-2.812075018882751465e-01,5.740142986178398132e-02,-1.010686904191970825e-02,-1.854788213968276978e-01,1.733293533325195312e-01,1.033785790205001831e-01,2.936151027679443359e-01,-7.460968941450119019e-02,1.892316788434982300e-01,-9.383948147296905518e-02,1.931731700897216797e-01,-5.474026128649711609e-02,2.463900446891784668e-01,2.070573419332504272e-01,-1.429381370544433594e-01,-2.396715730428695679e-01,-3.106314316391944885e-02,-1.978937834501266479e-01,3.358689695596694946e-02,-4.915106669068336487e-02,-2.758506871759891510e-02,-1.687966436147689819e-01,-5.169273540377616882e-02,-1.850832998752593994e-01,1.733862012624740601e-01,1.923985220491886139e-02,2.316070944070816040e-01,2.810495905578136444e-02
2.634075284004211426e-01,7.175517268478870392e-03,1.324285287410020828e-02,-2.837050892412662506e-02,6.956373900175094604e-02,-9.860382229089736938e-02,-2.471951954066753387e-02,-3.416951000690460205e-02,4.775522649288177490e-02,1.110664755105972290e-01,-1.323013156652450562e-01,-6.573422811925411224e-03,-7.021074742078781128e-02,1.938624493777751923e-02,-4.813460633158683777e-02,7.212324999272823334e-03,-1.303145885467529297e-01,-7.239858806133270264e-02,-5.049256980419158936e-02,6.197952851653099060e-02,-3.799896687269210815e-02,5.057640373706817627e-02,-1.730127818882465363e-02,5.494573712348937988e-02,6.157711520791053772e-02,5.917523801326751709e-02,-2.781917527318000793e-02,-3.897292912006378174e-02,-1.295963525772094727e-01,1.452533714473247528e-02,-2.701257914304733276e-02,1.214015781879425049e-01,1.584935784339904785e-01,5.176370218396186829e-02,-1.141306310892105103e-01,-1.160372868180274963e-01,-1.417778730392456055e-01,5.073021352291107178e-02,-3.187713399529457092e-02,-1.763856410980224609e-02,1.001762002706527710e-01,1.311449110507965088e-01,2.905944921076297760e-02,-7.747066766023635864e-02,2.730483422055840492e-03,4.140782728791236877e-02,8.832480758428573608e-02,5.062258616089820862e-02,-7.601669989526271820e-03,-2.307676896452903748e-02,-6.946376711130142212e-02,-1.689280271530151367e-01,-2.112936228513717651e-02,-2.104034833610057831e-02,-2.147992345271632075e-04,7.278417795896530151e-02,5.973042920231819153e-02,-5.487405508756637573e-02,3.574474900960922241e-02,-1.389501392841339111e-01,9.950610995292663574e-02,7.507917284965515137e-02,9.890156239271163940e-02,-2.904153801500797272e-02
3.047698363661766052e-02,1.820536702871322632e-01,1.571338064968585968e-02,1.176268011331558228e-01,8.655050396919250488e-02,-1.843226402997970581e-01,1.250957846641540527e-01,-6.359832733869552612e-02,4.548321664333343506e-02,7.371364533901214600e-02,-8.082698285579681396e-02,-6.294482387602329254e-03,-1.224503889679908752e-01,6.781943608075380325e-03,-6.125938519835472107e-02,-1.837128773331642151e-02,3.844646364450454712e-02,-8.878446184098720551e-03,-5.806405097246170044e-02,-1.453361660242080688e-02,9.558013081550598145e-02,-5.300955846905708313e-02,6.455323845148086548e-02,1.127649247646331787e-01,6.890673935413360596e-02,-3.529438003897666931e-02,4.562780261039733887e-03,-6.329156458377838135e-02,-9.834321588277816772e-02,-1.749428957700729370e-01,1.428029537200927734e-01,6.322366744279861450e-02,8.950542658567428589e-03,1.854804903268814087e-01,-3.773759305477142334e-02,-9.305443614721298218e-02,-1.784999854862689972e-02,2.167373895645141602e-02,6.231896206736564636e-02,-1.585075557231903076e-01,1.632807552814483643e-01,1.185934022068977356e-01,1.654219925403594971e-01,2.500712126493453979e-02,1.190695315599441528e-01,-4.486321285367012024e-02,1.058153882622718811e-01,4.221417754888534546e-02,1.553477644920349121e-01,-1.192793250083923340e-02,-1.663168072700500488e-01,-9.937714785337448120e-02,-2.061740867793560028e-02,-2.205973677337169647e-02,5.067049525678157806e-03,1.394587010145187378e-02,-3.006273135542869568e-02,-7.483310997486114502e-02,4.350738972425460815e-02,-8.411958068609237671e-02,-6.464882940053939819e-02,-4.936439171433448792e-02,1.474795788526535034e-01,4.373473301529884338e-02
-7.339268922805786133e-02,1.239991337060928345e-01,-7.791090011596679688e-02,9.822524338960647583e-02,1.121433004736900330e-01,-5.638806521892547607e-02,6.068179011344909668e-02,-6.314143538475036621e-02,2.545269764959812164e-02,-4.608709737658500671e-02,-1.200537234544754028e-01,-7.312755286693572998e-02,-1.374147981405258179e-01,3.582294285297393799e-02,-3.514523431658744812e-02,-7.462592795491218567e-03,4.528403654694557190e-02,1.077731698751449585e-02,-4.407805204391479492e-02,1.790317893028259277e-02,6.588965654373168945e-02,-4.244599118828773499e-02,2.231707051396369934e-02,1.381768882274627686e-01,3.461106121540069580e-02,-1.389821320772171021e-01,-6.925834715366363525e-02,2.185496129095554352e-02,-9.272597730159759521e-02,-3.422359377145767212e-02,1.489222347736358643e-01,1.211561933159828186e-01,2.603152953088283539e-02,5.434400588274002075e-02,4.499711841344833374e-02,3.092386573553085327e-02,4.092500358819961548e-02,-1.775569468736648560e-02,-6.557945162057876587e-02,-1.423463076353073120e-01,1.351449340581893921e-01,-1.383854076266288757e-02,1.633962243795394897e-01,-8.476510643959045410e-03,5.004015564918518066e-02,8.146961778402328491e-02,1.026168316602706909e-01,1.564621180295944214e-02,5.608068406581878662e-02,7.108588516712188721e-02,-5.147001519799232483e-02,-1.971773058176040649e-02,-8.937992155551910400e-02,-2.446416206657886505e-02,-2.057834528386592865e-02,-6.346008926630020142e-02,-3.259707987308502197e-02,5.137971788644790649e-02,-6.047781556844711304e-02,-9.835980087518692017e-02,-2.574756368994712830e-02,-6.729554384946823120e-02,1.237748339772224426e-01,7.777338474988937378e-02
-5.214402079582214355e-02,-2.691926434636116028e-02,5.787449330091476440e-02,5.692902952432632446e-02,-3.064855188131332397e-02,1.000831276178359985e-02,5.035761743783950806e-02,6.202017515897750854e-02,5.602293461561203003e-02,-2.667852863669395447e-02,-5.198976024985313416e-02,-6.667131930589675903e-02,-2.570524811744689941e-02,3.768143802881240845e-02,-6.686823815107345581e-02,5.584833770990371704e-02,-7.256706058979034424e-02,-4.460145905613899231e-02,-2.888269722461700439e-03,-2.136072516441345215e-02,5.597954243421554565e-02,-2.767133712768554688e-02,2.803653478622436523e-04,-2.370953559875488281e-03,-5.675005912780761719e-02,-6.775383651256561279e-02,-4.767522215843200684e-03,6.829883903264999390e-02,-5.239005386829376221e-02,-5.100581049919128418e-02,-5.736231431365013123e-02,-8.175977319478988647e-02,5.049156397581100464e-02,-7.457697391510009766e-02,-2.128656208515167236e-02,-1.302354037761688232e-03,-1.347862184047698975e-03,-1.701226830482482910e-02,-7.463447749614715576e-03,6.387480348348617554e-02,5.528064817190170288e-02,2.687235921621322632e-02,3.118096292018890381e-02,5.082594603300094604e-02,6.217921525239944458e-02,3.584793210029602051e-02,-1.002167165279388428e-02,-4.194221645593643188e-02,-2.575337886810302734e-02,4.709998518228530884e-02,1.500291377305984497e-02,3.116849064826965332e-02,3.825767338275909424e-02,-3.493720293045043945e-02,2.057804167270660400e-02,7.804695516824722290e-02,6.975478678941726685e-02,3.696648776531219482e-02,5.142761021852493286e-02,-5.581470578908920288e-02,-5.212416499853134155e-02,-7.027957588434219360e-02,1.586364954710006714e-02,-3.069146722555160522e-02
-4.954155161976814270e-02,2.745330333709716797e-02,1.249713450670242310e-02,-1.958126574754714966e-02,-1.659055054187774658e-02,1.704230904579162598e-02,-1.471380889415740967e-02,4.586914926767349243e-02,7.586953788995742798e-02,-5.402704328298568726e-02,6.237227469682693481e-02,1.612471789121627808e-02,-7.168711721897125244e-02,-3.552844002842903137e-02,-7.374241203069686890e-02,-7.706627249717712402e-02,8.086770772933959961e-03,-6.252784281969070435e-02,-2.132263779640197754e-02,5.742574483156204224e-02,-7.686129212379455566e-02,-5.208365619182586670e-03,-1.069282740354537964e-02,1.107484102249145508e-03,-2.377714216709136963e-02,-7.037250697612762451e-02,7.557212561368942261e-02,-7.419201731681823730e-02,8.139836043119430542e-02,7.549781352281570435e-02,-6.931103020906448364e-02,-2.337923645973205566e-02,7.787596434354782104e-02,-4.258936271071434021e-02,-2.386811003088951111e-02,7.906127721071243286e-02,-4.798427224159240723e-03,6.437075883150100708e-02,3.288760781288146973e-04,4.038574546575546265e-02,-3.243640065193176270e-03,1.736681163311004639e-02,3.086887300014495850e-02,-5.049004405736923218e-02,6.516889482736587524e-02,-4.433451220393180847e-02,4.447904974222183228e-02,-4.736237972974777222e-02,-7.244059443473815918e-02,-6.835463643074035645e-02,-6.893829256296157837e-02,8.377138525247573853e-02,6.259227544069290161e-02,-6.483469903469085693e-02,4.500814527273178101e-02,-1.757536083459854126e-02,-3.926981613039970398e-02,1.054592430591583252e-02,6.103699654340744019e-02,-3.774102032184600830e-02,1.791715621948242188e-03,6.928948312997817993e-02,-8.405868709087371826e-02,2.602506428956985474e-02
7.186160236597061157e-02,-4.621921852231025696e-02,-4.175424575805664062e-03,-6.398111581802368164e-03,7.026346772909164429e-02,7.617283612489700317e-02,2.789324522018432617e-02,9.693920612335205078e-03,3.846605867147445679e-02,-2.389654889702796936e-02,5.827680975198745728e-02,5.704622715711593628e-02,2.537667006254196167e-02,-1.840554922819137573e-02,2.762944251298904419e-02,-7.401291280984878540e-02,-6.037749350070953369e-03,-9.310930967330932617e-03,1.389926671981811523e-02,-7.436375319957733154e-02,3.699945658445358276e-02,-5.961845815181732178e-02,8.075749129056930542e-02,-5.320049822330474854e-03,-3.464504703879356384e-02,5.603607743978500366e-02,4.663579910993576050e-02,-7.474748045206069946e-02,6.764345616102218628e-02,3.847257792949676514e-02,7.881823927164077759e-02,-7.666704058647155762e-02,8.275354653596878052e-02,-6.371207535266876221e-02,5.726646631956100464e-02,7.276547700166702271e-02,-1.454905420541763306e-02,-6.240969896316528320e-02,-1.223802566528320312e-02,-7.446973770856857300e-02,8.974894881248474121e-03,-1.157224178314208984e-03,-6.762638688087463379e-02,-6.578836590051651001e-02,-4.529704153537750244e-02,-5.627711117267608643e-02,8.588396012783050537e-03,5.896372348070144653e-02,3.262591361999511719e-02,4.163765162229537964e-02,5.150955170392990112e-02,-6.870464980602264404e-02,-4.137440770864486694e-02,-2.495088800787925720e-02,-7.443127036094665527e-02,4.956277459859848022e-02,7.163488119840621948e-02,-2.813079208135604858e-02,3.779352456331253052e-02,4.362734407186508179e-02,-1.854344457387924194e-02,3.225014358758926392e-02,-7.534176111221313477e-02,2.780947834253311157e-02
-5.818347632884979248e-02,2.119930088520050049e-02,-8.363728225231170654e-02,-4.054794833064079285e-02,-4.602432250976562500e-03,6.725169718265533447e-03,3.053357452154159546e-02,-7.595311105251312256e-02,-2.999205887317657471e-02,7.687152177095413208e-02,-3.391806036233901978e-02,2.123692631721496582e-02,-6.144347786903381348e-02,-5.699866265058517456e-02,-5.515316128730773926e-02,4.366839677095413208e-02,4.632901400327682495e-02,5.209006369113922119e-03,-2.136615663766860962e-02,-2.483023703098297119e-02,-7.741315662860870361e-02,-7.475106418132781982e-02,1.342953741550445557e-02,-5.773109942674636841e-02,-4.019496589899063110e-02,-4.295544326305389404e-02,-5.646906793117523193e-03,-2.262666076421737671e-02,1.089048385620117188e-02,-2.526201680302619934e-02,3.887905180454254150e-02,1.586603373289108276e-02,-4.716768860816955566e-02,-6.849070638418197632e-02,7.575368136167526245e-02,7.132679224014282227e-03,4.949031025171279907e-02,8.216961473226547241e-02,-3.740675002336502075e-02,-5.948732048273086548e-02,3.788860887289047241e-02,8.223160356283187866e-02,-5.080379545688629150e-03,-3.916723653674125671e-02,-6.783072650432586670e-02,3.333976119756698608e-02,1.882698386907577515e-02,-1.503687351942062378e-02,1.882048696279525757e-02,4.926235228776931763e-02,-2.108661085367202759e-02,-3.433048725128173828e-02,5.613157898187637329e-02,-1.998043060302734375e-02,1.732289046049118042e-02,-6.274332851171493530e-02,2.959460020065307617e-03,4.894586652517318726e-02,-5.164510011672973633e-02,-1.299140602350234985e-02,-7.776515930891036987e-02,-5.458721518516540527e-02,-1.462897658348083496e-02,-1.383474469184875488e-02
5.449185520410537720e-02,3.642254322767257690e-02,5.790434777736663818e-03,6.219509989023208618e-02,5.798717588186264038e-02,3.591711819171905518e-02,5.750858038663864136e-02,-4.167649149894714355e-02,-6.319694966077804565e-02,6.111905723810195923e-02,3.768727183341979980e-04,-7.771919667720794678e-02,1.274639368057250977e-02,6.691690534353256226e-02,-6.645916402339935303e-02,1.545591652393341064e-02,-1.476428657770156860e-02,-4.136152938008308411e-02,-4.411902278661727905e-02,-7.170300185680389404e-02,2.405327558517456055e-02,1.049293577671051025e-02,-4.008271917700767517e-02,-1.361135393381118774e-02,-1.304905861616134644e-02,9.528025984764099121e-03,-3.998567163944244385e-02,-4.996035620570182800e-02,-7.684460282325744629e-02,-4.586567357182502747e-02,-5.462776497006416321e-02,8.408253639936447144e-02,-5.961261689662933350e-03,7.195178419351577759e-02,-6.855610758066177368e-02,6.065847724676132202e-02,8.361600339412689209e-03,-4.204938933253288269e-02,-3.826202452182769775e-02,5.674729496240615845e-02,7.368583232164382935e-02,4.003428667783737183e-02,7.616611570119857788e-02,-7.335441559553146362e-02,2.620717883110046387e-02,8.233528584241867065e-02,4.135402292013168335e-02,-5.136403068900108337e-02,7.083731144666671753e-02,6.143557280302047729e-02,-3.124453872442245483e-02,1.639455556869506836e-03,6.337497383356094360e-02,-2.430141344666481018e-02,1.279290020465850830e-02,-7.225766032934188843e-02,-7.048413157463073730e-03,7.337350398302078247e-02,-6.159457564353942871e-02,-1.553206145763397217e-02,1.849243044853210449e-02,-5.960353463888168335e-02,-1.205208152532577515e-02,-1.964924484491348267e-02
5.227740854024887085e-02,8.370808511972427368e-02,-7.254385948181152344e-02,-1.573421061038970947e-03,6.842055171728134155e-02,5.691166967153549194e-02,6.072578579187393188e-02,-5.480200052261352539e-04,8.245136588811874390e-02,7.090461999177932739e-02,-1.158223301172256470e-02,-5.790433287620544434e-02,-5.642232671380043030e-02,1.533666998147964478e-02,-3.340901061892509460e-02,-5.122146010398864746e-02,-6.793751567602157593e-02,6.659000366926193237e-02,-1.351018249988555908e-02,-1.388468593358993530e-02,-6.252758204936981201e-02,-5.493915453553199768e-02,2.329319715499877930e-03,6.286478787660598755e-02,-4.943614453077316284e-02,-2.726302295923233032e-02,-5.454130843281745911e-02,6.838285177946090698e-02,5.917663127183914185e-02,-5.601246654987335205e-02,5.083336681127548218e-02,7.619928568601608276e-02,7.345887273550033569e-02,7.284615188837051392e-02,-5.860683321952819824e-02,4.777220636606216431e-02,-8.287966996431350708e-02,1.305343210697174072e-02,-7.012966275215148926e-02,2.784172445535659790e-02,4.910491406917572021e-03,-6.379793584346771240e-02,-3.575860708951950073e-02,-2.472214400768280029e-03,4.596865922212600708e-02,4.330465942621231079e-02,-5.682604759931564331e-02,7.282201200723648071e-02,7.581729441881179810e-02,6.378924101591110229e-02,6.321600824594497681e-02,6.301441043615341187e-02,-5.695865303277969360e-02,1.694365590810775757e-02,1.786483079195022583e-02,4.764088243246078491e-02,1.614016294479370117e-02,-3.688648715615272522e-02,-2.817128598690032959e-02,-3.720122948288917542e-02,-9.684413671493530273e-03,-1.499234884977340698e-02,-7.212316989898681641e-02,-3.153954446315765381e-02
-4.671667888760566711e-02,-4.836423695087432861e-02,-4.370606690645217896e-02,1.849730126559734344e-02,1.623041741549968719e-02,2.983625978231430054e-02,-2.168661728501319885e-02,-9.416569769382476807e-02,-1.887748949229717255e-02,-4.355569928884506226e-02,-9.997308999300003052e-02,4.054276272654533386e-02,-7.765820622444152832e-02,6.707636266946792603e-02,2.346169948577880859e-02,-3.498223423957824707e-02,-1.791112124919891357e-02,5.107328761368989944e-03,-4.872399941086769104e-02,-9.553290903568267822e-03,-4.298933595418930054e-02,4.151878505945205688e-02,6.850071996450424194e-02,-1.502923667430877686e-02,-1.989507116377353668e-02,5.135827884078025818e-02,-2.251744270324707031e-02,7.753408048301935196e-03,1.390086952596902847e-02,6.511732190847396851e-02,3.263582289218902588e-02,8.063156157732009888e-02,3.793015703558921814e-02,-1.832960173487663269e-02,-1.433222927153110504e-02,6.348577793687582016e-03,-4.410450160503387451e-02,3.006629645824432373e-03,5.065549910068511963e-02,-3.177978098392486572e-02,-7.080480572767555714e-04,-7.079778704792261124e-03,-1.388631947338581085e-02,1.621969789266586304e-02,-7.655762881040573120e-02,4.438904300332069397e-02,4.591894149780273438e-02,-1.507411152124404907e-02,5.135323852300643921e-02,-7.521939277648925781e-02,-6.286006420850753784e-02,-5.303142964839935303e-02,9.605713188648223877e-03,-9.074770659208297729e-02,5.462967790663242340e-03,1.273728907108306885e-02,4.346816614270210266e-02,4.184812307357788086e-03,5.074305227026343346e-04,9.185973554849624634e-03,3.935268521308898926e-02,6.098558753728866577e-02,-3.670633211731910706e-02,3.988965228199958801e-02
-9.647795557975769043e-02,1.401750445365905762e-01,-1.694520264863967896e-01,-1.720073372125625610e-01,2.603175044059753418e-01,-2.492257952690124512e-01,-4.285774007439613342e-02,-2.010358273983001709e-01,8.639635890722274780e-02,9.622371941804885864e-02,-2.075922638177871704e-01,3.606930747628211975e-02,2.605001032352447510e-01,4.085003584623336792e-02,-1.083860546350479126e-01,1.335128396749496460e-02,-4.555857554078102112e-02,-3.600889071822166443e-02,-2.595809847116470337e-02,1.148257181048393250e-01,-1.545364707708358765e-01,2.554596662521362305e-01,1.115033775568008423e-02,2.346036136150360107e-01,-7.005497068166732788e-02,6.793715804815292358e-02,7.673280686140060425e-02,-6.227991357445716858e-02,1.462365984916687012e-01,-6.658891588449478149e-02,-2.130914665758609772e-02,8.529298007488250732e-02,1.253834366798400879e-01,-8.760067820549011230e-02,4.212955385446548462e-02,2.529424428939819336e-01,-7.484273612499237061e-02,-1.906711608171463013e-02,-3.988444805145263672e-02,-8.005781471729278564e-02,9.630277007818222046e-02,-1.411217749118804932e-01,2.044301331043243408e-01,-2.233986556529998779e-02,-1.458282321691513062e-01,1.616997122764587402e-01,1.812586933374404907e-02,1.481890380382537842e-01,-1.117532402276992798e-01,1.206456497311592102e-01,-2.387875318527221680e-01,3.609839454293251038e-02,-4.350736271589994431e-03,1.374180614948272705e-01,-1.520257741212844849e-01,-2.177140489220619202e-02,1.532303821295499802e-02,4.834609478712081909e-02,-4.310990497469902039e-02,1.123117953538894653e-01,4.615272954106330872e-02,-1.799927353858947754e-01,1.566870063543319702e-01,-3.412256017327308655e-03
-6.809107214212417603e-02,1.089583784341812134e-01,1.202364638447761536e-02,-1.298166662454605103e-01,2.982754707336425781e-01,-2.378180474042892456e-01,9.933634102344512939e-02,-1.514373719692230225e-01,1.486973017454147339e-01,1.454626321792602539e-01,-1.338813006877899170e-01,7.324432581663131714e-02,-3.616160899400711060e-02,-1.011708453297615051e-01,-1.529719531536102295e-01,-1.044021267443895340e-02,-1.588797196745872498e-02,-7.916120439767837524e-02,-2.029619365930557251e-02,6.492536980658769608e-03,-2.380176931619644165e-01,1.425729095935821533e-01,-1.185675561428070068e-01,2.129413187503814697e-01,1.306552588939666748e-01,-7.831256836652755737e-02,-6.107172369956970215e-02,-1.588492393493652344e-01,-6.935693323612213135e-02,-5.275712907314300537e-02,1.650564968585968018e-01,5.430746823549270630e-02,7.250246405601501465e-02,-1.380060315132141113e-01,6.564605236053466797e-02,6.468418985605239868e-02,-1.334144622087478638e-01,-7.604067027568817139e-02,-6.728832423686981201e-02,-1.909620594233274460e-03,1.484203338623046875e-01,-1.778699755668640137e-01,2.532402276992797852e-01,-5.079122632741928101e-02,-1.875261068344116211e-01,1.624898761510848999e-01,9.771849215030670166e-02,1.636519730091094971e-01,-8.264057338237762451e-02,2.541698515415191650e-01,-2.187184840440750122e-01,-1.279056966304779053e-01,-4.809735342860221863e-02,1.338727325201034546e-01,-4.216751828789710999e-02,-1.264815181493759155e-01,3.350842744112014771e-02,-1.248944699764251709e-01,-1.635503955185413361e-02,1.488245725631713867e-01,-4.943661764264106750e-02,-1.081220731139183044e-01,1.551810503005981445e-01,-7.214543223381042480e-02
